<?xml version="1.0"?>
<opencv_storage>
<opencv_ml_svm>
  <format>3</format>
  <svmType>C_SVC</svmType>
  <kernel>
    <type>LINEAR</type></kernel>
  <C>1.</C>
  <term_criteria><iterations>100</iterations></term_criteria>
  <var_count>928</var_count>
  <class_count>7</class_count>
  <class_labels type_id="opencv-matrix">
    <rows>7</rows>
    <cols>1</cols>
    <dt>i</dt>
    <data>
      200 250 300 350 400 450 500</data></class_labels>
  <sv_total>21</sv_total>
  <support_vectors>
    <_>
      -1.02012546e-03 -8.96791898e-05 -1.50104488e-05 3.14329664e-04
      6.21921383e-04 4.08577907e-04 2.72973848e-04 -1.39250042e-04
      2.19353955e-04 -8.09311692e-04 8.39688524e-04 -3.61558894e-04
      -1.15972005e-04 2.33359198e-04 -1.45019533e-03 -3.94239411e-04
      3.38129990e-04 1.32360801e-04 2.31617640e-04 -4.45746700e-05
      -9.81514691e-04 -1.65657184e-04 -3.29766393e-04 -5.70834090e-04
      6.33265940e-04 1.95812411e-03 -9.44316213e-04 -4.93645086e-04
      1.42043631e-04 -1.55049158e-04 -3.11426083e-05 3.13760567e-04
      7.00911391e-04 3.37487349e-04 -2.21484137e-04 6.76654978e-04
      -1.36331801e-04 3.76597309e-04 4.10704175e-04 5.16069049e-05
      3.29359638e-04 3.03627661e-04 8.59166554e-04 -2.95198476e-03
      6.15805329e-04 1.04571627e-04 8.29487617e-05 1.65516080e-03
      -1.76621281e-04 -1.73981789e-05 -1.05845611e-04 4.86056728e-04
      -3.99875018e-04 2.49522272e-04 6.58734876e-04 -5.00755152e-04
      2.07883117e-04 -2.14416720e-03 -4.67995160e-05 2.31448401e-04
      -1.41337863e-04 -2.16810906e-04 3.01482476e-04 -3.16780352e-04
      -2.64615082e-04 -4.14699200e-04 1.58390903e-04 -1.48370047e-04
      3.70945287e-04 4.74009168e-04 7.94077001e-04 1.00499499e-04
      -1.43435000e-05 -8.30675184e-04 -3.15138350e-05 4.43882454e-04
      -3.37135338e-04 -1.64680695e-03 -2.59790191e-04 2.24134477e-04
      5.04673575e-04 1.17258367e-03 -3.21949628e-04 -1.14861561e-03
      -1.30076532e-03 -5.95231366e-04 6.66978885e-04 -4.02520236e-04
      -2.50081852e-04 6.60850928e-05 -1.64787099e-03 -7.76490255e-04
      -1.28368469e-04 4.63831035e-04 -2.46264506e-04 4.34239220e-04
      -2.06139885e-04 -6.44431973e-04 -1.88073434e-04 4.72828251e-05
      -3.38628233e-05 -2.29040365e-04 -7.67238089e-04 -2.36385938e-04
      3.33668082e-04 1.62807375e-03 1.01088030e-04 3.76750046e-04
      -1.69085921e-04 -1.39749981e-03 4.74051660e-04 4.37179668e-04
      7.42626493e-04 5.86371636e-04 1.18476315e-03 3.04047787e-03
      -8.37444968e-04 -4.74212982e-04 3.29352886e-04 -8.44728725e-04
      -5.29024168e-04 -2.59475695e-04 4.18919808e-04 3.45730878e-05
      1.90292383e-04 -6.32695504e-04 8.85992893e-04 -7.60718540e-04
      -9.26278008e-04 6.47575187e-04 -3.30291921e-04 -3.16897756e-04
      -2.45357951e-04 1.22389931e-04 -7.35344423e-04 -5.68936986e-04
      1.07197884e-05 5.56669256e-04 -2.27176279e-04 -4.43672383e-04
      -2.21603637e-04 1.64923054e-04 -1.69540697e-04 -4.89345286e-04
      8.85057030e-04 -1.27574735e-04 6.72796217e-04 3.93872266e-04
      -7.62564305e-04 -2.44232331e-04 2.42094939e-05 -2.88096839e-04
      7.03823389e-05 -4.27759456e-04 -1.11308380e-03 -3.34746059e-04
      6.05045898e-05 7.66853802e-04 -4.35038499e-04 1.53955061e-03
      -3.11090902e-04 1.80426473e-03 1.21116010e-03 -1.33930554e-03
      -8.44390423e-04 5.78836887e-04 8.95247140e-05 4.82265110e-04
      -4.93045838e-04 1.04367023e-03 4.38025709e-05 6.30235532e-04
      6.97500422e-04 1.37777976e-03 -1.15041279e-04 -2.85909278e-04
      -3.41251318e-04 3.45682027e-04 1.58661584e-04 -5.07736404e-05
      -8.04307263e-07 -1.90321152e-04 3.00410378e-04 2.53185921e-04
      -1.78286480e-03 -6.14938152e-04 -6.96527277e-05 1.38296175e-03
      1.67434955e-05 7.11538072e-04 2.53159029e-04 -1.00041259e-04
      -1.54881738e-04 8.68561154e-04 4.95127053e-04 4.17878793e-04
      2.65937473e-04 -2.89473915e-04 -7.48790742e-04 -4.45619255e-04
      5.47864067e-04 -1.05381216e-04 1.67073827e-04 1.85193305e-04
      9.88139291e-05 -7.52436099e-05 4.87360148e-06 1.08899731e-04
      -9.41797392e-04 2.60920933e-04 -1.71822030e-04 4.81745810e-04
      -1.25795801e-03 2.65231036e-04 -1.45328697e-04 -4.77855720e-05
      4.66942874e-04 2.78269919e-03 4.10382141e-04 5.87267801e-04
      -1.27482135e-03 -3.43468133e-03 4.65865051e-05 -5.95700811e-04
      4.22457088e-04 -7.99148751e-04 -2.22003619e-05 7.73642096e-05
      -3.69326386e-04 3.12478602e-04 7.07497762e-04 1.02741888e-03
      5.31997590e-04 3.31994641e-04 -3.46533197e-04 2.76743987e-04
      -9.38965357e-04 2.53115199e-04 1.63306668e-03 4.55038273e-04
      1.04278664e-03 -1.01612206e-03 6.53073366e-04 2.96905346e-04
      -1.03677150e-04 9.23480024e-04 -3.05567472e-03 -2.56176386e-03
      -4.45232785e-04 1.27361622e-03 3.26170149e-04 -7.27160077e-04
      -8.45791248e-04 8.22793867e-04 -4.57833812e-04 -2.74068530e-04
      7.81483832e-04 1.42554799e-03 -7.19820149e-04 1.72212342e-04
      2.37392349e-04 -1.38749208e-04 3.10391071e-04 2.69815966e-04
      2.31087426e-04 1.45235285e-03 2.21064940e-04 4.48920648e-04
      9.37810546e-05 -2.36039996e-04 -1.89283863e-04 -3.27610265e-04
      3.44052969e-04 -5.93739933e-05 -7.15619710e-04 5.16468681e-05
      -4.20000346e-04 -8.71451848e-05 6.43312058e-04 5.72748133e-04
      -5.25035779e-04 -6.10328629e-04 -4.92270745e-04 3.63802916e-04
      -2.15392778e-04 5.40464069e-04 -2.47026212e-04 -6.85471809e-04
      8.24375078e-04 -1.36324274e-03 1.64586687e-04 -6.71286660e-04
      -7.78471949e-05 1.30582084e-05 7.96788663e-04 3.16096593e-05
      -1.67627819e-04 1.77335707e-04 1.03003309e-04 -4.54400695e-04
      -9.16706864e-04 2.54032842e-04 2.36523538e-05 2.04873271e-04
      3.65937536e-04 -5.27931377e-04 4.88946331e-04 -1.76565663e-04
      2.86703871e-04 1.32186997e-05 1.09716214e-03 -4.38021700e-04
      6.98419990e-06 3.29464994e-04 7.90119462e-04 4.71704814e-04
      1.39122974e-04 -4.13897855e-04 -2.47172080e-04 -4.10607172e-04
      9.75917574e-05 5.93529432e-04 5.17251145e-04 -1.60108539e-04
      7.51840562e-05 5.07125282e-04 1.43350830e-04 -1.28031510e-03
      1.92057062e-03 1.13379129e-03 2.38858935e-04 -7.98946363e-04
      -3.76846117e-04 -3.41015798e-03 -1.51292665e-03 -2.04669836e-04
      -1.94486827e-04 3.46396293e-04 4.84702294e-04 8.27520416e-05
      6.35281176e-05 9.46125598e-04 -4.68875311e-04 3.19137529e-04
      5.56777930e-04 -4.54733890e-05 -5.84189605e-04 -2.45919335e-04
      -4.07224376e-04 1.76682865e-04 4.05936662e-05 8.30715057e-04
      -3.30578827e-04 4.51406027e-04 7.40035175e-05 2.63254333e-04
      3.24255408e-04 -1.16148370e-03 1.69721816e-03 5.09566235e-06
      -5.06956014e-04 -9.94249363e-04 -3.04120104e-03 -1.18844572e-03
      2.50278215e-04 -5.24662435e-04 1.91986968e-04 9.87880630e-04
      -1.14711409e-03 -7.57611939e-04 -7.00236473e-04 -2.84333888e-04
      4.88986669e-04 2.84122815e-03 9.92377289e-04 2.16956105e-04
      -3.34180892e-04 -3.76401324e-04 1.43656158e-03 -1.31000124e-04
      -7.48796505e-04 4.42823512e-04 -2.96505197e-04 2.91592267e-04
      2.21903189e-04 3.39838065e-04 1.30035006e-03 2.17493332e-04
      -3.21829051e-04 -7.95215601e-05 -2.85582268e-04 1.04588689e-03
      -2.77553016e-04 5.94444457e-04 -3.61769024e-04 -2.22451193e-03
      -5.26046380e-04 1.08670921e-03 6.11454772e-04 1.88304475e-04
      -6.65101106e-04 8.38342647e-04 4.24442056e-04 -5.29637386e-04
      -5.15531807e-04 -1.55000016e-04 -3.09462834e-04 9.35793563e-04
      1.03271625e-04 1.92000545e-04 -8.71848431e-04 -4.03272628e-04
      -3.17624770e-04 2.06383687e-04 2.01978852e-04 -3.06351751e-04
      -8.65913637e-04 4.02202655e-04 8.22367670e-04 1.44254114e-03
      9.63773055e-05 5.32541890e-04 3.67535162e-04 2.05738761e-04
      2.44973984e-04 -2.63212220e-04 1.99244195e-03 1.23109145e-04
      -3.07492955e-05 1.12470982e-04 1.51220902e-05 -4.45646110e-05
      4.97995643e-04 1.17427968e-04 -5.79786254e-04 5.06844408e-05
      4.73038031e-04 1.68058366e-04 9.45022766e-05 -8.03641509e-04
      -7.37627444e-04 5.10099169e-04 -1.24903498e-04 5.78893596e-05
      6.59472309e-04 -5.23886047e-05 -1.69191102e-04 -2.96905113e-04
      -8.37329717e-05 -3.52959527e-04 -9.51859038e-05 7.19089934e-04
      3.42881773e-04 -9.46051790e-04 4.09473287e-04 -4.91076091e-04
      -8.85641784e-04 -7.56920665e-04 -3.33137054e-04 -6.11206924e-05
      4.49192070e-04 -6.76586700e-04 4.25589125e-04 -2.11238721e-03
      -1.35089422e-03 -7.61874078e-04 -2.81461864e-04 -7.01255994e-05
      2.08827245e-04 1.86149628e-04 -1.63053090e-04 -4.49212966e-05
      -1.32367379e-04 -3.23625922e-04 -9.77495292e-05 4.41969489e-04
      -6.52010203e-04 1.74260233e-04 2.67375057e-04 -2.56874831e-04
      4.50937048e-04 1.28131465e-03 5.32645674e-04 -2.06466473e-04
      -1.22125924e-03 -4.40211501e-04 -5.84265450e-04 1.08282187e-03
      2.93618208e-03 1.91788029e-04 -2.69717351e-03 -1.10728526e-03
      -9.11249605e-04 -3.51535055e-05 -8.39069486e-04 -3.42942862e-04
      -7.60407769e-04 -7.77369016e-04 -1.52166729e-04 -1.75428340e-05
      -6.30527618e-04 1.85667261e-04 -3.82662402e-04 -7.17726885e-04
      -5.10876998e-04 4.45224978e-05 1.48841343e-03 1.59000815e-03
      -6.83260951e-05 -7.69765815e-04 2.79042491e-04 3.87858646e-03
      1.32053206e-03 -4.92512598e-04 -7.05335347e-04 3.26888356e-03
      9.73583374e-04 -4.68992017e-04 3.26034293e-04 2.76400126e-04
      -8.19522174e-05 -2.32974556e-03 5.60616492e-04 -6.05531328e-04
      3.73073039e-04 -6.40854341e-05 4.56880312e-04 1.18474818e-04
      3.42178508e-04 8.14332598e-05 -3.89091547e-05 -3.62071441e-04
      -2.95198546e-03 4.66632482e-04 2.43248951e-06 -4.95883636e-04
      8.49375065e-05 2.48647964e-04 -3.77358578e-04 7.20102747e-04
      5.32060629e-04 9.77981545e-05 6.26287598e-04 -6.47763605e-04
      2.18185611e-04 1.04414423e-04 -6.27682428e-04 -1.82863496e-05
      1.17614912e-03 -2.14488406e-04 -2.74354825e-04 1.75081746e-04
      2.27738521e-04 5.77230589e-04 1.28994440e-03 2.33692146e-04
      3.43444466e-04 -1.69195409e-04 7.86021061e-04 1.20229658e-03
      -1.91375834e-03 1.31283945e-03 7.13035979e-06 2.21434486e-04
      -2.47334479e-04 -8.55169317e-04 1.47529645e-04 -1.02494704e-03
      -3.16277379e-04 -2.66058836e-04 -9.96115850e-04 6.22316089e-04
      -1.87038080e-04 -9.59221390e-04 7.58526949e-05 2.24499599e-04
      1.26018902e-04 -2.71362573e-04 -4.80668328e-04 5.82171488e-04
      5.82162866e-05 -1.62861143e-05 -1.10137571e-05 2.95208738e-04
      9.60679536e-05 -2.72603676e-04 6.58609715e-05 -3.64868379e-06
      8.51830409e-04 8.17637483e-05 2.60488363e-04 -3.26948764e-04
      2.20467889e-04 2.43032082e-05 5.80330438e-04 3.88344750e-04
      5.55933075e-05 -4.31328779e-04 7.22385768e-04 1.05939351e-03
      -2.46411713e-04 7.13960209e-04 -3.65103770e-04 2.58857326e-05
      -6.82998390e-04 9.96785820e-05 8.35912477e-04 4.64418961e-04
      -3.35030374e-04 2.20030579e-05 5.24076400e-04 -2.09901555e-04
      1.57143571e-04 6.20113278e-04 -4.00494289e-04 2.22371222e-04
      -6.76042459e-04 -2.74535123e-04 -4.11816873e-04 8.63770038e-05
      3.59473517e-04 -6.45047476e-05 1.06999840e-04 -9.56472766e-04
      -7.58419104e-04 9.04378976e-05 -1.87488637e-04 -1.46573677e-03
      -1.16335554e-03 -6.19915227e-05 1.86557503e-04 -3.81813181e-04
      -7.84357719e-04 -1.47708430e-04 2.44977928e-05 1.36371702e-04
      7.36374233e-04 4.63102158e-04 -1.57316914e-03 1.35415121e-05
      -1.28080983e-05 -1.16978445e-04 -6.29671442e-04 -4.23133664e-04
      -6.39636884e-04 -1.27093168e-04 -3.93377595e-05 -2.75738654e-04
      5.24271054e-05 1.08451430e-04 1.62439595e-04 1.25203122e-04
      5.23445306e-05 2.18045370e-05 -2.15927896e-04 -1.12115510e-03
      1.11173191e-04 -3.30495532e-04 -9.18901060e-05 -3.16451420e-04
      6.50545408e-04 -1.44303514e-04 -8.09770310e-04 -2.58711574e-04
      -7.10861641e-05 -4.81896423e-04 -1.25945051e-04 -3.25959008e-05
      1.45749596e-03 -5.92419354e-04 1.13333389e-03 -8.44312948e-04
      -1.03798935e-04 -2.35863394e-04 2.08511716e-04 3.50215589e-04
      1.49378306e-04 8.01157206e-04 5.09258243e-04 8.20548303e-05
      -1.86417106e-04 2.19985447e-03 1.91641762e-03 2.08017929e-03
      -2.11337232e-04 -1.32609857e-04 4.58292692e-04 -3.00029933e-04
      1.14518113e-03 -7.70300918e-04 8.62783636e-05 9.44809173e-04
      -2.41782720e-04 -8.07265344e-04 -7.02265883e-04 -1.85415288e-03
      -1.53884944e-03 -3.90396570e-04 1.79871669e-04 3.80794736e-05
      -1.27908774e-04 1.78334842e-04 5.69252996e-04 -4.22377634e-04
      -2.41789443e-04 1.17235072e-03 1.83062197e-03 -1.03407272e-03
      -1.25712439e-04 1.05183513e-04 1.67927903e-03 1.23347493e-03
      3.12286400e-04 -3.75156058e-04 -1.19404192e-03 8.41514207e-04
      3.17330967e-04 4.18437732e-04 8.59796783e-05 -4.03258862e-04
      -2.30664434e-03 -2.86605838e-03 -4.84996126e-04 -1.65699588e-04
      -7.46184902e-04 1.90893377e-04 4.67559992e-04 -2.11586113e-04
      1.87209179e-03 1.33836316e-03 8.35153274e-04 -7.34305766e-04
      -1.62088394e-03 2.40398367e-04 -5.34573803e-04 -5.92960510e-04
      2.24845237e-04 4.41118929e-04 8.45246715e-04 1.68905803e-03
      4.80569637e-04 -5.70605742e-04 1.80745556e-03 -1.60424982e-03
      6.12062344e-04 1.78273494e-05 5.84642112e-04 -2.09210720e-03
      -1.32773223e-03 1.57887218e-04 -1.20849488e-03 7.03719677e-04
      3.35348625e-04 1.11440488e-03 9.05933673e-04 7.79488691e-05
      -5.00308990e-04 1.67994614e-04 2.61149951e-04 1.89405153e-04
      6.51141047e-04 -5.90058426e-06 4.40896023e-04 -1.39170804e-03
      1.77500042e-04 1.12498249e-03 2.76580860e-04 1.08546147e-03
      -9.20597056e-04 1.66586004e-04 9.47871886e-04 -8.99991428e-05
      1.43334584e-03 6.90675923e-04 8.62484856e-04 -4.24321683e-04
      2.69101496e-04 8.43786285e-04 -1.07117742e-03 8.15588748e-04
      4.17732284e-04 2.44538649e-04 2.92480225e-04 2.25830328e-04
      5.12682192e-04 -7.67622609e-04 -2.41255481e-03 -1.13358966e-03
      5.07127515e-05 4.18295385e-04 6.86108018e-04 -8.40964422e-05
      -8.66317772e-04 -1.35602581e-03 -7.01807905e-04 6.96527888e-04
      7.89250247e-04 -3.34813772e-03 -1.64862513e-03 -1.12604204e-04
      1.73027557e-03 -1.63553655e-03 -1.08414562e-03 3.92399554e-04
      1.56441500e-04 -1.75931409e-03 7.16758252e-04 1.21740581e-04
      1.35198541e-04 -1.54247478e-04 7.74263346e-04 1.71896792e-03
      5.00837807e-04 -3.65414307e-04 3.53405136e-04 2.23615803e-04
      -2.97745428e-04 1.51888758e-04 -5.62855967e-05 2.07135716e-04
      1.77808818e-06 9.24447668e-04 1.42836210e-03 3.07805050e-04
      1.69968480e-04 -5.16682572e-04 -3.70938360e-04 1.25154969e-03
      1.78058865e-04 3.00417858e-04 -2.78252206e-04 -1.65187439e-03
      -1.50930788e-03 3.85330262e-04 1.72912536e-04 4.49809799e-04
      4.85651486e-04 3.30665265e-04 -1.21524942e-03 2.53078470e-04
      2.10794475e-04 3.20667546e-04 2.45760457e-04 -1.40845033e-04
      -3.63690197e-04 3.52045347e-04 -5.74558566e-04 3.37504345e-04
      -1.13344402e-04 -2.59558758e-04 -3.79615376e-04 -1.67611070e-04
      3.65524204e-04 -2.27680750e-04 1.91595318e-04 -2.11401074e-03
      3.15408950e-04 -5.19869718e-05 -3.56187666e-04 1.97555101e-03
      -3.05918453e-04 -5.52489189e-04 -5.61104971e-05 -4.37938521e-04
      -4.20579308e-05 3.80907324e-04 -2.74011720e-04 -3.41362698e-04
      1.45051233e-03 -1.20226061e-03 -1.56052760e-03 1.45713188e-04
      -1.97270419e-04 -3.27087881e-04 -6.90856192e-04 7.15805509e-04
      3.65300686e-04 -4.02908017e-06 -2.26321252e-04 6.13576791e-04
      7.23106379e-04 3.70959984e-04 8.78122009e-05 -3.53199081e-04
      2.56859494e-04 7.07183717e-05 5.80217093e-05 -9.45354404e-04
      -1.65535684e-03 -4.11376171e-03 -5.61851426e-04 1.68076222e-04
      -5.39263187e-04 1.15411567e-04 1.00934769e-04 1.87789195e-03
      -1.37826323e-03 -1.79438866e-04 1.83358090e-04 1.97952424e-04
      -4.82452655e-04 -3.81071004e-04 1.07943453e-03 2.20130569e-05
      2.12516083e-04 -6.61850383e-04 2.02876487e-04 -1.74552013e-04
      7.94396736e-04 -1.01199863e-03 6.86863088e-04 1.25227409e-04
      2.29767570e-03 2.80692359e-04 -7.54942186e-04 -7.04935344e-04
      -1.88291335e-04 2.97114113e-03 2.08907039e-03 4.69080318e-04
      2.14456944e-04 1.42510398e-03 -6.37495832e-04 -1.86056699e-04
      -6.88981556e-04 1.50255844e-04 4.80790972e-04 -9.47885332e-04</_>
    <_>
      -1.09731263e-04 -4.39703057e-04 -2.77011248e-04 -3.29932285e-04
      7.22510449e-05 2.38992347e-04 4.63151955e-04 -9.53213312e-05
      2.26460455e-04 -6.91209279e-04 9.28926456e-04 -9.39424790e-05
      -2.68012082e-04 1.13120128e-04 -1.75726946e-05 -1.89162471e-04
      -2.21016322e-04 -1.01066589e-05 -3.62521037e-04 -5.92938391e-04
      -2.65906914e-04 1.05946921e-04 -1.64206125e-04 -7.62359778e-05
      9.96833085e-04 1.49024487e-03 -9.56700474e-04 -5.40764886e-05
      2.91042496e-04 -5.78712788e-05 -2.82746449e-04 3.80456797e-04
      6.33457385e-04 5.56791725e-04 1.87787664e-04 -1.07312830e-04
      4.59045350e-06 -7.41692958e-04 -8.63934169e-04 -5.66320268e-05
      6.37323537e-04 -4.14008886e-04 1.45799445e-03 -2.11205380e-03
      -6.58339937e-04 5.79188752e-04 -1.74168264e-04 5.45879244e-04
      1.11530977e-03 -2.88039621e-04 -4.46696613e-05 8.33298662e-04
      1.21299399e-05 1.79532406e-04 6.54405332e-04 -5.69309523e-05
      -1.80176459e-04 -1.45123177e-03 1.12770547e-04 -1.37907540e-04
      7.14543773e-07 -2.19913491e-05 1.59435833e-04 -3.06576607e-04
      -1.23442442e-03 -1.11527072e-04 -6.95145107e-04 1.49590982e-04
      1.01921591e-03 1.17587915e-04 -5.38590139e-05 7.64348224e-05
      -8.27866257e-04 5.07199555e-04 -1.76040376e-05 3.12862947e-04
      -1.23831071e-03 -1.44459889e-03 4.46521008e-04 2.84373848e-04
      6.40015234e-04 9.21533036e-04 -4.84652846e-05 -2.27665342e-03
      -1.71063445e-03 -1.27172330e-04 4.83843032e-04 5.08218036e-05
      -5.82540117e-04 5.77846949e-05 -1.47179933e-03 -1.40352047e-03
      -3.28405702e-04 2.72710633e-04 -1.02504848e-04 8.98969156e-05
      -1.07346757e-04 -3.90694215e-04 -1.19134915e-04 -1.75535664e-04
      5.17460576e-04 -4.59099210e-05 7.81571362e-05 -1.43108773e-04
      7.90837745e-04 1.80980808e-03 1.18572218e-03 2.92296645e-05
      -6.96034185e-05 3.32081390e-06 9.94355534e-04 2.33413826e-04
      8.08480254e-04 2.27249213e-04 6.31144445e-04 2.18034699e-03
      -6.89391105e-04 -2.14018830e-04 -3.06834118e-05 -9.20616614e-04
      -5.53692458e-04 -6.14149030e-04 -1.58873241e-04 1.78567469e-04
      1.62301323e-04 -3.96729331e-04 3.41253530e-04 -6.20129635e-04
      -3.18454695e-04 -2.93424033e-04 -6.50327536e-04 5.79806394e-04
      -3.88258690e-04 -4.68700775e-04 -4.18089621e-04 -1.24572578e-03
      1.43932513e-04 -1.32369983e-04 -5.18670655e-04 -2.07564517e-04
      -2.15993758e-04 2.64366190e-05 4.03193495e-04 -1.82427044e-04
      -1.23031887e-05 2.92202567e-05 2.25326177e-04 -1.71340507e-04
      -5.61483263e-04 -2.03667369e-04 -1.88061385e-04 8.34114180e-05
      -9.57075099e-05 6.69125875e-05 -9.54720075e-04 -6.47050096e-04
      2.92691811e-06 3.20840249e-04 -4.57743910e-04 3.29416571e-03
      5.39299566e-04 1.54606625e-03 9.15584096e-04 -1.24666328e-03
      2.23635987e-04 6.25324086e-04 2.49814457e-06 6.26981957e-04
      -3.03603883e-04 8.32831080e-04 2.92017416e-04 2.66114454e-04
      5.13895822e-04 1.83809246e-03 1.94062988e-04 -7.66787154e-04
      -1.17156982e-04 5.62349276e-04 7.44313802e-05 -7.90038539e-05
      -7.83188967e-04 -3.04598012e-04 -3.22176202e-04 5.29111305e-04
      -1.00237504e-03 -7.36430171e-04 1.30324042e-04 3.96706688e-04
      2.94643076e-04 1.39365124e-03 1.72063243e-04 -3.28240392e-04
      -4.08489752e-04 3.14387493e-04 -3.38366197e-04 -1.21165605e-04
      2.36404434e-04 -3.48018337e-04 -7.82188261e-04 -9.26073990e-04
      8.25895040e-05 -2.86083872e-04 -5.02850511e-04 2.70892808e-04
      4.72993299e-04 -4.75716843e-05 7.71526538e-04 -4.88373102e-04
      -1.99454735e-04 -7.10910681e-05 3.16244434e-04 4.76841611e-04
      -5.42534166e-04 1.04302908e-05 -2.96425831e-04 -6.70016743e-05
      1.87131297e-03 1.71032874e-03 1.24682498e-04 1.61279037e-04
      -6.49438807e-05 -1.71171548e-03 1.79386034e-03 2.78866326e-04
      4.11502522e-04 -1.48577441e-03 2.93360499e-04 -5.00849856e-04
      -1.16561147e-04 8.05878517e-06 3.13124874e-05 3.61272454e-04
      3.96970776e-04 1.67747145e-04 3.35686600e-05 2.64851638e-04
      -2.66733434e-04 6.12246367e-05 8.77028971e-04 2.96587736e-04
      6.48252724e-04 2.24396408e-05 1.70371274e-03 5.34696970e-04
      2.55240040e-04 -1.49743445e-03 -9.07861744e-04 -1.16246729e-03
      1.21076358e-04 8.09193589e-04 5.68040414e-04 -6.03334513e-04
      -1.16330816e-03 -5.37376851e-04 -5.13391919e-04 -3.62562219e-04
      2.77865038e-04 1.24693243e-03 -7.84160329e-06 -1.29481894e-04
      4.89307102e-04 -1.50705586e-04 -5.36425578e-05 2.50994144e-05
      -7.81946059e-04 -4.00920428e-04 1.30403976e-04 -3.09742725e-04
      -1.83907905e-05 -9.64105857e-05 -1.05542778e-04 -7.00247241e-04
      -3.05008783e-04 -2.79428036e-06 -2.49027216e-04 5.17130014e-04
      -3.06385860e-04 -2.96122220e-04 6.56678167e-04 5.15081847e-05
      2.74861697e-04 -2.43154893e-04 -2.36548891e-04 3.85300227e-04
      6.46699918e-05 -8.69922951e-05 8.85174304e-05 -2.54693674e-04
      4.93349158e-04 2.87815579e-04 -7.92265746e-06 -2.67441967e-04
      9.34505078e-05 5.24728966e-04 2.05948629e-04 2.94616068e-04
      -7.39185634e-05 8.65366019e-05 2.82755154e-05 -1.26151805e-04
      1.08643714e-03 1.40245873e-04 -2.98041879e-04 2.37179804e-04
      -3.83247476e-04 4.38362360e-04 3.80454818e-04 5.55213155e-05
      5.35211177e-04 -2.29724660e-03 -2.93527773e-06 -1.08618879e-04
      -2.96133570e-04 -8.11969876e-05 6.31774601e-04 1.60830002e-03
      1.19383629e-04 -2.31383601e-04 2.68965232e-04 1.01074496e-04
      -2.85429764e-04 1.81541633e-04 9.12256713e-04 2.17157154e-04
      3.74671305e-04 -7.58985407e-05 4.75538749e-04 -1.70187734e-03
      6.12789707e-04 5.48724318e-04 6.63806277e-04 -2.68377218e-04
      -4.66988859e-04 -3.03571904e-03 -1.96669763e-03 -5.19447320e-04
      3.26188921e-04 -2.31884351e-05 -2.37719942e-05 1.57906194e-04
      2.46754993e-04 9.92918969e-04 3.69066038e-05 7.33052411e-06
      1.47318264e-04 -7.38194794e-05 1.71566207e-05 -1.39980111e-04
      1.06493011e-03 -1.19751821e-05 1.98405305e-05 -1.72093623e-05
      -1.96763591e-04 1.44643229e-04 6.99780125e-04 -1.39893200e-05
      -2.76188919e-04 -7.77637644e-04 -6.83978491e-04 1.11205882e-04
      1.12512847e-04 -3.19800165e-04 -4.89153899e-04 -8.05825948e-06
      4.59341158e-04 -6.33706921e-04 1.86705336e-04 -8.36138905e-04
      -4.14090784e-04 -2.78085936e-04 -5.69967902e-04 -1.81223601e-04
      -1.86642676e-04 1.07188325e-03 6.50149595e-04 3.92590970e-04
      -7.98961191e-05 -1.04905950e-04 2.90506403e-04 1.10267533e-03
      -6.45158754e-04 1.56150083e-04 8.74284069e-06 4.50213091e-04
      5.60710148e-04 4.11197019e-04 1.87048211e-03 3.86088272e-04
      -1.02675265e-04 -1.63234625e-04 -6.97059615e-04 -2.55317427e-04
      5.14338026e-04 3.97936121e-04 -2.91768720e-05 -2.82758311e-03
      -2.76628038e-04 2.53967679e-04 4.32402070e-04 -8.54677128e-05
      -8.34978593e-04 4.82168165e-04 2.98071885e-04 4.92288345e-05
      2.01361079e-04 -7.83130701e-04 -4.29744337e-04 4.17408795e-04
      2.36168213e-04 8.52936719e-05 -2.43756978e-04 -7.46990554e-04
      -1.25705570e-04 -1.21919722e-04 7.80830975e-04 5.25374548e-04
      -5.11195161e-04 5.54295781e-04 -1.06621934e-04 7.54984561e-04
      4.99003363e-05 3.93378898e-04 9.11734605e-05 1.21282988e-04
      -1.42217774e-04 -5.24674077e-04 4.69795086e-05 2.09623598e-04
      2.43748000e-04 -3.24437606e-05 -2.50268204e-04 -4.17528092e-04
      -2.02354568e-04 -2.28318735e-04 2.11178092e-04 1.23033733e-05
      4.88654478e-04 -4.54523339e-04 3.65496126e-05 -5.14645362e-04
      -8.01998947e-04 -2.03427218e-04 -1.04735609e-05 -2.29359794e-05
      4.76894726e-04 -3.85812833e-04 -7.84040822e-05 -6.94864837e-04
      -2.54508832e-05 9.72679263e-05 5.09710575e-04 6.69568777e-04
      6.56974560e-04 -2.87283852e-04 1.45517930e-04 1.90525185e-04
      -7.87243916e-05 -3.57554673e-04 -5.91720418e-05 -4.95328335e-04
      3.49102047e-04 -2.94475351e-04 3.55796656e-04 1.38328309e-04
      -2.25168651e-06 -3.09207855e-04 -1.53922272e-04 -1.47840939e-04
      -1.76228423e-04 -3.51230301e-05 -2.42896305e-04 -2.79724860e-04
      -9.72586568e-05 -3.24165048e-05 -1.79156283e-04 6.34911004e-04
      -7.75592576e-04 -5.14433705e-05 5.18103188e-05 -1.28884087e-04
      -1.40631062e-04 5.82192675e-04 9.37438817e-05 -6.98342861e-04
      -1.33175199e-04 -9.10769741e-05 -3.39299673e-04 6.86321640e-04
      1.86980970e-03 -9.83061269e-04 -2.34892848e-03 -3.64688633e-04
      -3.20192630e-04 -1.94160075e-05 -4.03695856e-04 -2.10179744e-04
      -1.84330551e-04 -2.23876807e-04 -1.43610494e-04 -6.52284711e-04
      -2.43808317e-04 3.28603026e-04 2.25473457e-04 -2.18131885e-04
      -3.83940729e-04 -3.45142267e-04 1.00149808e-03 7.54310982e-04
      3.80080251e-04 -5.97755425e-04 4.22403864e-05 2.43130256e-03
      1.40959956e-03 1.04265608e-04 1.25856041e-05 2.35507195e-03
      5.63335721e-04 6.09369017e-04 -3.03593377e-04 -4.52544336e-04
      -2.69166601e-04 -1.45370478e-03 2.74527032e-04 -3.18201142e-04
      1.42296685e-05 6.04968518e-05 -2.48689816e-04 3.22207081e-04
      6.37190824e-04 1.66803176e-04 -1.91897241e-04 -7.22960627e-04
      -2.74998439e-03 1.28690255e-04 -2.94474128e-04 -4.32926099e-05
      5.52422098e-05 -7.00899225e-04 -1.70998348e-04 1.90743085e-04
      5.43071015e-04 8.37528380e-04 -3.55702767e-04 -5.00220747e-04
      -1.19014978e-04 -9.70381643e-06 -1.37478914e-04 6.13806114e-05
      3.58825142e-04 3.04865884e-04 2.78577340e-06 6.28649141e-05
      -3.27250105e-04 6.84019295e-04 -1.94473454e-04 -1.16096162e-04
      7.28985993e-04 -5.75783430e-04 7.08046951e-04 1.88271597e-03
      -1.50943051e-05 6.39571008e-05 -1.38344607e-04 1.93319240e-04
      -3.35376099e-04 -2.68346164e-04 7.10052438e-04 -2.52728700e-04
      7.30878819e-05 -5.89626907e-05 2.54671671e-04 6.19829458e-04
      -2.93926569e-04 -1.15252915e-03 -1.08454013e-04 1.83846249e-04
      1.34895556e-04 -1.53057917e-05 -3.01059226e-05 1.87415251e-04
      -4.99310612e-04 -1.34666130e-04 6.95971685e-05 -8.80741427e-05
      -3.39353355e-05 -4.99161251e-04 1.79885013e-04 -8.83129396e-05
      4.08452615e-04 3.57263867e-04 -1.17102719e-03 -2.72908626e-04
      4.15359711e-04 1.00451631e-04 -1.14647078e-03 4.51856817e-04
      -1.76749221e-04 -5.74302831e-05 8.97157704e-04 1.37983123e-03
      -5.90726500e-04 -3.83139675e-04 -2.91079836e-04 -1.27456020e-04
      -4.85341952e-05 -5.12528466e-04 7.29527150e-04 3.00206448e-04
      -1.36311603e-04 1.00976467e-04 1.56826034e-04 1.28817861e-04
      -6.99411088e-04 2.51081918e-04 -8.78024264e-04 4.44317295e-04
      -2.44228111e-04 1.52202905e-04 2.80055159e-04 1.95271277e-04
      1.94510329e-04 -9.39889214e-05 4.07404412e-04 7.51483167e-05
      3.37244157e-04 8.45435497e-05 -3.19816114e-04 -4.50586667e-04
      -1.98323287e-05 -9.97573006e-05 -1.46317267e-04 -4.64083132e-04
      1.50112392e-04 7.29883759e-05 -2.04202679e-05 -3.00282583e-04
      8.86713096e-04 7.86767807e-04 -3.48754766e-05 -8.14860250e-05
      1.99958649e-05 2.19823894e-04 -5.85092290e-04 -1.73880588e-04
      -6.14917662e-04 9.37077857e-05 -7.26008193e-06 -3.87451291e-05
      1.54195630e-04 4.59781615e-04 1.20699602e-04 -1.46899009e-04
      1.62895536e-04 -9.80884579e-05 2.40592621e-04 -4.03734775e-05
      5.07916193e-05 -4.82002681e-04 -4.65871854e-04 -1.91704050e-04
      3.23587388e-04 -1.30789485e-04 1.17538242e-04 1.14911853e-03
      3.96996948e-05 -9.56076765e-05 -5.39096189e-04 9.04820772e-05
      2.96782178e-04 -1.76718779e-04 1.16317044e-03 -1.53845845e-04
      6.57126729e-05 -3.12830991e-04 -2.74457212e-04 1.23202486e-03
      -7.41538999e-04 -5.13732521e-05 3.02221506e-05 -3.16361838e-04
      3.45829787e-04 1.84733886e-03 1.20322069e-03 1.01008313e-03
      -2.80741486e-04 6.84730301e-04 -1.28116648e-04 -1.78226874e-05
      4.57424700e-04 -6.76543219e-04 3.65038228e-04 3.48674570e-04
      -3.76638811e-04 7.42458724e-05 -2.24285628e-04 -4.90944460e-03
      5.95503603e-04 1.75012228e-05 1.19401062e-04 4.91458195e-05
      4.38905408e-04 -1.29008504e-05 2.28866324e-04 1.72788841e-05
      2.08226862e-04 2.32925551e-04 3.08928604e-04 3.05995316e-04
      -6.25415996e-05 1.48313775e-04 1.11180288e-03 6.32816227e-04
      4.92097985e-04 -1.21791812e-03 -1.04260491e-03 4.60957701e-04
      2.46079406e-04 3.75144533e-04 1.60571668e-04 -1.31399138e-04
      -2.88537284e-03 -2.84855394e-03 -5.44086332e-04 1.31024935e-04
      -1.37509123e-04 -1.72726097e-04 -5.60208537e-05 1.18488650e-04
      1.53891521e-03 3.75098083e-04 6.14616205e-04 3.91317037e-04
      -4.11451707e-04 9.77237287e-05 -1.00178912e-03 -2.20267757e-04
      -1.08032564e-05 3.34933720e-04 3.89500434e-04 6.69497123e-04
      3.06233007e-04 -1.27378284e-04 9.84361162e-04 -4.77818176e-05
      -6.96127536e-04 -7.17843795e-05 6.15559518e-04 -1.89158414e-03
      -3.78596887e-04 -3.51804410e-05 -1.45890145e-03 4.08016203e-04
      1.02629783e-04 2.23490223e-03 3.41730221e-04 6.42618907e-05
      -1.59705523e-04 1.58992043e-05 2.46442592e-04 -2.53654507e-05
      2.41979084e-04 -1.31287583e-04 7.69663136e-04 -7.08474836e-04
      -5.77938801e-04 3.17335216e-04 3.29067232e-04 9.64768173e-04
      -4.40416297e-05 -1.36430981e-05 -6.73824543e-05 9.96379895e-05
      3.04630259e-04 -6.40673534e-05 1.07977912e-03 4.10147681e-04
      4.80921241e-04 6.36603509e-04 -3.71034810e-04 2.15027641e-04
      -5.38388085e-05 1.63798049e-05 -2.56961823e-04 2.93572288e-04
      9.82806785e-04 -6.14765566e-04 -2.15785997e-03 -1.40060124e-03
      4.20762284e-04 4.21337027e-04 8.43507936e-04 -9.60612815e-05
      3.42730462e-04 -5.37447573e-04 -2.83119211e-04 -9.84365834e-05
      -2.02163559e-04 -1.73339748e-03 -1.35026989e-03 -8.14560044e-05
      1.15534081e-03 -1.30674825e-03 -5.52454912e-05 6.68789959e-04
      8.35552491e-05 -4.78149217e-04 4.03143320e-04 2.48742668e-04
      -1.19509124e-04 -1.03544793e-04 -1.21984820e-04 8.15939915e-04
      2.55133637e-04 -1.26767933e-04 1.84199947e-04 -5.76335005e-05
      -3.27955175e-04 3.68644796e-05 4.23334277e-04 -2.54906026e-05
      -6.24992608e-05 1.66023965e-04 6.63387938e-04 -1.47311206e-04
      4.80251329e-04 -7.34739515e-05 1.95088214e-04 1.94588371e-04
      3.79974052e-04 6.04633358e-04 1.04547726e-04 -1.69645273e-03
      -9.91467037e-04 -2.63740018e-04 1.41100842e-04 1.20329997e-03
      4.64184268e-04 1.36000715e-04 -3.76244243e-05 1.80530304e-04
      -3.36753350e-04 3.57010693e-04 6.13455835e-04 -9.26528446e-05
      -4.08716369e-05 -1.83830867e-04 -5.03446150e-04 6.23346932e-05
      3.27057263e-04 -6.84858416e-04 -4.42554709e-04 6.39790887e-05
      2.87414703e-04 -1.85946512e-04 -5.27327415e-04 -6.74774579e-04
      5.38181572e-04 -9.51627444e-05 -5.45590243e-04 1.52768174e-04
      -9.93731897e-04 -9.50249232e-05 -8.19967245e-05 3.31559015e-04
      -1.31048073e-04 3.38653452e-04 -2.59786291e-04 -3.69927759e-04
      5.82970155e-04 5.87173388e-04 -4.29678650e-04 -4.02992417e-04
      -1.15209223e-04 -8.79226427e-04 3.79155936e-05 4.04340506e-04
      -3.16497666e-04 3.17042432e-04 1.27309890e-04 1.93213607e-04
      4.71789273e-04 2.99641746e-04 -2.49278910e-05 -2.01387258e-04
      -1.56784896e-03 5.50269731e-04 -1.80904142e-04 -5.55742474e-04
      -1.02196657e-03 -1.89866649e-03 6.52342933e-05 5.07081277e-04
      1.12860653e-04 5.59963577e-04 -4.75516172e-05 1.19834126e-03
      -8.31248180e-04 2.65988376e-04 3.09678144e-04 1.60364609e-04
      1.70479485e-04 -9.90568660e-04 -4.77230315e-05 3.75089003e-04
      1.23990380e-04 3.65580403e-04 7.86117336e-04 -9.92605230e-04
      -1.71205681e-03 -1.13622996e-03 -1.39027587e-04 -4.65153600e-04
      2.37135263e-03 2.70558568e-03 -6.74538256e-04 -1.30868488e-04
      -1.00663223e-03 1.70300307e-03 2.81949085e-03 5.85499976e-04
      -1.02370293e-04 5.41473972e-04 -4.52234643e-04 -2.02176554e-04
      -7.05421960e-04 -3.71892034e-04 1.95681729e-04 -7.21033546e-04</_>
    <_>
      -8.96364872e-05 -2.06586425e-04 6.72469687e-05 -2.58484215e-04
      2.44587165e-04 1.49123647e-04 3.68138135e-04 2.32552469e-04
      -1.82295007e-05 1.17367832e-04 1.21756806e-03 4.49968938e-04
      1.67323014e-04 3.45406937e-04 1.20733392e-04 1.17023847e-04
      8.95918201e-05 6.68626046e-04 -2.63120251e-04 -1.02744345e-03
      -6.64185558e-04 -8.58272033e-05 -4.51485132e-04 -5.42866357e-04
      4.52168082e-04 7.65462173e-04 -7.68347993e-04 -3.03710422e-05
      4.49437794e-04 -1.49590094e-04 8.69331634e-05 1.32299640e-04
      5.19070658e-04 3.30973504e-04 -2.70917244e-05 -9.46115906e-05
      -2.03534262e-04 -7.07340660e-04 -5.01802133e-04 -3.02344764e-04
      3.18977429e-04 -1.72053205e-05 4.27951047e-04 -1.44535548e-03
      -1.35386875e-03 4.17432690e-04 7.01787416e-04 2.04241835e-04
      1.50099164e-04 -1.65962614e-04 -1.39349766e-04 4.56564158e-04
      -2.77586369e-04 -2.55266466e-04 6.19694416e-04 -1.63609220e-04
      5.18388348e-04 -6.95636554e-04 2.77049519e-04 4.00428718e-04
      -6.66900742e-05 -1.14005910e-04 -2.60039145e-04 -1.55195303e-04
      -1.63832490e-04 -1.09007262e-04 -4.82336938e-04 -7.93341140e-04
      1.98909221e-03 1.76748930e-04 1.51464337e-04 7.39548341e-05
      2.85046171e-05 -8.24591029e-04 1.79207814e-06 3.21166124e-04
      -2.71666941e-05 -8.08423385e-04 -3.66367058e-05 3.95804054e-05
      -2.18013171e-04 5.18200919e-04 4.06846550e-04 -2.01443001e-03
      -6.08885312e-04 -2.66908391e-05 8.47456613e-05 -1.10798959e-04
      1.52444685e-04 -3.52940369e-05 -1.48271225e-04 -3.13453929e-04
      -6.22347288e-04 -1.75152978e-04 -5.17000808e-06 3.49690788e-04
      -2.18945162e-04 -2.02131734e-04 -9.76410156e-05 1.02869544e-05
      7.71048130e-04 1.08138542e-03 -2.06269571e-04 -1.09516659e-04
      3.80585290e-04 9.87933832e-04 1.69001147e-03 -6.32957672e-05
      1.04359997e-05 -1.74882909e-04 -1.23482023e-04 -2.67770985e-04
      3.05379333e-04 -3.03622714e-04 -2.55376275e-04 -6.60688893e-05
      6.54066389e-04 2.49330169e-05 1.63514938e-04 6.47863999e-06
      1.06722626e-04 -2.60522429e-05 2.58510670e-04 8.62512388e-05
      1.69241190e-04 -1.37832230e-05 -1.91597443e-04 5.13023624e-05
      -1.16892434e-05 -7.65713266e-05 4.81414143e-04 -1.93821819e-04
      -7.87302997e-05 9.71017289e-05 -4.80607087e-05 2.31461469e-04
      -2.07257617e-04 -1.72049084e-04 -8.31369689e-05 2.66915158e-04
      8.40722623e-06 2.39911344e-04 6.20496052e-04 -1.23138670e-04
      6.50297661e-05 4.83657968e-05 -1.97476416e-04 5.76228020e-04
      7.37177761e-05 -2.63661088e-04 -1.76240297e-04 -3.62358609e-04
      -2.76502571e-04 -4.90158040e-04 -1.54501409e-03 -3.13305121e-04
      -5.03497839e-04 -1.66027443e-04 4.42731282e-04 2.12661619e-03
      -6.36812125e-04 5.71750279e-04 -7.40291507e-05 7.62597367e-04
      5.68800664e-04 -3.58026591e-05 -4.63854842e-04 4.15769231e-04
      -1.88838952e-04 2.41854323e-05 -4.04587081e-05 -2.19935173e-04
      2.06176264e-05 -1.98327564e-03 1.24302180e-03 1.46049540e-04
      -1.70917110e-06 1.19292527e-04 3.46815330e-04 -8.34987804e-05
      -1.70200379e-04 -2.83950740e-05 1.18479016e-04 3.82566825e-04
      -2.57644360e-03 2.24915457e-05 2.16512082e-04 4.71101812e-04
      1.22930110e-03 5.80014021e-04 7.23628091e-06 1.00319332e-04
      -3.21601081e-04 6.42563624e-04 2.32853039e-04 2.28725956e-04
      2.12995845e-04 -4.32936795e-04 -6.91433263e-04 -7.43439829e-04
      5.40246328e-05 1.32100904e-04 -2.37310422e-04 3.90295390e-05
      5.17404580e-04 -9.80537297e-05 -5.71852142e-04 -6.32100855e-04
      -4.59257499e-05 -5.50661355e-07 -1.19495053e-04 2.67127121e-04
      -1.78500384e-04 2.31201979e-04 8.70673102e-05 4.55867666e-06
      5.26248419e-04 3.91572074e-04 1.14256414e-04 4.68893122e-04
      2.77035928e-04 -3.49378260e-03 -1.46402090e-04 -1.38276970e-04
      2.73468613e-04 -3.13680357e-04 -2.62910180e-04 -1.28038504e-04
      1.01153571e-04 -3.29553004e-04 8.64043133e-04 1.09656493e-03
      4.09508299e-04 2.31216674e-07 -4.07391417e-05 -2.21017850e-04
      -2.58736749e-04 -4.46370941e-05 4.60701413e-04 -7.08293810e-05
      -2.97724589e-04 -1.11479021e-04 9.76014358e-04 1.08279986e-04
      -2.32340491e-04 -1.84122400e-05 -1.05874531e-03 -6.48923975e-04
      2.85869046e-05 4.27869178e-04 5.07242861e-04 -5.86390030e-04
      -2.45235802e-04 -4.01789934e-04 -3.11864045e-04 -7.31378668e-06
      9.06231871e-04 1.62397872e-03 3.99706885e-04 -2.36535270e-04
      -2.34636987e-04 3.58051475e-05 -9.20824023e-05 -1.01596328e-04
      -2.44106152e-04 2.91467848e-04 3.60692124e-04 2.20865812e-04
      -1.48794323e-04 4.09752975e-05 -4.68487968e-04 -6.49817521e-04
      -4.27492283e-04 -2.93301302e-04 -2.20056230e-04 -2.40582012e-04
      -5.56247658e-04 -2.18630797e-04 -5.01909672e-05 5.39430359e-04
      -1.11775233e-04 -2.58003216e-04 -4.49862782e-05 7.40405521e-04
      1.38304895e-04 3.14420438e-04 4.39974538e-04 -9.80623445e-05
      5.95945239e-05 2.21276161e-04 -3.96231568e-04 -2.48345052e-04
      2.13338062e-04 3.44107430e-05 6.47167908e-04 9.64889259e-05
      1.09179295e-04 -5.92720353e-05 2.18766916e-04 -5.77531464e-05
      2.95850798e-04 -9.42235929e-05 1.30000059e-04 2.20592541e-04
      -8.42061927e-05 -3.40699364e-04 -8.64032118e-05 -3.37868609e-04
      5.49220829e-04 2.54691859e-05 4.94681008e-04 1.77605165e-04
      -2.82822239e-05 -2.75792088e-04 -2.16877204e-04 2.32322695e-04
      8.27571639e-05 -1.79222770e-04 -5.81140011e-05 -1.57969000e-04
      -4.71076892e-05 1.93486849e-04 2.83891131e-04 1.77023307e-04
      3.82596976e-04 -1.11024739e-04 2.37433233e-05 -8.32870312e-04
      1.08418264e-03 3.35250748e-04 2.77373823e-04 -1.70865751e-04
      -2.86656141e-05 -4.06781153e-04 -8.54189333e-04 2.17644938e-05
      -4.26789811e-05 -1.95675588e-04 1.17722208e-04 1.82761025e-04
      -4.68147191e-05 -9.04694374e-04 -2.18879242e-04 -8.74549296e-05
      -1.25092163e-04 -7.60307739e-05 -1.42630190e-04 3.05067631e-04
      -4.60768992e-04 7.39254392e-05 -2.06083569e-04 -1.17528507e-04
      -2.64693197e-04 -5.07801051e-05 8.09633697e-04 -9.16169229e-05
      2.98401312e-04 -2.75696599e-04 8.95536941e-05 -4.15012983e-05
      -2.21435112e-05 -2.24559335e-05 -3.56650125e-04 -3.39817285e-04
      -1.21728364e-04 3.78838522e-05 4.99481626e-04 6.51234586e-04
      -3.89741006e-04 -8.52026278e-05 -5.72377408e-04 -1.96046094e-04
      9.11839306e-05 1.63847220e-03 1.00838370e-03 -1.19774188e-04
      1.10371366e-04 -4.25631006e-05 6.92531758e-05 5.35723055e-04
      7.13989371e-04 1.04443706e-03 2.23216521e-05 2.50882993e-04
      3.78212171e-05 -2.18026646e-04 -3.18677397e-04 1.94127788e-04
      -1.09863959e-05 2.56589177e-04 -7.32824614e-04 -4.67259262e-04
      5.54032958e-05 2.34444524e-04 -3.51445633e-04 -1.40031229e-03
      -2.86196475e-04 -4.68954859e-05 3.92057584e-04 -1.86004749e-04
      -8.21482332e-04 -1.45255224e-04 2.25425436e-04 8.46162075e-05
      5.90563905e-05 -7.22140656e-04 9.87867024e-05 5.15842752e-04
      -1.21485291e-05 2.08432830e-04 -3.28110065e-04 -2.80271401e-04
      2.97138875e-04 -3.58279540e-05 3.85160558e-04 -4.70620493e-04
      -4.22379497e-04 3.81752106e-05 -1.98452224e-04 9.94813279e-04
      -3.38565267e-04 -4.83408425e-04 1.41544195e-04 -2.62745452e-04
      -2.64299015e-04 -2.82963563e-04 4.26789629e-04 1.47424376e-04
      2.36799096e-04 -2.95321806e-04 -5.95012425e-05 -4.87410463e-04
      -6.74783369e-04 1.90953415e-05 -3.72026203e-04 6.45091204e-05
      3.81514285e-04 -2.74729653e-04 5.48329554e-04 6.84267725e-04
      1.44539357e-04 1.29767635e-04 -1.01257778e-04 4.67151054e-04
      6.83703634e-04 1.64919926e-04 1.76181275e-04 5.47306845e-05
      -1.17672949e-04 -2.29923695e-04 3.70095280e-04 7.93366344e-04
      1.21043216e-04 -8.98496830e-04 8.39591303e-05 1.73864944e-04
      -8.26676333e-05 -6.11769035e-04 -1.17176329e-04 -5.04928648e-05
      -4.40586329e-04 -3.27911170e-04 -4.65271733e-04 4.34844289e-04
      -3.82589991e-04 -4.56602575e-04 -1.42125456e-04 1.52152325e-05
      2.79642787e-04 -1.06297317e-04 -3.38204904e-04 -4.36847949e-05
      -2.41036250e-05 -2.63276306e-04 -2.55892926e-04 2.92028271e-04
      -7.66485973e-05 -2.62591930e-04 -3.00756103e-04 -3.08176997e-04
      -6.92555186e-05 5.03428280e-04 3.23786662e-04 1.07191765e-04
      -3.02132947e-04 -8.27021577e-05 -3.08308627e-05 4.44075238e-04
      7.08030362e-04 2.36626063e-03 8.77696875e-05 1.01188845e-04
      3.23046988e-04 1.40712837e-05 -4.95130313e-04 -5.48476703e-04
      -1.24212285e-03 -2.50641198e-04 -5.47573363e-05 -3.44096225e-05
      -3.19625105e-04 -4.32953413e-04 -1.09289959e-03 -5.68323943e-04
      -5.95789403e-04 -5.47702039e-05 5.09823381e-04 1.86694029e-04
      -6.00942993e-04 -2.59175635e-04 3.31696181e-04 8.86216876e-04
      7.42401055e-04 5.49785800e-05 -1.78931572e-04 1.53676665e-03
      5.86827111e-04 6.30289142e-05 -1.92447653e-04 2.17878958e-04
      -4.24258978e-05 -2.72350328e-04 -2.94806785e-04 -2.57793057e-04
      -8.14961604e-05 1.45025851e-05 -1.05954197e-04 -1.50792548e-04
      1.33753842e-04 -9.13262411e-05 -1.08583634e-04 -4.97469096e-04
      -7.66735990e-04 -9.61015758e-05 -2.12275947e-04 -4.44514153e-04
      -3.51174182e-04 4.25255384e-05 -1.90477294e-04 -4.00099671e-05
      -4.06204017e-05 4.31908760e-04 -5.48169446e-05 -1.48107792e-04
      2.51964811e-04 -2.87098053e-04 -7.52899097e-04 -6.28176495e-04
      5.57313731e-04 -4.59686853e-05 -1.63042700e-04 -2.25470372e-04
      4.90170823e-05 6.10210700e-04 9.70513560e-04 -9.18854421e-05
      1.38521980e-04 -8.90601514e-05 1.70349886e-04 3.05727212e-04
      1.27674395e-03 9.08491260e-04 3.22721899e-04 1.02842700e-04
      -5.56538471e-05 -2.71616853e-04 -1.36927947e-05 -1.17419249e-05
      -1.60730615e-05 2.40445326e-04 1.34895789e-04 3.79557634e-04
      6.01132233e-05 -2.75683647e-04 -1.77652415e-04 -6.37512130e-05
      -8.77456041e-05 -1.08196989e-04 -1.66100072e-04 3.62444000e-04
      1.22709946e-06 -1.18316209e-04 -1.17359115e-04 3.19437357e-04
      -6.47681300e-05 -3.76511685e-04 2.34356965e-04 -3.28736241e-05
      3.00004831e-06 -6.29626564e-04 -9.83105623e-04 -2.26864868e-04
      -9.01022722e-05 4.51352011e-04 -6.43334584e-04 -4.51346248e-04
      -1.90654500e-05 1.50076867e-05 3.59237019e-04 1.06804678e-03
      -5.66874915e-05 -2.97006336e-04 -3.04519170e-04 -8.71516022e-05
      -4.11289016e-04 1.21519284e-03 1.07803848e-03 4.63633711e-04
      3.25074598e-06 3.59996011e-05 2.40849084e-04 -8.77017519e-05
      6.95305469e-04 5.60369168e-04 -2.65303970e-04 2.95882492e-04
      -7.29636464e-04 -3.43455788e-04 -7.07232175e-05 3.12036747e-04
      3.44718079e-04 -8.52295852e-05 -5.98739425e-04 -8.38228501e-04
      2.48775887e-05 -3.11518415e-05 -5.94158264e-05 1.12013798e-03
      -6.74186333e-04 -5.83060726e-04 2.28409936e-05 4.33565147e-04
      -2.61004257e-04 -3.30922223e-04 7.25198697e-06 -2.69137759e-04
      5.38330874e-04 2.93879362e-04 5.34868450e-04 6.06697111e-04
      4.20100077e-05 3.13392557e-05 -3.29567556e-04 -1.52025706e-04
      -8.34658684e-04 1.48386302e-04 -3.14420089e-04 1.53275118e-06
      -9.93290916e-04 3.69780813e-04 -1.16693436e-05 -5.88543073e-04
      -3.03436740e-04 -4.23196150e-04 1.55569869e-04 -4.76580637e-04
      8.03870134e-05 -1.10579573e-03 -5.11997088e-04 -2.63696915e-04
      4.88734047e-04 1.65450823e-04 -1.24838459e-03 2.22170682e-04
      -1.16447279e-06 -2.55779654e-04 -1.15659022e-04 5.36257052e-04
      7.90295831e-04 -6.76113050e-05 3.58937868e-05 -3.96971183e-04
      -5.78735926e-05 -5.34144892e-05 4.27220919e-04 1.02975767e-03
      8.05665099e-04 4.98255831e-04 -8.07249380e-05 2.36343927e-04
      -1.85671117e-04 3.98054719e-04 1.09336758e-03 1.63030846e-03
      1.85203200e-04 -1.08641817e-03 -4.98068810e-04 3.23170330e-04
      4.99437330e-04 -1.63965742e-03 -3.78043536e-04 2.68718140e-04
      -4.22987214e-04 1.01529120e-04 1.43109661e-04 9.47792490e-04
      1.24193684e-04 -5.06589386e-05 1.16540687e-04 -1.05598650e-04
      3.55012569e-04 -1.33747017e-04 1.66606435e-04 -9.63766943e-05
      -1.53389221e-04 5.18499641e-04 1.32420112e-03 4.03534705e-06
      -1.33030946e-04 -2.38657740e-04 3.79388133e-04 5.22086979e-04
      1.07445907e-04 -5.34708844e-04 -6.25464076e-04 1.82607328e-04
      -3.72978939e-05 7.37139926e-05 4.30716202e-04 -5.57674677e-04
      -1.87122077e-03 -1.84645969e-03 -1.48186184e-04 7.07945219e-05
      -6.92011017e-05 -1.13029804e-04 6.10519259e-04 -3.08911949e-05
      6.90402172e-04 3.93017079e-04 3.04400863e-04 2.56454980e-04
      -2.48148164e-04 4.25882608e-04 -4.32255620e-04 -4.68177401e-04
      -1.14837909e-04 2.39922709e-04 -4.40658550e-05 6.09707437e-04
      3.12655262e-04 -4.36598457e-05 6.63717801e-04 -6.29723727e-05
      -2.28589794e-04 8.37206608e-04 3.17379978e-04 -1.69495447e-03
      -4.42978169e-04 -9.13546828e-05 -3.90204194e-04 -2.50270023e-05
      3.61048369e-05 9.59602650e-04 9.16503705e-05 9.88174725e-05
      -7.48203311e-05 2.15023887e-04 -2.00172159e-04 -4.36604343e-04
      -3.56334553e-04 -1.76967398e-04 -1.09902634e-04 -9.39395803e-04
      -2.72635231e-03 5.05698379e-04 -2.40064925e-04 -3.27412308e-05
      -5.25221869e-04 -9.37411096e-04 2.43219678e-04 4.41219716e-04
      -1.51725370e-04 -2.19239781e-04 2.35602682e-04 -8.02546710e-05
      5.80611013e-05 8.94628232e-04 8.62143585e-04 -6.14190241e-04
      -5.88300987e-04 -5.49231263e-05 -9.89023683e-05 -1.88381728e-05
      4.59621893e-04 -1.17622636e-04 -1.93804590e-04 -4.75493172e-04
      -2.75311613e-04 -1.00455451e-04 3.70375317e-04 8.93075718e-04
      4.31824476e-04 3.11809359e-04 -2.49697216e-04 1.99253423e-04
      -2.36112901e-04 1.58574607e-03 1.63079530e-04 1.98403402e-04
      6.50006114e-04 3.50352522e-04 -6.49299531e-04 4.56023525e-04
      9.58113596e-05 -6.63602113e-05 4.96815250e-04 -4.05472347e-05
      2.43214759e-04 2.44519597e-05 2.47633230e-04 1.63505232e-04
      4.08676366e-04 -1.56386406e-04 -1.54550755e-04 7.88277757e-05
      -6.07951370e-04 2.99818603e-05 -1.06780544e-05 -3.35847471e-05
      -2.14231230e-04 -1.55046000e-05 9.88032552e-04 3.63917265e-04
      2.25317359e-04 -1.39695837e-03 -2.78241583e-03 -9.13350086e-04
      3.04816029e-04 7.96131324e-04 1.95447879e-04 -8.40957626e-04
      -1.51095120e-03 -3.75908101e-04 -5.84898371e-05 7.64950295e-04
      1.21876644e-03 6.10091956e-04 4.94332307e-05 -1.18716031e-04
      -3.56705452e-04 1.79826064e-04 3.50301649e-04 -3.27452435e-04
      -2.35862812e-04 1.67253202e-05 -4.51500702e-04 -2.77646963e-04
      5.13940817e-04 3.51834431e-04 -5.23374649e-04 -3.95895040e-04
      -7.34391288e-05 -2.69620010e-04 -4.60813346e-04 5.66120762e-05
      9.75648349e-04 -5.83057699e-05 -4.72296379e-04 2.63164029e-03
      1.76813221e-04 6.47071938e-05 -1.24326019e-04 1.40947499e-03
      4.49158077e-04 -2.64580769e-04 5.28816483e-04 -1.91124665e-04
      7.07725354e-04 -7.74035638e-04 -3.89629335e-04 1.48421350e-05
      -1.87550850e-05 -1.42698089e-04 -1.47751387e-04 3.19750194e-04
      -4.70232888e-04 -8.31541765e-05 -2.51753372e-04 3.31733063e-05
      1.76133821e-04 6.75601419e-04 -6.91197929e-05 -6.19460596e-04
      4.83023789e-04 2.87627307e-04 -2.69296106e-05 -1.51848319e-04
      -1.90756007e-04 -7.27384991e-04 -7.88314559e-04 2.30000122e-04
      -1.48225197e-04 7.44775753e-04 3.58182064e-04 1.67686061e-03
      5.17658598e-04 1.86295772e-04 -3.48814327e-04 -3.56384112e-06
      -4.26285435e-04 -4.65712918e-04 -1.52644294e-04 -3.49527749e-04
      1.00293197e-04 -2.58390210e-04 -2.03592237e-04 -1.08477565e-04
      -1.13030872e-03 -1.14014884e-03 -4.04449936e-04 2.10162092e-04
      8.06806551e-04 1.12751231e-03 -8.09590449e-04 -5.32963080e-04
      -4.48260871e-05 3.17915430e-04 8.56801751e-04 2.35993240e-04
      -3.93030467e-04 6.47978624e-04 -2.29777979e-05 1.78514616e-04
      3.43588792e-04 7.33324792e-04 4.07685002e-05 -2.82267312e-04</_>
    <_>
      -8.45694914e-04 -3.25424335e-05 -6.25066095e-05 -2.16852568e-04
      3.02726374e-04 2.86996685e-04 5.22871152e-04 1.81923475e-04
      -3.15790712e-05 -4.91471670e-04 1.53750693e-03 -4.02645936e-04
      -4.31444932e-04 5.63462090e-04 3.75388481e-04 -5.86966984e-04
      5.07972036e-05 4.03000362e-04 5.50876604e-04 7.57992442e-04
      -3.01064312e-04 1.95630389e-04 -8.10536440e-05 -4.92185354e-04
      5.91785240e-04 1.03039283e-03 -7.66124751e-04 2.91593635e-04
      9.27066285e-05 -7.75518129e-06 -1.76600108e-04 1.09777675e-05
      4.37137496e-04 3.10567179e-04 1.58166076e-04 -5.07073360e-04
      -3.47126013e-04 -2.25942364e-04 -3.84501531e-04 -1.97412854e-04
      4.48070641e-04 -1.73740249e-04 1.36851857e-04 -2.23575509e-03
      -2.51172343e-04 5.08524710e-04 -3.57218087e-04 2.17435672e-03
      -6.06477028e-04 -5.82031171e-05 -2.17937195e-04 1.07677457e-04
      1.75487967e-05 1.62449738e-04 7.61132746e-04 -4.31549066e-04
      -3.22798965e-04 -1.72571628e-03 1.34304049e-04 -5.83366142e-04
      -3.53591604e-04 -4.82749834e-04 8.05727381e-04 -1.60081603e-04
      -1.62135658e-03 -1.27657651e-04 1.00781304e-04 1.21184928e-06
      2.94472394e-03 1.84385557e-04 3.04494402e-04 9.89053078e-05
      -3.39766243e-03 1.72095970e-04 2.97621427e-05 6.13968878e-04
      -1.24415185e-03 -2.39418284e-03 -6.17967511e-04 4.22526151e-04
      9.33484116e-04 6.60937221e-04 -6.57772398e-05 -3.64701031e-04
      -2.16552336e-03 4.67701939e-05 8.26324511e-04 -3.58725738e-05
      -3.32141790e-04 1.46246835e-04 -2.21364852e-03 -2.36129574e-03
      -2.04004260e-04 1.52376087e-04 3.68988287e-04 4.07792286e-05
      -1.39412427e-04 5.42118687e-05 -4.49601532e-04 -2.58866901e-04
      -2.77035258e-04 -3.93005816e-04 3.83542443e-04 -4.94766864e-04
      5.54135884e-04 5.31968102e-03 1.84348086e-04 4.15794872e-04
      -6.44473548e-05 4.96925146e-04 6.66715321e-04 1.07980843e-04
      2.85587535e-04 7.20814103e-04 1.15607935e-03 1.46825705e-03
      -6.36380457e-04 -4.18181997e-04 -1.55822650e-04 -7.42428296e-04
      2.99165957e-04 -3.10413132e-04 -4.77902388e-04 1.66841928e-04
      6.19630082e-05 -4.70901810e-04 -9.86912637e-04 -5.03826770e-04
      -2.92428362e-04 -1.39566328e-04 3.55712487e-04 7.02346268e-04
      -3.69818095e-04 -1.26208193e-04 -9.15240205e-04 -4.20038763e-04
      -5.96383461e-06 2.45174335e-04 -4.10415028e-04 -8.82363602e-05
      -2.51202873e-04 -2.81117944e-04 3.05623194e-04 -1.87818252e-04
      2.01136616e-04 -5.69543554e-05 -7.63749922e-05 1.63885721e-04
      -9.12170392e-04 -7.66745303e-04 8.03570492e-06 4.33014793e-04
      5.87477325e-06 -2.73666607e-04 1.21961741e-04 -9.75360395e-04
      -2.56675761e-04 1.92794541e-04 -1.15443289e-03 4.07621684e-03
      1.19372678e-03 1.70116243e-03 3.52197676e-04 -2.14689621e-03
      -1.03862127e-04 4.64789307e-04 -4.40133183e-04 4.30318585e-04
      5.43870083e-05 3.52064089e-04 -1.18814780e-04 1.52909182e-04
      4.45584446e-04 2.98602507e-03 4.37926152e-04 -6.89673063e-04
      9.10100498e-05 3.41230072e-04 1.98374837e-04 3.87103530e-04
      1.68998653e-04 -4.31717403e-04 -3.71255737e-04 6.95619674e-04
      -2.09921389e-03 -2.95249047e-04 2.01683681e-04 1.03496318e-03
      1.91246974e-03 2.65765382e-04 5.08983620e-04 -1.45673912e-04
      -1.54883382e-04 3.36970290e-04 3.07618029e-04 -1.21130674e-04
      4.88171179e-04 -2.28665493e-04 -7.23484089e-04 -5.94842946e-04
      1.84968492e-04 -2.73129059e-04 -3.17209109e-04 5.89769152e-05
      2.33590690e-04 9.91017325e-04 1.41537713e-03 6.15409168e-04
      1.42592966e-04 -5.97607068e-05 4.45271908e-05 1.40190299e-04
      1.04000355e-04 1.29673490e-03 -6.38074853e-05 2.60404777e-04
      -6.65276311e-04 1.29942712e-03 -4.52329172e-04 6.39402599e-04
      -6.20085630e-05 -4.97487234e-03 -1.69354095e-03 -3.71912902e-05
      1.75800611e-04 6.80735029e-05 -3.61267710e-04 -6.56958291e-05
      -3.56097677e-04 -1.63860517e-04 4.39386873e-04 -8.49319549e-05
      1.22024445e-03 -7.89272817e-05 -8.25681218e-06 1.53635861e-04
      -2.30693986e-04 1.34861903e-05 1.74579595e-03 2.36537351e-04
      4.21756355e-04 -1.54124107e-04 7.30572152e-04 1.92683830e-04
      -7.31722903e-05 -7.75656954e-04 -2.18340894e-03 -1.96281122e-03
      -1.82658157e-04 5.84815745e-04 7.33206922e-04 -7.61338335e-04
      -1.46754773e-03 -2.36686144e-04 -1.25228005e-04 -2.44144379e-04
      3.64958069e-05 3.06032278e-04 -1.15075719e-03 5.85066853e-04
      7.22739787e-04 1.17570511e-04 2.09500940e-04 2.61383520e-05
      1.49152722e-04 8.35716550e-04 3.71404458e-04 -1.26864907e-04
      1.95426794e-04 4.10754801e-05 -4.56462185e-05 -5.26693068e-04
      1.90577746e-04 -1.20133955e-04 1.31205292e-04 -1.91480241e-04
      -2.75953091e-04 -1.28019907e-04 1.70465937e-04 6.17337355e-04
      9.79384131e-05 -1.20260222e-04 6.35644847e-06 1.23515041e-04
      6.71771995e-05 -1.75410576e-04 6.79286430e-04 -4.62735421e-04
      1.74882633e-04 -7.91888378e-05 5.09389851e-04 2.78098829e-04
      -1.28350104e-04 5.01482536e-05 7.83377385e-04 -8.35377068e-05
      2.47627304e-05 1.57740054e-04 5.99493287e-05 -4.50004125e-04
      -9.67219879e-04 6.01661632e-05 1.41248620e-05 -2.29848534e-04
      -1.06290192e-03 -2.81224929e-04 3.27175978e-04 -5.59381791e-04
      -7.13950663e-04 -1.91973743e-03 1.27125168e-05 -7.40181829e-04
      1.63841789e-04 1.96579334e-04 1.05211895e-03 1.46488368e-03
      6.64811232e-05 -4.21287295e-05 -6.23988162e-05 -3.08426504e-04
      -1.31089793e-04 6.10984687e-04 1.81848393e-03 2.63205584e-04
      3.00449028e-04 1.99854927e-04 3.61916755e-04 -1.32113614e-03
      1.02675881e-03 8.20665271e-04 4.93854401e-04 -1.25122111e-04
      -2.23380790e-04 -1.12854387e-03 -1.99132110e-03 3.66162058e-05
      -1.20385273e-04 9.39942038e-06 1.08351407e-04 5.48262557e-04
      -9.91525303e-05 1.02036982e-03 6.16239413e-05 2.30464357e-05
      4.08350461e-05 2.24530464e-04 -6.23962333e-05 -4.38939431e-04
      1.20229041e-03 3.66610824e-04 -1.59887306e-04 7.63487362e-04
      -3.07871262e-04 -2.88172887e-05 -4.12914495e-04 8.24957024e-05
      2.80399749e-04 -1.11430185e-03 -4.22566809e-04 6.44439540e-04
      5.69083022e-05 -3.69647722e-04 -1.60393806e-03 -3.51728027e-04
      1.61504053e-04 2.95220292e-04 1.42006413e-03 -2.67596552e-05
      -3.76357173e-04 -5.95438411e-04 -6.29599381e-04 1.61474891e-04
      1.02345611e-03 1.34817499e-03 1.45966909e-03 9.87206513e-05
      -5.03059768e-04 -1.22759899e-04 7.28497456e-04 2.57469015e-04
      -1.41709764e-03 5.61340821e-05 -5.80125416e-05 -4.63077049e-05
      5.80415712e-04 1.34728863e-04 1.73828262e-03 -1.80489034e-04
      -4.23344842e-04 -7.76065372e-06 -1.05014195e-04 5.43158210e-04
      3.58367251e-05 -1.15977127e-04 -1.73805325e-04 -1.98748801e-03
      -6.31253817e-04 5.64420829e-04 4.97553323e-04 -3.32349562e-04
      1.14726536e-04 1.31319437e-04 5.42489463e-04 -4.43172205e-04
      -3.23216867e-04 -2.01901351e-03 5.05209784e-04 4.22439160e-04
      4.63743287e-04 2.70327175e-04 -1.41350465e-04 1.68253537e-04
      7.69070248e-05 8.04507581e-05 4.89653379e-04 -3.72527109e-04
      9.72300710e-04 8.27450538e-04 1.41892524e-04 6.40330079e-04
      -1.97810936e-03 5.48663556e-05 2.91195814e-04 5.31443839e-05
      3.70303678e-05 2.03283271e-04 1.20346178e-03 5.09431935e-04
      3.35434102e-04 1.28710191e-04 1.36570190e-04 -2.22744333e-04
      -2.37571847e-04 2.85440881e-04 -2.34519102e-04 5.53229147e-05
      1.53102897e-04 5.40513545e-04 -3.54993274e-04 -4.69251012e-04
      -8.83545785e-04 6.40688289e-04 2.96694507e-05 1.52805485e-04
      1.87643134e-04 1.82465701e-05 -1.01763297e-04 -5.91746066e-04
      4.80002745e-06 -1.92567299e-04 -5.35319559e-04 8.67373834e-04
      1.15562652e-05 -5.33001730e-04 2.35516229e-04 -4.98382251e-05
      -4.47881001e-04 -5.09572914e-04 -4.24115366e-04 -3.65997490e-04
      3.57558019e-04 -8.21947702e-04 -3.82684462e-04 -1.70127780e-03
      -6.00149542e-05 -2.86894065e-04 -1.08086439e-04 -6.81590245e-05
      6.39843493e-05 8.05997479e-05 -7.67825113e-05 -3.20628926e-04
      -3.10438154e-05 -6.53160241e-05 9.98335527e-05 7.59570336e-04
      -2.98715400e-04 1.01661397e-04 2.00157054e-04 1.21796351e-04
      -3.24954963e-05 6.35160948e-04 -8.13540246e-04 -7.93507323e-04
      -3.71727743e-04 2.13892505e-04 -4.74362925e-04 7.88341800e-04
      -3.32500902e-04 -8.80637846e-04 -2.73497170e-03 1.78342132e-04
      -9.16214121e-05 -4.14869146e-06 -1.82470394e-04 -4.72894535e-05
      -2.07770470e-04 -1.25941937e-04 1.29201129e-04 -2.72714184e-04
      -3.34835378e-04 1.40909047e-04 5.66799899e-05 -7.67044839e-05
      -9.09485752e-05 9.20437815e-05 8.54746031e-04 1.90720009e-03
      5.07115154e-04 -4.24327271e-04 1.36325631e-04 1.41514977e-03
      1.21945969e-03 -1.35635448e-04 4.28373605e-05 1.64328876e-03
      9.54399700e-04 -4.84618533e-04 -8.51542631e-04 -1.29685402e-04
      9.68947643e-05 -1.22995011e-03 -5.78382751e-05 -3.73874354e-04
      1.87433361e-05 -1.27267995e-04 -8.81371670e-05 -1.49963191e-04
      -3.13879311e-04 9.32329640e-05 -2.04929325e-04 7.28801679e-05
      -2.69140513e-03 1.64814584e-04 -1.75328329e-04 1.28399421e-04
      9.43473540e-04 -2.59845518e-04 -1.87953643e-04 -3.30284638e-05
      3.96564457e-04 3.07113485e-04 4.80288698e-04 -5.25332347e-04
      4.96352615e-04 -7.99848000e-04 -2.93773162e-04 3.79252946e-04
      4.19368007e-04 1.73670778e-04 -7.80182454e-05 -6.33797390e-05
      1.26155690e-04 8.81580345e-04 1.76460214e-03 -1.17038528e-03
      3.25789151e-04 -4.81523632e-04 6.51856652e-04 8.19058099e-04
      2.60195666e-04 6.72936440e-04 -2.11096863e-04 3.41722771e-04
      -4.65588324e-04 -5.55666629e-04 3.58643680e-04 9.81087433e-05
      -4.81240786e-05 5.14402473e-06 -1.54846068e-03 7.37629773e-04
      3.90624220e-04 -7.43124867e-04 1.73246197e-04 4.50241147e-04
      -3.88534507e-04 -5.35233412e-04 -7.92762366e-05 5.19127352e-04
      -1.16547832e-04 -3.81701917e-04 1.57663977e-04 3.55762895e-04
      -1.55892820e-04 -3.11398675e-04 8.23898532e-04 6.13159209e-05
      4.37556911e-04 -8.20107016e-05 3.38813959e-04 -4.29308100e-04
      1.52882894e-05 -4.78324037e-05 -6.00847183e-04 3.69968475e-05
      -1.04211467e-04 -1.27115040e-04 6.93618262e-04 2.02951627e-03
      -2.44086827e-04 -4.90861945e-04 -4.51764790e-04 2.81600776e-04
      -5.83888148e-04 -1.29789661e-03 1.43077329e-03 4.65749297e-04
      -1.48086867e-04 -2.12794221e-05 3.41457257e-04 -2.12838277e-05
      -2.58468644e-04 9.82353959e-05 -2.89606192e-04 3.42884072e-04
      -6.45597174e-04 1.07338274e-04 -6.20641076e-05 3.94805160e-04
      6.04916131e-04 -2.32515973e-04 4.47533850e-04 -4.96881432e-04
      1.78718881e-04 -1.06637890e-04 -2.30818987e-04 6.87346765e-05
      -5.66730334e-04 -3.91305861e-04 -1.14196482e-04 -8.44044844e-04
      -5.66234521e-04 2.14261352e-04 -6.14045712e-04 -1.78453876e-04
      3.29115952e-04 9.57058510e-04 1.37804440e-04 1.23335383e-04
      3.71538743e-04 -6.03990229e-05 -3.84905958e-04 -1.95522211e-04
      -8.15658597e-04 2.38031153e-05 2.71303611e-06 1.05210886e-04
      3.88489461e-05 7.02644116e-04 1.00914018e-04 2.13456457e-04
      4.32849338e-04 1.26947460e-04 -1.96117762e-05 3.45396475e-05
      4.84603137e-04 -2.65059090e-04 2.18519170e-04 -2.28356206e-04
      5.55527149e-05 1.36191986e-04 -3.60247621e-04 1.52117771e-03
      -3.42992389e-05 2.97013292e-04 -5.82933098e-05 -3.06978036e-04
      7.20177952e-04 -3.40959727e-04 2.44002076e-04 -8.24253075e-04
      1.47123192e-05 -6.72889815e-04 -1.66506667e-04 -2.11790073e-04
      3.01898061e-03 1.40238344e-03 -2.13895164e-05 -2.90980010e-04
      -6.74485564e-05 -7.18149939e-04 -7.66610901e-04 4.85869386e-04
      -2.75990897e-04 4.67336475e-04 -9.66529478e-04 -3.15806421e-04
      -1.85365003e-04 2.31706319e-04 -5.75551647e-04 5.14494313e-05
      -4.52631532e-04 4.70125342e-05 4.70532512e-04 -2.69964384e-03
      4.73875960e-04 -1.35687194e-04 1.04121791e-04 -4.72097781e-05
      3.85817315e-04 2.04767319e-04 -6.38392594e-05 3.93340160e-05
      1.50101579e-04 5.51663921e-04 2.68257514e-04 4.91828949e-04
      -1.37688330e-04 6.97351410e-04 1.29997439e-03 4.31678025e-04
      3.75616335e-04 -2.89380521e-04 -2.98320636e-04 4.96729917e-04
      1.60644500e-04 2.47762073e-04 2.31790415e-04 2.32407780e-04
      -1.45252305e-03 -2.52772076e-03 -1.18575606e-03 -1.40712626e-04
      -2.19943904e-04 2.28044897e-04 -8.20611967e-05 -2.34601859e-04
      5.75129874e-04 -4.42269258e-04 3.64731357e-04 1.38974487e-04
      -6.46056083e-04 2.90482305e-04 -9.86001804e-04 -1.65911159e-03
      -9.62515944e-04 4.98693880e-05 1.53214869e-03 1.22863718e-03
      -2.92699347e-04 -8.62683693e-04 7.42358272e-04 8.06173135e-04
      2.38822729e-04 3.78511992e-04 1.43120516e-04 -2.35810014e-03
      -2.99205771e-04 3.25254019e-04 -1.15723512e-03 6.69769128e-04
      1.04828062e-03 8.77289975e-04 -2.30654245e-04 -7.11703033e-05
      -6.16640755e-05 1.36477684e-04 -1.43221288e-04 -3.57085737e-05
      3.50394112e-04 -3.89093184e-05 3.75162577e-04 -3.31569841e-04
      -7.81895942e-04 -1.11086367e-04 3.46910441e-04 6.17852143e-04
      -8.30628560e-04 -2.14579501e-04 2.83243484e-04 -2.23508017e-04
      2.45600357e-04 5.00259739e-05 9.12411953e-04 -2.62542890e-04
      -1.76846042e-05 3.96276126e-04 5.44977898e-04 1.11329304e-04
      -3.61416605e-04 -7.67235688e-05 -1.20162513e-04 3.71010741e-04
      7.76584726e-04 -4.56927228e-05 -9.11800133e-04 -1.08118693e-03
      -5.62583664e-05 2.15306543e-04 8.09731253e-04 9.96293500e-04
      9.70622117e-04 -7.29497871e-04 -6.98625008e-05 1.99531962e-04
      2.02637864e-04 -1.41111773e-03 -8.54883619e-05 -1.20956451e-04
      5.39582339e-04 -1.26646413e-03 -8.02679278e-04 7.40914082e-04
      6.10922143e-06 -5.01310220e-04 4.63571836e-04 2.93659046e-04
      3.03078850e-04 -2.00171664e-04 -1.56280294e-04 9.25964923e-05
      -5.25978161e-04 -1.81644049e-04 -3.49437905e-04 1.32002344e-04
      -7.08747248e-05 -3.80455822e-05 3.27041984e-04 -1.66939397e-04
      -5.39520348e-04 2.23359209e-04 -1.03584735e-03 1.16349365e-04
      -2.92660377e-04 -3.21543775e-04 1.54820026e-03 -1.01070513e-03
      1.87753205e-04 3.95043142e-04 3.20949198e-06 -3.17655096e-04
      -1.19367568e-03 -2.20738555e-04 4.91923827e-04 8.57290113e-04
      1.28009601e-03 1.03327759e-04 -8.52095953e-04 -6.08940725e-04
      -2.25361349e-04 -1.17904347e-04 4.23645834e-04 3.30789335e-05
      7.44229328e-05 3.14352306e-04 -2.49602919e-04 2.50615412e-04
      3.54912947e-04 3.87925393e-04 4.65106386e-05 7.54198409e-05
      5.80087013e-04 2.91524830e-05 7.12951354e-04 -2.21828319e-04
      6.07187336e-04 1.96979847e-04 -3.74542898e-04 5.12257277e-04
      -1.31491732e-04 1.45095881e-04 1.21268400e-04 3.96490359e-04
      -3.15020327e-04 2.87846487e-04 -7.45109937e-05 -8.10837199e-04
      8.38695385e-04 -1.80708827e-03 -5.66676550e-04 -2.58099870e-04
      -1.19855897e-04 -2.16123924e-04 -1.10242974e-04 4.99380985e-04
      -3.38375452e-04 -2.50631019e-05 -2.02856361e-04 -1.34438480e-04
      -6.35982899e-04 -3.27745918e-04 -1.82790100e-04 1.48199788e-05
      6.99214434e-06 3.17623810e-04 -3.04688961e-04 -9.93582187e-04
      -1.11460080e-03 -1.03571324e-03 -2.99284962e-04 3.11501761e-04
      -6.11804062e-05 4.23787307e-04 3.39600112e-04 1.19341444e-03
      -1.77877862e-03 -5.02450741e-04 -5.84062291e-05 6.91816094e-04
      1.63176228e-05 -3.94634204e-04 6.58724632e-04 4.01478086e-04
      2.06688901e-06 -3.43938998e-04 8.46718031e-04 -6.17621699e-04
      3.07366747e-04 -7.20435113e-04 4.73420718e-04 -5.90650830e-04
      1.52401673e-03 2.06321129e-03 -1.28483307e-03 5.79617685e-04
      1.50210481e-05 7.50456529e-04 1.23754703e-03 1.21247885e-03
      5.65911410e-04 -1.15778479e-04 -2.68362317e-04 -9.39126312e-06
      -4.23307327e-04 2.13350395e-05 7.08189327e-04 -1.14692282e-03</_>
    <_>
      4.46444814e-04 -3.54594318e-04 -1.87465412e-04 -6.43601466e-04
      -9.46571963e-05 1.57695235e-04 2.45337345e-04 3.86473315e-04
      2.29510712e-04 -2.06204175e-04 1.64738577e-03 9.61857513e-05
      -3.94318886e-05 -3.99397599e-04 -5.79040498e-04 5.82476088e-04
      2.25309326e-04 7.24221871e-04 2.29118901e-04 -3.67089151e-03
      -1.08981167e-03 4.63242905e-05 -3.38963408e-04 8.25544848e-05
      8.13785824e-04 1.16184657e-03 7.50383115e-05 -2.49183067e-04
      2.88778218e-04 -3.49163383e-05 -3.12463744e-05 -7.36050642e-05
      3.63741332e-04 3.24137276e-04 1.33870839e-04 -1.46398248e-04
      3.60461672e-05 -7.77910696e-04 -1.78927928e-03 -1.60990734e-04
      7.46970036e-05 1.00819045e-04 6.87269145e-04 -8.20468820e-04
      -1.15806761e-03 2.55516206e-04 1.76463072e-04 1.34237122e-03
      4.42986406e-04 -1.27214909e-04 -1.13991642e-04 5.95782767e-04
      -6.28229755e-05 2.68428266e-04 7.87640165e-04 -1.06668020e-04
      1.95748289e-04 3.28193019e-05 -7.29548512e-04 -1.71339605e-04
      7.55627389e-06 -1.35702940e-04 -3.24660563e-04 -1.94055756e-04
      -8.16804182e-04 -1.55937450e-04 -6.79784105e-04 -2.46968761e-04
      6.61002006e-04 -2.68332631e-04 -1.83791417e-05 -6.04611632e-05
      -3.39432474e-04 -1.02646234e-04 1.95869041e-04 9.35021817e-05
      -4.91136962e-05 -1.13242760e-03 1.38408112e-04 -3.92359769e-04
      1.13855611e-04 2.39255271e-04 2.27421231e-04 -1.70057116e-03
      -3.65644344e-04 3.45089764e-04 -8.30769131e-05 -2.90979788e-05
      -1.90597231e-04 4.03571757e-05 -1.03026372e-03 -7.65669218e-04
      -3.99478682e-04 -4.84090939e-04 -3.08684207e-06 1.99955190e-04
      -2.61650246e-04 1.84264893e-04 -4.63522359e-04 -1.14554845e-04
      5.42444526e-04 1.50884164e-03 -1.05036794e-04 -1.54200607e-04
      1.21215162e-04 3.06363939e-03 2.00405996e-03 2.30982609e-04
      -4.40555414e-05 1.30389904e-04 8.86776426e-04 -1.12307513e-04
      6.57926197e-04 8.99779043e-05 3.83794948e-04 5.82731336e-05
      -4.26435174e-04 -5.15972322e-04 -2.12250263e-04 3.82920407e-05
      -2.71870376e-04 -2.87074916e-04 2.22864372e-04 1.98791487e-04
      -2.96524886e-05 1.63008881e-04 8.55742663e-04 1.98584485e-06
      -1.67273131e-04 -8.14914471e-04 3.18120612e-04 5.23803290e-04
      -2.07812394e-04 -2.45387171e-04 -2.72321864e-04 -1.44307048e-03
      -1.06179027e-03 -1.30702785e-04 -1.34466201e-04 1.11498724e-04
      4.08071064e-04 3.12532560e-04 -4.31765046e-04 -4.68572980e-04
      9.12818505e-05 1.71250387e-04 2.75451224e-04 2.52534141e-04
      1.49364510e-04 2.83053145e-04 -3.32557567e-04 -4.48004779e-04
      -3.01644381e-04 -8.43080983e-04 -1.25645357e-03 9.26238572e-05
      -1.14260583e-04 -3.75733325e-05 7.15760514e-04 2.77014379e-03
      -1.00924831e-03 5.95008722e-04 5.55689039e-04 9.19157348e-04
      1.42444496e-03 -1.01186844e-04 -2.12262530e-04 5.56216633e-04
      2.52906728e-04 3.54198846e-06 -1.35889437e-04 -5.44137656e-05
      1.84691380e-05 -3.13702243e-04 1.00327539e-03 3.12184013e-04
      2.48788219e-05 3.48808884e-04 -1.37309340e-04 3.13106342e-04
      -8.27316777e-04 -2.21070077e-04 -1.14733695e-04 7.76743575e-04
      -2.16630287e-03 -2.82897876e-04 5.44182649e-06 8.81953223e-04
      1.57477951e-03 1.51395192e-03 1.56349750e-04 -2.37334782e-04
      -3.31271003e-04 5.07656368e-04 5.48358657e-04 1.59464063e-04
      2.28903911e-04 -5.57532243e-04 -9.10795003e-04 -2.98385881e-03
      5.65904656e-06 3.54792923e-04 -6.77898061e-04 1.18739452e-04
      4.40947275e-04 2.75977916e-04 -4.64968849e-04 -7.55221292e-04
      -5.01410868e-05 -1.70656567e-04 -9.26924258e-06 4.08188731e-04
      -3.25904839e-04 5.71535202e-04 -1.69874751e-04 1.81121883e-04
      1.41084415e-03 5.12115133e-04 -4.14704380e-04 3.86028143e-04
      2.49653734e-04 -7.11296452e-04 2.47206102e-04 -8.53065212e-05
      1.34182512e-04 -1.68775173e-03 -4.32510511e-04 1.05676823e-04
      -1.39615891e-04 -2.85582850e-04 7.13564921e-04 6.79034740e-04
      7.32394285e-04 -1.13451497e-05 -1.20022807e-04 -9.48436718e-05
      -3.14025412e-04 2.46675131e-06 1.66717306e-04 -1.85499666e-04
      2.33019091e-04 1.24351311e-04 2.05589645e-03 2.64209055e-04
      -6.16649922e-05 -5.14849729e-04 -9.52115050e-04 3.49990623e-05
      2.40884547e-04 5.10876591e-04 -1.20098521e-05 -1.10826374e-03
      -4.62151598e-04 -1.39836511e-05 -9.47920998e-05 -3.22064530e-04
      9.82998172e-05 8.93998484e-04 -1.01333890e-05 -1.04918890e-03
      -2.58226617e-04 -6.04184315e-05 -7.61308111e-05 -1.78603397e-04
      -7.24193000e-04 -1.04396378e-04 4.56748649e-06 -1.24081067e-04
      -4.90691018e-05 2.33921455e-05 -7.46391015e-04 -7.80015485e-04
      -1.94850407e-04 -4.53083921e-05 -6.41408915e-05 8.49094184e-04
      1.85287194e-04 5.19051355e-05 3.68365494e-04 5.59542852e-04
      3.69598623e-04 1.01091231e-04 1.12420475e-05 5.69698925e-04
      3.49625945e-04 4.61159434e-05 3.48686241e-04 -5.77922256e-05
      2.77485324e-05 -4.33504087e-04 3.19655781e-04 -2.06696684e-04
      -1.29953798e-04 1.29737295e-04 2.89514224e-04 3.95963609e-04
      4.15970018e-04 6.85992345e-05 2.67452677e-04 1.21258010e-04
      6.84199156e-04 3.65931861e-04 -4.27285850e-04 7.08152147e-05
      -8.07902034e-05 7.33569541e-05 2.64575938e-04 -5.44667419e-04
      2.03240415e-04 -2.08284031e-03 -4.52267734e-04 3.67989269e-04
      2.82127992e-04 -3.93615483e-05 1.06127693e-04 9.48697911e-04
      4.55524336e-04 -3.63886968e-04 1.30760134e-04 -1.90542924e-04
      -3.19758256e-04 -1.18500087e-04 -1.42688281e-04 6.60320045e-04
      2.42833150e-04 4.83419717e-04 8.44447859e-05 -7.81083188e-04
      -8.91692820e-04 -7.85639568e-05 1.78220987e-04 -2.81457440e-04
      2.00628725e-04 -4.58755749e-05 -5.27188648e-04 -3.65453161e-04
      1.27175197e-04 3.16362362e-04 2.20510410e-04 3.72255861e-04
      8.36093459e-05 3.43723485e-04 1.26655475e-04 -4.92060135e-05
      1.01837846e-04 9.70740439e-05 -4.71304142e-04 -1.00950408e-03
      4.07868909e-04 -1.21199802e-04 6.49959038e-05 1.80140778e-04
      -3.99589073e-04 -6.91933792e-06 4.20589116e-04 -1.90079358e-04
      3.59147089e-04 -2.68394331e-04 -2.69153679e-04 -3.56323231e-04
      2.67469932e-05 2.72186298e-04 -1.61624295e-04 -1.29651191e-04
      5.60296139e-05 6.14692181e-05 4.16144525e-04 4.95949462e-05
      7.07298022e-05 1.85408517e-05 -5.94125653e-04 9.17715006e-05
      4.88739985e-04 -2.79266853e-04 4.22804704e-04 -3.49061957e-05
      -1.03261264e-04 -1.58413633e-04 3.87639331e-04 6.21336570e-04
      -1.03420240e-03 1.53418769e-05 -5.81939938e-04 3.53949959e-04
      3.52932868e-04 2.93188903e-04 1.30909879e-03 9.38359706e-04
      -4.10237844e-05 -1.17287360e-04 -3.74670228e-04 5.82449211e-05
      1.72615837e-05 3.53657582e-04 -4.08778200e-04 -4.86746576e-04
      1.41884477e-04 4.06582461e-04 2.34210893e-04 1.18242016e-04
      -4.38001327e-04 1.64431534e-04 5.69373224e-05 -4.08715045e-04
      -3.41173029e-04 -1.92535552e-03 -2.00543538e-04 3.48062895e-04
      1.33221431e-04 9.17774887e-05 9.64932042e-06 2.02252213e-05
      1.29329637e-04 -1.74278393e-04 -2.82973888e-05 4.64004144e-04
      -7.49286992e-05 5.12108454e-05 1.87199894e-05 4.84191958e-04
      -1.86902733e-04 5.00919006e-04 1.05968875e-05 1.91967003e-04
      -2.99651620e-05 -3.49932932e-04 4.56494527e-05 6.44045358e-05
      -7.52368142e-05 1.47959814e-04 2.76546762e-05 -1.44656820e-04
      -1.32518180e-04 -3.95593292e-04 -4.63391858e-04 6.47317866e-05
      2.41485090e-04 -6.46575645e-05 1.61889169e-04 -3.41891486e-04
      -6.60621808e-05 -5.20465197e-04 5.21213187e-05 -2.47838907e-04
      3.14030243e-04 7.90974227e-05 -5.37783562e-05 -6.44906133e-04
      1.94719411e-04 -7.67240635e-05 5.21257112e-04 5.97828708e-04
      3.85286694e-05 1.62908764e-05 2.54131446e-04 2.86615570e-04
      -4.83797012e-05 1.18422169e-04 1.34426140e-04 6.16369944e-05
      4.66576254e-04 -1.39337717e-05 -2.39607412e-04 -1.76884257e-03
      6.97506592e-04 -3.98186494e-05 -2.03088421e-05 -1.01032136e-04
      -3.42513595e-05 -2.40630572e-04 -3.02331668e-04 -1.47370782e-04
      -2.80312641e-04 -1.52778885e-04 -2.77118699e-04 5.64162561e-04
      -1.53451620e-04 -2.80789536e-04 -5.49202196e-05 5.46085676e-06
      1.90811872e-04 3.06864131e-05 -4.13698319e-04 5.50742261e-04
      -9.77285381e-05 5.36246771e-05 1.37564042e-04 4.07553234e-05
      1.47017272e-04 2.21870068e-04 2.94393802e-04 -1.12558519e-04
      -1.93171445e-06 -2.59834575e-04 -1.82256830e-04 -2.79362459e-04
      -3.45232547e-04 -2.15151886e-04 -1.47303963e-05 -5.57668158e-04
      -2.82755238e-04 3.54325719e-04 1.32319445e-04 -2.23614581e-04
      -1.92038715e-04 7.32815897e-05 1.99192946e-04 9.47678127e-05
      3.00088752e-04 -1.20990226e-04 3.00627507e-05 1.41120239e-04
      5.06665790e-04 3.11087701e-04 -1.26200743e-04 1.04323891e-03
      1.40217599e-04 5.37875108e-04 -5.00628026e-04 2.68757984e-04
      3.05975787e-04 -1.36207580e-03 -3.21364379e-04 -2.66143179e-04
      1.22052938e-04 1.34329486e-04 -1.44026606e-04 -1.40758508e-04
      1.41014913e-04 8.62287343e-05 -1.63451841e-04 2.02150535e-04
      -1.15118315e-03 6.78319338e-05 4.46296763e-05 -1.15590345e-04
      6.90995832e-04 2.07048914e-04 -1.41032084e-04 2.46503332e-04
      5.48371754e-04 9.64710780e-04 -2.93060701e-04 -5.29682875e-05
      -1.86257486e-04 -2.06619225e-04 -5.36189997e-04 4.68073231e-05
      5.68127027e-04 1.97578134e-04 -6.82394675e-05 -2.47995136e-04
      6.32089577e-05 -4.35702641e-05 -1.43159283e-04 7.54124312e-06
      2.76976498e-04 -2.45348463e-04 3.31171963e-04 7.26075494e-04
      2.65818206e-04 1.02149686e-04 -1.23569262e-04 -8.56695769e-05
      -2.09468199e-04 1.01807970e-03 7.38067378e-04 -1.76447764e-04
      -2.42227383e-04 -1.04025901e-04 -5.79601736e-04 -2.01025658e-04
      -2.30756796e-05 -5.81719854e-04 -4.94859996e-05 -2.74419610e-04
      2.51751393e-04 8.91801319e-05 -5.47424461e-05 -9.65964864e-04
      -1.14195849e-04 1.66802474e-05 -6.59096986e-05 1.91220042e-05
      -4.15089053e-05 -2.06478668e-04 1.66034632e-04 -5.85174603e-05
      1.88169492e-04 5.10939921e-04 3.97099473e-04 -3.58198100e-04
      -1.58992611e-04 3.35429679e-04 -6.30686351e-04 5.34413208e-04
      -2.74057355e-04 -3.03412729e-04 -3.05947178e-04 1.04158395e-03
      -5.03193936e-04 1.25680759e-04 -1.39003430e-04 -4.54304027e-05
      -5.34488179e-04 3.88458138e-04 4.77441412e-04 6.29413407e-05
      -1.62617129e-04 8.84678157e-05 2.69324868e-04 -1.61967066e-04
      4.39357536e-04 4.98474765e-05 -2.03164789e-04 -1.87180369e-04
      -4.26952844e-04 2.79020489e-04 2.00529230e-05 1.34694592e-05
      4.63561337e-05 4.79792252e-05 5.22322662e-05 -1.99279762e-04
      5.98324114e-05 2.01440594e-06 -8.00002745e-05 1.19552261e-03
      8.42944370e-04 -5.45106850e-05 -1.83192142e-07 3.51000461e-04
      -5.64839342e-04 -6.37449266e-05 -8.19448964e-04 -3.65797867e-04
      -2.17133114e-04 -7.74575863e-04 3.28714726e-04 -9.29654198e-05
      -1.30479966e-04 1.37937284e-04 1.55708563e-04 -1.43687983e-04
      1.46090111e-04 -6.03735716e-05 -5.49315373e-05 1.41629964e-04
      3.01934895e-04 1.78177797e-04 7.42065604e-05 9.80357072e-05
      3.84234183e-04 -2.48394732e-04 1.78330170e-04 1.22174286e-04
      4.93764994e-04 2.84938986e-04 -2.08746333e-05 2.05349294e-04
      6.83397811e-04 5.40407527e-05 1.96602952e-04 1.20743329e-03
      2.00843002e-04 6.56821721e-05 -4.44325735e-04 -5.20554022e-04
      3.12211836e-04 1.77187409e-04 5.77428902e-04 -2.19696973e-04
      3.12649470e-04 -2.47746299e-04 -4.40706499e-04 -6.49581023e-04
      -7.93525251e-05 1.81232739e-04 2.16804037e-04 8.13868901e-05
      -1.50501495e-04 -8.84797046e-05 -4.83674230e-04 4.45594196e-05
      1.02216894e-04 7.20877666e-04 -3.02708388e-04 -1.20460312e-03
      -8.32233753e-04 6.91842986e-04 -9.56073491e-05 6.07150665e-04
      -1.13653641e-05 -1.26663974e-04 -2.39869041e-04 -2.77540064e-03
      -6.21275336e-04 9.48654560e-05 1.00260615e-04 -7.72823478e-05
      7.09979358e-05 1.90070525e-04 2.87759438e-04 -1.42047153e-04
      -3.17954655e-05 3.66491586e-04 1.08883705e-03 4.92398431e-06
      -1.28045809e-04 -1.44711339e-06 9.68202716e-04 4.83555836e-04
      3.09989671e-04 -5.20388014e-04 -5.34330262e-04 -1.42240780e-04
      1.26087776e-04 2.26590666e-04 -2.47460091e-04 8.52752855e-05
      -1.07834791e-03 -2.45472370e-03 -1.13225786e-03 -8.02173672e-05
      -1.75110807e-04 1.17630487e-04 2.39412431e-04 3.14368051e-04
      3.83377519e-05 4.74991160e-04 4.64249955e-04 -8.26504373e-04
      -3.46371642e-04 -9.33704796e-05 -7.53777451e-04 -5.50522411e-04
      -6.21850631e-05 -1.48210329e-05 2.83290865e-04 3.63173196e-04
      -2.84910551e-04 -1.04169107e-04 6.68007066e-04 1.77282945e-03
      6.91326102e-04 -7.77258101e-05 1.73225388e-04 3.11020049e-05
      4.22395155e-04 -1.52945329e-04 -3.46223620e-04 3.44553962e-04
      5.92853816e-04 -4.15158953e-04 4.50734893e-04 1.13952126e-04
      -2.11004749e-06 -1.69344839e-05 -4.46271633e-06 -1.49360187e-06
      3.56156925e-05 -7.59813838e-06 1.61594435e-04 1.37192517e-04
      -1.46579661e-03 1.30698230e-04 2.49147648e-04 4.37715207e-04
      1.13806175e-03 2.82803114e-04 8.86601920e-05 9.46824439e-05
      3.53065348e-04 5.74215264e-05 6.01204345e-04 2.57518026e-04
      -1.51182801e-04 4.64615820e-04 1.58324488e-04 6.80967234e-04
      1.64244921e-04 9.13543554e-05 -9.39850433e-05 -1.00302503e-04
      -2.44513467e-05 -5.18228917e-04 -2.24888604e-03 -7.73141801e-04
      1.90375591e-04 2.14836939e-04 -8.87273127e-05 1.72393193e-04
      -3.44856962e-04 -6.27034286e-04 -5.23273884e-05 4.11008485e-04
      6.12429139e-05 -1.26443582e-03 -9.04073182e-04 -2.62974616e-04
      9.74905852e-04 2.42025681e-06 -6.98195727e-05 -9.88463216e-05
      -3.62725055e-04 1.90652892e-04 4.93192929e-04 -3.65617947e-04
      5.39961911e-04 -1.28331740e-04 3.36838159e-04 2.40940863e-04
      7.76082452e-05 5.25031555e-06 5.54435501e-05 -5.59280379e-05
      7.57650778e-05 1.25603212e-04 1.85683559e-04 -1.25290399e-06
      8.52984012e-05 4.13780421e-04 1.64130237e-03 5.43170550e-04
      -2.69451120e-04 -4.62282042e-04 1.97144764e-04 3.42842570e-04
      2.16607412e-04 4.16899595e-04 -3.70373018e-04 -1.93338934e-03
      -7.18101335e-04 3.30401614e-04 3.88105691e-04 8.30963196e-04
      7.64211582e-04 2.23061201e-04 -2.13263760e-04 -9.45095962e-05
      -2.42584356e-04 -2.17845358e-04 1.72236701e-04 -7.40803953e-05
      2.70712662e-05 1.22547237e-04 -1.09031833e-04 3.07652110e-04
      9.32358016e-05 -4.55561880e-04 4.35536349e-05 -8.87878632e-05
      -4.33816285e-06 -2.25310607e-04 -1.59201125e-04 -1.31789595e-03
      9.59748577e-05 -7.52056076e-05 -2.03075469e-04 3.65135085e-04
      -1.01273088e-03 -1.25772742e-04 -9.55538708e-05 -6.95759954e-05
      6.59475190e-05 8.87579736e-05 3.60857302e-05 -3.64355015e-04
      1.22888957e-03 -6.06771500e-04 -1.18242111e-03 -1.34783084e-04
      1.38537784e-04 -3.61082813e-04 -9.91329551e-04 3.06283328e-04
      4.27484047e-05 6.40665603e-05 5.41297668e-05 1.45222104e-04
      4.39266616e-04 8.84592446e-05 -1.22653601e-05 -1.39867247e-04
      5.70758188e-04 6.39182632e-04 -5.04999596e-04 -4.59018018e-04
      -6.70346664e-04 -1.86042709e-03 -2.01022209e-04 1.01720841e-04
      1.12503927e-04 8.38490378e-05 -4.03783604e-04 8.82168650e-04
      -9.92606743e-04 -9.67802480e-05 1.64110592e-04 2.68819276e-04
      4.82749951e-04 -2.55801016e-04 5.14279411e-04 3.53479700e-04
      -1.88465929e-04 -3.66376276e-04 1.56930066e-04 3.28510883e-04
      -1.01547816e-03 -6.20727486e-04 -1.52935347e-04 -2.36259759e-04
      1.55803922e-03 2.76557985e-03 5.59933076e-04 -2.54236744e-04
      -5.56832412e-04 1.03786495e-03 1.51092582e-03 3.74678610e-04
      -2.37954846e-05 5.52702462e-04 -3.87108710e-04 -6.30196882e-04
      -4.14647220e-04 -1.64765763e-04 3.91108624e-05 -1.05825125e-03</_>
    <_>
      7.30416097e-04 -3.67037370e-04 -2.14349056e-04 -4.44306264e-04
      2.49378849e-04 9.96210510e-05 2.42861890e-04 4.69389197e-04
      5.47726057e-04 2.27907949e-04 2.57962593e-03 1.18912452e-04
      2.60674453e-04 -4.10268025e-04 3.84788582e-04 4.96540742e-04
      -3.13767290e-04 4.89338709e-04 1.01380072e-04 -2.24884041e-03
      -8.83592525e-04 4.40633303e-04 -2.81513348e-04 -4.62894881e-04
      8.99701961e-04 1.00306468e-03 -1.33651090e-04 -3.46055313e-04
      8.35764455e-04 -1.95655812e-04 -3.64791747e-04 1.48083273e-04
      2.40643581e-04 8.66499322e-04 -6.34886965e-05 -6.64340114e-05
      -8.90542433e-05 -8.45892180e-04 -1.39630155e-03 -2.29088837e-04
      2.75194150e-04 -1.51174216e-04 8.27495824e-04 -3.40593583e-03
      -1.44781754e-03 4.45514685e-04 9.64539358e-05 5.63024892e-04
      8.23204580e-04 -4.85887431e-04 -1.78761140e-04 9.45004169e-04
      -3.35359102e-04 -3.31940420e-04 6.18104590e-04 -6.40249229e-04
      2.76302162e-04 3.08563249e-05 5.08642348e-04 -2.77495506e-04
      -1.66485814e-04 -1.46403851e-04 -5.90548079e-05 -6.29444956e-04
      -1.02102698e-03 -2.97134247e-04 -6.09963958e-04 -5.43884060e-04
      1.60736113e-03 -4.94706561e-04 3.76404205e-04 -1.53446308e-04
      -1.71834615e-03 -1.37608172e-03 -1.50361548e-05 2.88884563e-04
      1.00120065e-04 -5.87203191e-04 -2.53891892e-04 -9.08787297e-06
      5.40059293e-04 3.04168585e-04 5.19641268e-04 -2.10201670e-03
      -6.84096536e-04 -4.67248377e-04 2.74669728e-04 9.70144756e-05
      8.96075653e-05 -8.28377088e-05 -9.83046601e-04 -2.10048957e-03
      -7.54944689e-04 -2.74417922e-04 4.96519031e-04 5.82735112e-04
      1.39495329e-04 -5.94678451e-04 -5.42472175e-04 -2.53483828e-04
      7.85977812e-04 1.76905491e-03 1.57271483e-04 -5.04812942e-06
      3.61489598e-04 2.37368629e-03 2.92247743e-03 3.37986974e-04
      8.06866883e-05 -5.72792778e-04 3.70730035e-04 3.07872775e-04
      1.32732105e-03 1.60107302e-04 3.69729067e-04 5.26550459e-04
      2.62786605e-04 -2.90470925e-04 1.14376002e-04 -5.43614617e-04
      -1.18785792e-04 -8.12533370e-04 -1.39199750e-04 6.75081610e-05
      -4.81030838e-05 -5.67171432e-04 -4.08460852e-04 -3.94197064e-04
      -1.84264194e-04 -4.63543896e-04 1.19480048e-03 -6.54242933e-04
      -2.19905080e-04 -1.11359994e-04 3.17809136e-05 -1.38313189e-04
      -1.74929592e-04 -8.91128322e-04 2.74621532e-04 1.21573255e-04
      7.77494512e-04 2.53127655e-04 2.38810171e-04 -5.13032137e-04
      -5.53553458e-04 7.05894054e-05 2.48124794e-04 2.80995970e-04
      5.03842894e-04 5.20645001e-04 -5.25974552e-04 2.18873785e-04
      1.88813923e-04 -6.92949630e-04 -2.37319339e-03 -7.03192854e-05
      -2.62497255e-04 -7.11036089e-04 1.22078881e-03 3.95643339e-03
      -1.24987494e-03 6.89938897e-04 -8.85695263e-05 2.29011592e-03
      2.06801202e-03 7.10714085e-05 -4.95655637e-04 5.83306479e-04
      1.07361711e-05 4.72435291e-04 -3.43794847e-04 -3.68677749e-04
      1.92629232e-04 -2.51488062e-03 1.38544932e-03 -7.34425994e-05
      2.23697964e-04 7.60076393e-04 3.06007802e-04 5.35812578e-04
      -4.59255796e-04 -9.90320550e-05 -1.33823260e-05 1.16720691e-03
      -3.92792467e-03 -2.06947894e-04 -2.33518382e-04 3.63474654e-04
      2.72588665e-03 1.56140642e-03 -6.75436240e-06 -3.04285233e-04
      -2.41730129e-04 2.12426414e-04 -1.47304294e-04 4.35309266e-05
      1.54709152e-04 -6.23727508e-04 -1.27964234e-03 -1.55391870e-03
      -1.14056042e-04 -1.39357377e-04 -2.57431326e-04 -5.62281130e-05
      7.54213368e-04 8.12486629e-04 8.72153905e-05 1.11268229e-04
      2.84488691e-04 -2.15724140e-04 -2.23447292e-04 6.36481273e-04
      2.44224531e-04 1.23416691e-03 2.37904969e-04 3.48257861e-04
      9.73331160e-04 1.81622076e-04 9.78717289e-05 6.48309884e-04
      3.07234732e-04 -4.21036873e-03 -7.26862578e-04 2.28732548e-04
      1.52417033e-05 -2.42431602e-03 -3.20168125e-04 1.97974892e-04
      -3.53770098e-04 -3.55872937e-04 1.26656203e-03 4.61194111e-04
      1.14198099e-03 -2.84414109e-05 -1.49133033e-04 -1.59057119e-04
      3.51615781e-05 -2.17645909e-04 7.56824520e-05 -4.88704885e-04
      3.58663034e-04 -7.52549531e-05 2.50164978e-03 4.84004850e-04
      -1.95580214e-04 -2.47138058e-04 -7.69202597e-04 5.80707449e-04
      2.60090546e-05 6.53418319e-05 7.50904379e-04 -4.29310836e-04
      -6.21055719e-04 -1.69930470e-04 -1.22788013e-04 7.28786927e-06
      -1.69227060e-04 -3.94626295e-05 6.31759700e-04 2.92047829e-04
      3.91828595e-04 -1.95478875e-04 -3.84524872e-04 -2.99030158e-04
      -1.45421096e-03 -7.44712655e-04 -1.57678456e-04 5.90371725e-04
      5.08592784e-05 -3.60145023e-05 -4.81253956e-04 -1.45137182e-03
      -3.68445268e-04 -3.10326257e-04 -1.47886298e-04 5.77224826e-04
      -2.99385774e-05 2.00295355e-04 -9.44276908e-05 3.17386555e-04
      -2.68492469e-04 -7.53015702e-05 -4.94704364e-05 -3.00275395e-04
      4.77843627e-04 5.42879687e-04 -6.16314937e-05 -2.38216366e-04
      5.12840052e-04 4.17890609e-04 5.27604425e-04 -9.97949683e-05
      1.91356939e-05 -2.54831306e-04 1.12475536e-03 1.15382594e-04
      3.97820404e-04 8.57422929e-05 -9.75011717e-05 2.47861863e-05
      -4.28387029e-05 2.31257742e-04 -1.53929868e-04 -4.15025366e-04
      -1.60593796e-03 -4.42289602e-04 3.64455191e-04 -3.28264636e-04
      2.33263985e-04 -2.31599971e-03 -8.38428736e-04 2.01238290e-05
      4.38044663e-04 1.47929837e-04 7.39939627e-04 7.37875816e-04
      -9.36300727e-04 -1.19734417e-04 -3.95696145e-04 -9.91551860e-05
      -3.27221001e-04 1.79215611e-04 1.18085218e-03 8.78701045e-04
      -1.33623398e-05 7.70277169e-04 2.60241679e-04 -7.93578918e-04
      -2.14093691e-03 3.84223153e-04 5.01196540e-04 -1.48682520e-04
      -9.45467254e-05 -3.31640127e-04 -7.34641100e-04 8.71446318e-05
      -2.01843679e-04 -2.17351248e-04 4.96886496e-04 5.36696694e-04
      2.49018165e-04 9.35485878e-04 2.24246505e-05 3.68070556e-04
      6.92330941e-04 1.68288083e-04 -3.98220116e-04 6.28580514e-04
      -3.70647089e-04 1.24109152e-04 -3.68979308e-05 4.89409023e-04
      -2.03984615e-04 -2.52057333e-04 2.36621199e-04 -2.42585840e-04
      2.72487698e-04 -3.15109122e-04 -1.49529906e-05 -5.41714508e-05
      4.90253209e-04 3.48197500e-04 5.78871004e-05 1.31743975e-04
      4.21848934e-04 1.16484189e-04 -3.21232656e-05 8.12529179e-04
      -4.65136894e-04 -4.70207451e-04 -5.01395029e-04 -1.27901279e-04
      -1.67308142e-04 9.70010471e-04 1.33534893e-03 9.83751233e-05
      3.29103117e-04 2.19943195e-05 2.36828229e-04 9.79532138e-04
      -1.55083311e-04 -3.59142054e-04 -3.18760052e-04 4.82764910e-04
      2.66913674e-04 4.52514709e-04 1.48650631e-03 2.87214149e-04
      2.24357354e-04 -1.34186135e-04 -3.64864172e-06 1.71962383e-04
      2.25447890e-04 1.91868865e-04 -1.03341532e-03 -1.92691654e-03
      -5.76010323e-04 4.05080587e-04 7.25078353e-05 -3.08236748e-04
      -7.41011580e-04 -1.14710419e-04 1.11676200e-04 -4.24217542e-05
      -2.36130480e-04 -2.64742854e-03 -1.24375540e-04 5.85747010e-04
      2.93486839e-04 3.90250440e-04 -1.76187445e-04 5.09827805e-05
      -5.09598976e-06 -2.44979863e-04 9.55849318e-05 1.78040907e-04
      -5.01138158e-04 6.34912052e-04 5.51898207e-04 4.24300466e-04
      -1.02339406e-03 5.04831143e-04 4.35714974e-05 3.54222029e-05
      -4.41110926e-04 -1.55598251e-03 -9.23409243e-04 -3.94274539e-04
      1.64629528e-05 1.91187122e-04 5.10439786e-05 -2.45827512e-04
      5.18498069e-04 -1.72924876e-04 -6.28756010e-04 -2.51512938e-06
      3.66170687e-04 -2.31054553e-04 3.79895413e-04 -5.77601779e-04
      -6.96214731e-04 -1.31069628e-05 2.85552582e-04 -8.05404736e-04
      1.66849175e-04 5.40793757e-04 2.45503499e-04 3.49557668e-04
      -1.30249246e-04 -6.29558926e-04 -6.50483344e-05 1.33754185e-03
      6.24101202e-04 4.66359983e-04 1.84696095e-04 -1.26346611e-04
      1.39293465e-04 -3.83679144e-04 1.42174234e-04 -7.95044980e-05
      3.59698024e-04 -2.89625517e-04 1.35024573e-04 1.77933573e-04
      -4.96071472e-04 -3.34623503e-04 -8.19919806e-05 -1.30989953e-04
      5.06819197e-05 1.32892426e-04 1.23420439e-04 -1.60312848e-04
      8.56843035e-05 6.68368157e-05 -2.49918696e-04 -5.01986360e-05
      -2.43815462e-04 8.89357616e-05 -2.34368286e-04 -3.95999305e-05
      1.66812024e-04 1.08906548e-04 -2.50811921e-04 2.69405718e-04
      -2.64307571e-04 -9.80582190e-05 -9.20607767e-04 4.22489175e-05
      1.14690932e-03 -4.91026207e-04 -1.74404436e-03 -5.03469026e-04
      8.03050862e-05 8.46717448e-05 -3.15429730e-04 -2.40414884e-04
      -1.21563608e-04 -1.69871837e-05 -1.51746808e-05 -8.42478257e-05
      -2.73208891e-04 9.44896092e-05 1.86977762e-04 -1.04258987e-04
      -1.33338559e-04 -1.65293139e-04 1.25786639e-03 1.48982788e-03
      6.72461407e-04 -1.39007825e-04 -5.47466470e-06 -6.07011549e-04
      1.39790820e-03 -2.03903110e-04 7.58253518e-05 8.61682231e-04
      1.39949657e-03 -6.48831483e-04 -5.98301158e-05 5.27540105e-04
      -4.00351913e-04 -5.83242509e-04 -7.52463005e-04 -5.89030096e-04
      -9.14184711e-05 -1.18550837e-04 2.31711732e-04 -4.72153857e-04
      -3.09654017e-04 6.38033671e-05 -3.24204331e-04 3.69102287e-04
      -4.59076808e-04 -1.45192807e-05 2.57419670e-05 -2.20078335e-04
      4.05492261e-04 2.77617684e-04 -9.52091286e-05 1.56874637e-04
      3.13585304e-04 1.88002654e-03 5.56810934e-04 -3.48684174e-04
      -1.60769749e-04 -2.03163087e-04 -8.50982789e-04 -7.41467520e-04
      7.16739742e-04 -3.04026413e-04 -2.16064771e-04 -3.85885010e-04
      -7.15253191e-05 1.66307582e-04 -7.24234211e-04 -5.62043453e-04
      6.62322331e-04 -4.58659313e-04 8.70040531e-05 1.89023989e-03
      3.02079087e-03 5.10127284e-04 -4.00586490e-04 2.48653261e-04
      -8.23601033e-04 -1.06964493e-03 1.23931770e-03 -2.88548443e-04
      2.93349178e-04 -7.16186245e-04 -4.12226334e-04 1.86391553e-04
      -3.48295907e-05 -3.37599980e-04 -2.80672830e-04 -7.45039142e-05
      2.37708751e-04 -3.19027866e-04 1.14454808e-04 -4.22883400e-04
      -1.43292025e-04 -1.99333736e-04 -2.24060423e-05 6.00394327e-04
      2.00571056e-04 -6.57196855e-04 1.10468140e-03 -1.20423712e-04
      3.20581370e-04 5.37014974e-04 6.73607108e-04 -5.46134776e-04
      3.20103951e-04 1.37279203e-04 -3.70907888e-04 -8.99449515e-04
      -3.39800928e-04 -1.33067762e-04 5.19904366e-04 1.65580167e-03
      -1.13817281e-03 6.19490515e-04 -4.24314785e-04 -4.08027467e-04
      -4.27694904e-04 -1.29828972e-04 4.54431312e-04 4.84646938e-04
      -3.02694942e-04 1.00735815e-06 -6.38599959e-05 3.75415984e-04
      5.02846204e-04 8.72804143e-04 -1.41656288e-04 -1.57928836e-04
      -7.02170248e-04 2.75840983e-04 -1.67849343e-04 2.07358811e-04
      6.35588076e-04 5.69563017e-05 -7.08992942e-04 -6.75504853e-04
      2.06778655e-04 -2.53282167e-04 -1.24967060e-04 1.15848170e-03
      -3.27928516e-04 -2.99615844e-04 -1.21506950e-04 3.81081802e-04
      -9.33225325e-04 -6.43027655e-04 -1.06340085e-04 -8.11191043e-04
      2.86926370e-04 -8.78007340e-05 1.98240494e-04 2.03626027e-04
      1.17897122e-04 -9.60460020e-05 -9.45911306e-05 -3.69901973e-04
      -7.22187222e-04 3.39981852e-05 -9.82931524e-05 2.31583472e-04
      3.61537590e-04 1.90778155e-04 -1.48516308e-04 2.12470652e-04
      2.01093004e-04 -3.50879825e-04 -5.59495893e-05 -5.51709782e-05
      1.59131232e-04 -1.90804669e-04 1.34461891e-06 -1.10970905e-05
      9.85466293e-04 -5.39978028e-05 7.01092649e-04 2.06983858e-03
      2.17459747e-04 -1.90971681e-04 -1.56094742e-04 -2.52428668e-04
      6.92758244e-04 -5.12196333e-04 1.23155420e-04 -6.51069859e-04
      -1.60982847e-04 -1.66436483e-04 -9.03000589e-04 3.33312259e-04
      3.93659517e-04 9.73405258e-05 -4.85047582e-04 -1.52833629e-04
      1.53542234e-04 2.29739759e-04 -3.03331530e-04 4.40398435e-04
      -3.92015754e-05 4.96516877e-04 -3.36176716e-04 -3.22799198e-04
      2.32851788e-04 1.55290600e-03 6.49653666e-04 -4.10860084e-04
      5.23792442e-05 3.85529449e-04 -4.84064425e-04 -3.94437229e-03
      -3.31406947e-04 -4.47512488e-04 -2.23190917e-04 -1.96406589e-04
      7.23442994e-04 -2.57728643e-05 -1.37689931e-04 -1.69770137e-05
      2.55770341e-04 5.44633425e-04 -1.47138504e-04 -8.78284220e-04
      -6.64836698e-05 3.28007736e-04 2.88929790e-04 4.45045880e-04
      1.76427726e-04 -9.72068083e-05 -8.51164688e-04 1.06854248e-03
      4.07491782e-04 1.15586074e-04 7.42795644e-04 6.12808624e-04
      -2.18152744e-03 -1.73078116e-03 -1.17948221e-03 -2.63935712e-04
      -8.90471623e-04 -1.19440847e-04 6.83911203e-04 2.66101997e-04
      5.62440371e-04 1.17363139e-04 6.41982595e-04 1.09150613e-04
      3.23236338e-04 9.52401024e-05 -1.73342705e-04 -1.12300215e-03
      -8.18704779e-04 2.69340580e-05 8.29473778e-04 1.06996123e-03
      -1.18215372e-04 4.41412740e-05 7.30914529e-04 1.60983216e-03
      1.03066406e-04 5.92882570e-04 1.91487765e-04 -2.85663595e-03
      4.50057742e-05 -2.73878686e-04 -7.57535745e-04 8.74147518e-04
      7.01001729e-04 5.78428910e-04 -1.05430459e-04 6.27910253e-04
      -2.49573612e-04 -2.05267163e-04 -3.52322590e-04 -2.02038384e-04
      3.70959810e-04 -2.76986859e-04 6.96924617e-05 -1.53992776e-04
      -2.11170991e-03 9.67198284e-04 -4.41497861e-04 3.43252090e-04
      1.15335779e-03 -4.34423971e-04 -7.68050231e-05 -3.39449500e-04
      -2.15854088e-04 -1.21443800e-03 4.87616227e-04 7.92194405e-05
      4.59632021e-04 5.66336093e-04 2.33462008e-04 -6.33494114e-04
      -1.46299019e-03 -1.41720884e-04 -2.53173610e-04 4.10419452e-04
      3.09696130e-04 -1.85575205e-04 -9.54015355e-04 -1.70640927e-03
      6.09694871e-05 3.11361422e-04 3.91228590e-04 1.14816590e-03
      9.10618925e-04 -6.62148872e-04 -2.65797862e-04 2.89194781e-04
      1.14338053e-03 7.00245961e-04 5.77736704e-04 5.45334151e-05
      1.19796721e-03 -8.47600866e-04 1.43428566e-04 1.00427796e-03
      9.86944069e-05 -7.67284655e-04 2.94951518e-04 8.97268110e-05
      -2.91893346e-04 -3.90989357e-04 2.85514019e-04 1.62135460e-04
      1.02456843e-05 -6.06577378e-04 -2.92323937e-04 3.32226773e-04
      -3.43903375e-04 -5.92385477e-04 4.74417902e-06 5.59798609e-05
      -3.39259306e-04 -2.44655705e-04 4.28639672e-04 2.50293466e-04
      3.03613459e-04 -6.48420770e-04 -1.89339486e-03 -9.17743600e-04
      2.16311630e-04 1.02517905e-03 -1.23193371e-04 -2.28968984e-03
      -5.21360198e-04 -5.78329898e-04 1.90073159e-04 1.03709544e-03
      2.06377939e-03 4.44657402e-04 -2.79236236e-04 -4.09817410e-04
      -1.60653319e-04 1.20790195e-04 1.58101073e-04 -2.76538631e-04
      -3.18448554e-04 2.45116826e-04 -2.35214102e-05 -1.98540001e-04
      3.63956176e-04 6.10362215e-04 -3.19008919e-04 -2.59290653e-04
      1.76539215e-05 8.63887544e-05 1.15201913e-03 -1.58857286e-03
      9.62875492e-04 -6.06123183e-04 -5.81220724e-04 2.82179285e-03
      1.49944244e-04 1.24461876e-04 -1.09684101e-04 2.15332047e-03
      -1.31821973e-04 6.76746597e-04 8.66036571e-05 -6.84898579e-04
      1.57534285e-03 -2.32970063e-03 -9.99071868e-04 8.72824749e-05
      3.53809359e-04 -4.82374686e-04 -7.71587947e-05 3.29942239e-04
      -7.18578289e-04 -1.87128026e-04 1.70924730e-04 -4.36769507e-04
      3.92987713e-04 6.16318081e-04 1.96922556e-05 -1.45527854e-04
      3.28359689e-04 -1.35664071e-04 -4.18661308e-04 -4.97139059e-04
      -7.50937092e-04 -2.25569747e-04 -3.87942157e-04 3.18544829e-04
      5.48008247e-04 4.47274768e-04 7.30079919e-05 3.22820095e-04
      -1.26989267e-03 -3.38758371e-04 2.22230752e-04 -5.12528750e-05
      1.75240202e-04 -9.77591611e-04 5.99614577e-04 -3.03972745e-04
      6.45385444e-05 -1.45950427e-04 3.46235429e-05 -2.65782961e-04
      2.15252963e-04 -9.72455426e-04 8.60731379e-05 5.37312417e-06
      1.82914606e-03 2.91461521e-03 7.38203700e-04 -7.93677056e-04
      -1.97264904e-04 8.21030408e-04 1.90722756e-03 6.54591538e-04
      -3.23056447e-04 -3.69871996e-04 -4.28789179e-04 -7.59692455e-04
      -4.79949987e-04 2.35044296e-04 1.13917474e-06 -1.37243490e-03</_>
    <_>
      1.71231315e-03 -2.56589439e-04 -3.54481832e-04 -1.18899834e-03
      -5.73573401e-04 8.22753354e-05 2.54569313e-04 2.04873708e-04
      -5.98366460e-05 1.29007516e-04 9.91069362e-04 2.49991484e-04
      -2.83566071e-04 3.92478221e-04 -9.99615586e-05 -3.04174609e-05
      -5.07338671e-04 -8.22958536e-04 -1.53239979e-03 -1.77630642e-03
      2.29694939e-04 1.03221950e-03 -3.22915803e-05 7.57423753e-04
      1.39558688e-03 4.68991057e-04 -4.06162988e-04 9.39095626e-05
      8.14637518e-04 1.64400757e-04 -4.13095520e-04 -5.50170953e-05
      1.42694858e-04 5.28818346e-04 8.63806752e-04 -1.06132159e-03
      1.17762727e-04 -1.75079692e-03 -2.42006546e-03 1.90471386e-04
      7.58984941e-04 -9.89058986e-04 1.41244684e-03 -1.55298412e-03
      -2.14982289e-03 8.47312564e-04 -1.08344015e-04 -1.26849802e-04
      2.46087136e-03 -6.97853509e-04 -1.64316691e-04 3.40767758e-04
      8.92444630e-04 8.25964037e-07 7.15991075e-04 7.76441826e-04
      -4.46788501e-04 8.38115870e-04 1.03794876e-03 2.88510637e-04
      1.76897098e-04 2.92894314e-04 -8.67464987e-04 -2.59021443e-04
      -1.11999421e-03 5.36137086e-04 -1.97889982e-03 -4.69346618e-04
      1.55401870e-03 8.50063880e-05 -1.02169544e-03 -2.47243064e-04
      -2.10716319e-03 1.83879840e-03 -1.80530740e-04 4.21683595e-04
      -1.79039082e-03 -1.12669205e-03 -3.95952411e-05 4.84489981e-04
      9.18162637e-04 6.40298240e-05 -5.42693422e-04 -3.46060097e-03
      -7.38505390e-04 4.10224638e-05 -4.56945418e-04 7.54352892e-04
      -1.84046556e-04 3.67950212e-04 1.94602180e-04 -1.16189825e-03
      -6.93304173e-04 -5.58404427e-04 -3.84655606e-04 2.82651774e-04
      6.28261711e-04 1.36429284e-04 -3.62696737e-05 -6.91826572e-04
      1.95119740e-03 1.81471929e-03 1.38945377e-03 2.03670133e-04
      1.34609931e-03 8.05405260e-04 1.49855879e-03 -2.54186466e-06
      3.96619202e-04 -1.22828875e-03 1.76513707e-03 3.40551516e-04
      -2.65465380e-04 -4.02147125e-04 4.92870749e-04 -9.25007480e-05
      1.37330513e-04 4.73281216e-05 -3.97026190e-04 -4.35494381e-04
      -5.69084019e-04 -6.06380752e-04 -3.89049441e-04 2.37991684e-04
      1.50033637e-04 4.59945382e-04 -1.28970190e-03 -7.80730159e-04
      4.48331033e-04 -1.60523935e-03 -1.78999407e-03 1.75118004e-03
      -5.60837034e-05 -4.30930755e-04 2.57304462e-04 -1.27042690e-03
      -5.14813408e-04 -7.65066827e-04 -7.83826516e-04 1.31600624e-04
      3.67906032e-04 -4.76995046e-04 9.13326745e-04 3.80404585e-04
      -1.85615174e-03 4.52317734e-04 -1.86679710e-04 -1.23265362e-03
      1.77398580e-03 5.74324185e-05 -6.50349597e-04 -8.14420637e-05
      1.22101119e-04 1.82579330e-03 -2.41972576e-03 -2.30997032e-03
      5.34153602e-04 6.73684335e-05 -1.03646256e-04 2.67223967e-03
      6.57321361e-04 6.83493738e-04 1.35741767e-03 5.99580468e-04
      2.09342688e-03 3.69090354e-04 -1.10587251e-04 9.92873567e-04
      3.69027082e-04 -4.62193711e-04 5.22150134e-04 -4.09126544e-04
      2.92548444e-04 1.25836988e-03 1.33767666e-03 -6.11710304e-04
      6.16282749e-04 9.41748673e-04 -1.28038286e-04 -3.77395227e-05
      -7.38659117e-04 9.16537683e-05 -8.21105205e-04 1.15710532e-03
      -6.88712636e-04 -5.57333289e-04 5.30515972e-04 -4.23371384e-04
      6.74191746e-04 2.40138546e-03 -3.17731668e-04 3.17654107e-04
