<?xml version="1.0"?>
<opencv_storage>
<opencv_ml_svm>
  <format>3</format>
  <svmType>C_SVC</svmType>
  <kernel>
    <type>LINEAR</type></kernel>
  <C>1.</C>
  <term_criteria><iterations>100</iterations></term_criteria>
  <var_count>136</var_count>
  <class_count>6</class_count>
  <class_labels type_id="opencv-matrix">
    <rows>6</rows>
    <cols>1</cols>
    <dt>i</dt>
    <data>
      170 250 300 350 400 450</data></class_labels>
  <sv_total>15</sv_total>
  <support_vectors>
    <_>
      -1.97359434e-04 4.60106554e-03 7.22707890e-04 2.54401076e-03
      1.95717555e-03 7.08466614e-05 2.44050520e-03 -1.13589666e-03
      1.97001174e-03 -1.14018483e-04 1.47144357e-03 -2.14323605e-04
      1.59425137e-03 3.04771471e-03 1.42566895e-03 3.87324253e-03
      2.97935889e-03 3.17286840e-03 4.41469252e-03 3.63203231e-03
      2.87754717e-03 4.25388990e-03 2.33230880e-04 4.16867249e-03
      -1.91831018e-03 2.26949505e-03 -3.53994430e-03 1.47325941e-03
      -3.48748825e-03 1.27482100e-03 -4.26487671e-03 1.74954056e-03
      -5.84552484e-03 2.72238418e-03 2.89799622e-03 -1.82311912e-03
      3.05708149e-03 -6.89240696e-04 1.79210771e-03 -1.03331043e-03
      1.23973307e-03 -2.22485350e-03 3.37045029e-04 -2.86747678e-03
      -1.64819672e-03 -3.39003513e-03 -3.35293403e-03 -4.45330935e-03
      -3.16084921e-03 -3.44745000e-03 -4.22925083e-03 -2.18045188e-05
      -6.31335843e-03 1.06839440e-03 -2.96834100e-04 -2.85863574e-03
      6.20945648e-04 -3.92534258e-03 1.45544019e-03 -4.95062070e-03
      2.05249013e-03 -5.74246841e-03 2.71057524e-03 -4.59270552e-04
      1.51328079e-03 -1.01827073e-03 -2.05558058e-06 -1.15590321e-03
      -1.13720074e-03 -7.64175318e-04 -2.15162197e-03 -4.77266789e-04
      1.75455154e-03 -9.99609707e-04 5.53406659e-04 -3.34369577e-03
      1.46933424e-03 -4.43074619e-03 8.55157501e-04 -1.88762194e-03
      1.56941067e-03 -1.11100858e-03 9.33709962e-04 -3.06877831e-04
      -8.27296579e-04 -2.20987923e-03 -8.50421144e-04 -3.90812987e-03
      1.07066749e-04 -4.22404753e-03 -1.14848570e-03 -1.16396032e-03
      -1.02239283e-05 -1.27112295e-03 -6.70412148e-04 -1.48639153e-03
      6.42882707e-03 5.51635586e-03 3.70810041e-03 1.27353123e-03
      1.11718045e-03 -1.29898044e-03 -8.64421600e-04 -1.15630543e-03
      -2.89598829e-03 -1.25431712e-03 -5.26012015e-03 1.63922296e-03
      -7.14714220e-03 6.60603493e-03 -4.99215210e-03 2.27282476e-03
      -2.76718894e-03 -1.35901268e-03 -2.56609619e-05 -2.14759214e-03
      2.03154539e-03 -1.81850069e-03 3.35380458e-03 3.30002455e-04
      5.85181639e-03 4.39085765e-03 1.37110555e-03 2.22760090e-03
      -6.67611661e-04 1.92519010e-03 -2.84817186e-03 2.71667889e-03
      -6.61194930e-03 5.62471896e-03 -2.96712108e-03 -1.99277629e-03
      -2.70859309e-04 -3.10212420e-03 1.67200738e-03 -2.60002376e-03</_>
    <_>
      2.51387595e-03 4.95468965e-03 3.05681326e-03 2.01008562e-03
      3.10533773e-03 -7.80922011e-04 1.24660623e-03 -1.76090666e-03
      -1.30421622e-03 -9.35055607e-04 -3.14110238e-03 -1.10128196e-03
      -2.52925651e-03 1.37397414e-03 -5.73308316e-05 2.44994089e-03
      2.62319134e-03 1.85376115e-03 4.38596494e-03 -5.37431159e-04
      5.17722405e-03 -2.51535885e-03 5.28726494e-03 -1.45578873e-03
      2.55142571e-03 -8.98476748e-04 -2.19017710e-03 -6.42262341e-04
      -5.58294216e-03 1.89978819e-04 -5.42236492e-03 2.75512668e-03
      -3.58800823e-03 4.82846005e-03 -6.66220731e-04 6.62592705e-04
      3.04104586e-04 -1.12781848e-03 1.85568887e-03 -1.59310480e-03
      3.15728877e-03 -2.29672738e-03 4.12668195e-03 -1.06568763e-03
      -6.92016445e-04 -7.93695217e-05 -1.72157434e-03 -1.78992969e-03
      -9.84710408e-04 -1.54301722e-03 1.72500615e-04 2.37847402e-04
      -1.37427880e-03 2.80826702e-03 1.79241353e-03 -3.00448900e-03
      1.53163460e-03 -6.83342759e-03 1.14494399e-03 -9.87556018e-03
      7.92418374e-04 -1.28203705e-02 3.38822580e-03 -4.58914088e-03
      8.59007530e-04 -5.88584598e-03 -1.15154299e-03 -6.64561708e-03
      -3.61430529e-03 -5.16889570e-03 -5.65418741e-03 -2.31095520e-03
      4.93015570e-04 -2.01830687e-03 5.40400215e-04 -1.30973861e-03
      -6.96504605e-04 -1.38342101e-03 -1.64806249e-03 -2.96295877e-03
      -1.01440831e-03 -3.12944478e-03 3.84882558e-04 -2.48314301e-03
      3.13271605e-03 -1.07110629e-03 3.17722559e-03 1.28062535e-03
      1.17338682e-03 1.91896432e-03 -2.13689578e-04 1.03149493e-03
      8.94210592e-04 6.89414082e-05 2.71440321e-03 -4.93911735e-04
      1.59249594e-03 -1.20089576e-03 3.06562171e-03 2.14590621e-03
      2.18130369e-03 1.86583458e-03 -8.25948897e-04 3.17972922e-03
      -3.94277973e-03 3.58989253e-03 -4.32481011e-03 5.42145316e-03
      -3.01330257e-03 1.85443880e-03 -3.84634454e-03 4.08169720e-03
      -3.89570394e-03 2.40583555e-03 -1.24778622e-03 1.44751789e-03
      1.48601586e-03 7.67074642e-04 1.47181866e-03 1.36196462e-03
      1.92598742e-03 -1.28981323e-04 1.63683936e-03 4.91441786e-03
      -1.22223503e-03 5.55754313e-03 -3.86877917e-03 6.02857349e-03
      -3.97915719e-03 2.82124430e-03 -3.43141099e-03 1.00802712e-03
      -1.07041036e-03 4.16032679e-04 1.93713862e-03 4.21192381e-04</_>
    <_>
      2.97615887e-03 1.08261583e-02 2.56850105e-03 6.33098325e-03
      2.36809626e-03 1.17844308e-03 3.73357185e-03 -1.27771159e-03
      1.86349335e-03 -1.89787918e-03 1.02267694e-03 -3.60730733e-03
      2.87940406e-04 1.17673910e-04 -7.06392690e-04 1.87140051e-03
      2.12887907e-03 1.05757348e-03 6.93304837e-03 1.15880393e-03
      7.24150846e-03 1.73543312e-03 3.92031390e-03 2.54265335e-03
      5.90881449e-04 1.46600639e-03 -3.57359881e-03 1.86110649e-03
      -3.79023608e-03 3.67754418e-03 -5.30172512e-03 8.08904972e-03
      -8.07220303e-03 1.12101715e-02 4.13290830e-03 -5.68175921e-03
      2.80590495e-03 -2.76209065e-03 -1.37898081e-03 -1.92724122e-03
      -4.63707792e-03 -2.79834308e-03 -6.92600431e-03 -2.20863940e-03
      6.13649702e-03 -4.69670072e-03 1.58660882e-03 -6.86662598e-03
      -2.34201405e-04 -5.45653282e-03 -3.63536249e-03 -1.22787524e-03
      -7.65282847e-03 -9.77915013e-04 -2.61137309e-03 -6.01546606e-04
      -4.43344587e-04 -2.30440428e-03 1.12329645e-03 -3.51490313e-03
      2.74378597e-03 -5.48206037e-03 4.77489131e-03 1.54787512e-03
      1.94830983e-03 3.20857391e-04 -5.92945726e-04 -1.73729064e-03
      -2.41959956e-03 -1.30335183e-03 -3.87552683e-03 1.96465454e-03
      -8.21268593e-04 2.11376790e-03 -1.07697200e-03 -1.15215371e-03
      -5.75074926e-04 -2.00194912e-03 -4.19002376e-04 1.60575402e-03
      -7.86648889e-04 1.68634311e-03 -1.03149796e-03 2.58825789e-03
      -5.28823119e-04 3.01091280e-03 2.55458202e-04 -1.00469927e-03
      1.08759734e-03 -5.86805865e-04 -2.19002948e-03 4.61784238e-03
      4.67694947e-04 3.59843648e-03 1.43494472e-04 3.58389132e-03
      3.30974394e-03 1.51600013e-03 2.96085095e-03 6.63940154e-04
      7.90666323e-04 -5.94616358e-05 9.68341075e-04 -7.08500389e-04
      -8.11584003e-04 -2.10680347e-03 -1.14110461e-03 1.45628001e-03
      -2.08427454e-03 1.74911565e-03 -1.28327962e-03 -1.29641127e-03
      -6.41492079e-04 -6.04045158e-03 1.19639561e-03 -7.18231825e-03
      5.73983765e-04 -5.54452790e-03 2.21468555e-03 -2.46140640e-03
      4.67598392e-03 1.28473516e-03 1.60092639e-03 5.07453270e-03
      5.69353870e-04 3.18683498e-03 -1.00711081e-03 5.13733784e-03
      -1.21802883e-03 3.14561161e-03 -7.66814803e-04 -6.16963767e-03
      -9.78523021e-05 -6.62443042e-03 2.76348990e-04 -5.98665141e-03</_>
    <_>
      3.21033713e-03 4.91693895e-03 3.11812572e-03 2.68732477e-03
      3.67985480e-03 6.79856399e-04 3.35318269e-03 -5.84647001e-04
      2.87662423e-03 -6.88643311e-04 2.26983475e-03 -8.91979551e-04
      1.73292134e-03 1.50036474e-03 7.99336936e-04 2.85609113e-03
      1.12943584e-03 3.18295951e-03 1.54499977e-03 3.25386249e-03
      2.06384211e-04 2.23894906e-03 -2.36940640e-03 1.75878638e-03
      -3.79128940e-03 7.92519713e-04 -4.53774771e-03 6.46568835e-04
      -4.19500098e-03 1.13943696e-03 -4.24062181e-03 1.87773851e-03
      -4.15777322e-03 2.37495499e-03 3.58347152e-03 -4.22270177e-03
      2.64835660e-03 -2.45609111e-03 3.90097062e-04 -1.96846668e-03
      -1.97032001e-03 -2.41518556e-03 -4.15751245e-03 -3.45229614e-03
      8.76809354e-04 -3.88252689e-03 -1.29873294e-03 -5.19620348e-03
      -2.03538081e-03 -4.81409673e-03 -4.12073638e-03 -2.91624549e-03
      -5.65519091e-03 -2.69056438e-03 -9.15019657e-04 -4.75478941e-04
      -1.27000148e-05 -1.67528295e-03 8.55453894e-04 -2.08398257e-03
      1.78866554e-03 -3.11642257e-03 2.57797237e-03 -1.98258378e-04
      1.45110197e-03 -3.57419834e-04 2.93275778e-04 -4.43906436e-04
      -9.35725519e-04 -5.00104565e-04 -2.07948242e-03 -5.38820517e-04
      8.49420787e-04 1.20730983e-04 3.82617698e-04 -3.18388338e-03
      1.45028566e-03 -3.53454938e-03 6.69324480e-04 8.33455066e-04
      9.30802489e-04 1.01849157e-03 -1.98099820e-04 9.27314803e-04
      -1.60767871e-03 2.66603776e-04 -2.07478064e-03 -3.44075542e-03
      -9.44767613e-04 -4.57350677e-03 -1.92543410e-03 -8.70608725e-04
      -1.53681991e-04 4.04368766e-04 -9.53037641e-04 5.44575450e-04
      5.44265192e-03 2.82884669e-03 2.75979447e-03 -3.56618024e-04
      1.51483936e-03 -2.29109824e-03 1.80490839e-04 -2.28002388e-03
      -1.08265097e-03 -2.59305350e-03 -2.12152977e-03 -2.33120183e-04
      -4.33161482e-03 2.68557714e-03 -2.36723735e-03 4.29216539e-03
      -1.14564167e-03 4.19124588e-03 2.84637819e-04 4.19816934e-03
      1.32377271e-03 4.01247619e-03 1.98138040e-03 3.46589065e-03
      5.50236739e-03 2.66198744e-03 1.53660367e-03 1.14409998e-03
      2.19893162e-04 8.72066012e-04 -9.76685318e-04 1.27453078e-03
      -4.40551853e-03 2.68781208e-03 -1.32583617e-03 2.12566950e-03
      4.09301749e-04 1.80425926e-03 1.30910799e-03 1.95045199e-03</_>
    <_>
      1.12290867e-03 3.97738395e-03 2.53947219e-04 1.83992647e-03
      -1.00820023e-03 1.76910486e-04 -1.67219597e-03 -1.03312521e-03
      -2.64746696e-03 -5.23399736e-04 -3.26303812e-03 -4.42262448e-04
      -1.97516894e-03 -6.11632480e-04 -1.76313915e-03 -3.20829247e-04
      8.11948732e-04 -8.45893752e-04 3.57785472e-03 5.51771605e-04
      3.88048147e-03 9.51970636e-04 3.92122753e-03 1.38493686e-03
      2.50982214e-03 -8.61085835e-04 8.74220103e-04 1.77998430e-04
      -2.59459310e-04 3.23002430e-04 -8.39824730e-04 2.35857209e-03
      -1.26846496e-03 3.36752972e-03 -7.99217887e-05 -1.58695490e-04
      1.45118125e-03 1.40805880e-03 4.57821792e-04 1.55178818e-03
      3.27757618e-04 1.69724948e-03 1.52267027e-03 1.44356280e-03
      -1.78219157e-03 -1.16102374e-03 -1.88917539e-03 -4.35500173e-03
      -1.51008528e-04 -3.47006461e-03 7.41892902e-04 -1.34030997e-03
      9.64009669e-05 1.32482103e-03 -1.23296445e-03 -2.10391838e-04
      -4.18473588e-04 6.02367334e-04 -6.08750852e-04 1.92911655e-03
      -1.71253923e-04 3.04641179e-03 -4.31483204e-04 6.10221783e-03
      -8.89178715e-04 5.40701440e-03 -1.05647172e-03 6.10457454e-03
      2.46231684e-05 5.08059608e-03 1.06081126e-04 5.13152126e-03
      -1.91383262e-03 1.46757695e-03 -1.49211893e-03 1.69334278e-04
      1.79379262e-04 1.56539085e-04 1.00838591e-03 1.25170534e-03
      5.00368362e-04 1.04377477e-03 -1.21518702e-03 1.01593684e-03
      -1.25964149e-03 9.57551583e-06 6.17210171e-04 -9.93746100e-04
      1.25118857e-03 -1.65009021e-03 1.02639419e-03 3.47672554e-04
      1.45113445e-03 2.47890945e-04 7.70741317e-04 -5.45194838e-04
      3.07955343e-04 2.69031472e-04 6.45683671e-04 3.67467804e-03
      -8.30763194e-04 3.23180133e-03 -4.68460377e-04 3.91458999e-03
      -1.41153240e-03 2.81984941e-03 -2.21294715e-04 1.78239017e-03
      3.29691893e-03 -7.97572953e-04 7.46035075e-04 -5.71842864e-03
      4.16907016e-04 -1.03250500e-02 1.37204758e-03 -9.66971181e-03
      1.20710209e-03 -9.70567670e-03 9.97564872e-04 -6.87952293e-03
      1.59615360e-04 -2.68282776e-04 -9.43575869e-04 4.54669492e-03
      -5.55789855e-04 4.07938706e-03 1.03319493e-04 3.87876923e-03
      3.12935910e-03 -5.04472584e-04 7.40796793e-04 -8.23706854e-03
      2.20734699e-04 -8.99177417e-03 -2.19749913e-04 -7.74637004e-03</_>
    <_>
      5.02681034e-03 -1.70946389e-03 1.78570137e-03 -2.38566834e-04
      -3.90202389e-04 1.38590916e-03 -3.24053876e-03 2.89002922e-03
      -4.80808644e-03 2.14830646e-03 -3.77851306e-03 8.16880085e-04
      -1.79925968e-03 -1.62142457e-03 6.42902334e-04 -2.83302320e-03
      -5.67700248e-04 -3.14170145e-03 -2.32930970e-03 -7.35809188e-03
      -1.77759153e-04 -1.24978581e-02 3.76741611e-03 -1.14660999e-02
      4.07727156e-03 -6.09852094e-03 1.29858614e-03 -4.63719713e-03
      -1.33718690e-03 -1.87245046e-03 1.87684945e-03 2.11521680e-03
      7.14907935e-03 3.20174266e-03 -4.87380661e-03 1.54524681e-03
      -4.99802968e-03 -1.84861082e-03 -6.29557064e-04 -2.63827504e-03
      1.21370447e-03 -1.08043000e-03 3.08578881e-03 1.78864168e-03
      3.44687304e-03 3.50433891e-03 6.23721303e-03 5.67294285e-03
      5.33728907e-03 4.85310564e-03 8.14780407e-03 1.21509121e-03
      1.02105914e-02 5.31378901e-04 3.74803878e-03 9.54915711e-04
      1.13234005e-03 -2.80569051e-03 -1.21809589e-03 -5.55344764e-03
      -3.05896765e-03 -8.97874404e-03 1.95195011e-04 -4.83972672e-03
      -7.76660803e-04 -5.54987835e-03 -1.98013894e-03 -7.63865979e-03
      -3.26496386e-03 -5.22179110e-03 -5.31053264e-03 -1.51718687e-03
      -2.41846195e-03 -1.46390125e-03 3.10255600e-05 5.03350841e-03
      -2.52491329e-03 6.85459655e-03 -1.81444793e-03 -5.29810262e-04
      -2.27871048e-03 -1.49807392e-03 -1.10430282e-03 -2.21381383e-03
      2.04111915e-03 2.64804321e-03 2.71234685e-03 8.39209743e-03
      -3.82679893e-04 1.07029723e-02 -6.19082595e-04 4.09968290e-03
      -1.61017466e-03 2.66604125e-03 1.39068323e-03 2.42700242e-03
      -8.22195504e-03 -1.04911560e-02 -1.98013172e-03 2.56507052e-03
      6.95713970e-04 5.67731634e-03 -4.82916003e-05 7.85628613e-03
      -7.41640513e-04 8.75383522e-03 2.16051750e-03 6.16598455e-03
      6.26954809e-03 -8.50827992e-03 1.74631423e-03 1.67769159e-03
      -1.32517179e-03 6.19738596e-03 -1.89291313e-03 5.78760821e-03
      -1.05151080e-03 4.59849276e-03 -2.42435699e-03 9.88441287e-04
      -6.61983946e-03 -7.27684377e-03 -1.36570568e-04 4.21439484e-03
      -1.11789710e-03 5.98169211e-03 -1.17672444e-03 5.55861508e-03
      3.62501363e-03 -5.98214334e-03 -5.20433416e-04 4.16918145e-03
      -1.31558895e-03 4.64792876e-03 -6.17241631e-06 2.66760797e-03</_>
    <_>
      -4.02050046e-03 6.67007128e-03 -1.88766292e-03 4.33134520e-03
      -4.40990552e-03 2.66779307e-03 -3.71497078e-03 2.14299909e-03
      -6.16548816e-03 2.03896750e-04 -6.08532829e-03 -1.13044353e-03
      -4.49959096e-03 -2.52035446e-03 -2.23712507e-03 -4.32393653e-03
      -7.77714129e-04 -4.05343296e-03 7.99042871e-04 -5.98910777e-03
      2.84935487e-03 -6.17345283e-03 2.94547435e-03 -5.13513433e-03
      2.39590206e-03 -3.31226503e-03 1.33525129e-04 -2.04166607e-03
      -2.85619125e-03 5.43130562e-04 -3.97012848e-03 2.87578930e-03
      -2.74836808e-03 7.23600388e-03 -4.17039357e-03 -1.92526320e-03
      -4.86660423e-03 -1.22606242e-03 -5.80318132e-03 -1.06459588e-03
      -7.54902884e-03 1.45117776e-03 -9.65415686e-03 3.48004466e-03
      6.02065492e-03 1.26090006e-03 4.65919869e-03 -7.52622436e-04
      2.17044959e-03 -2.26401747e-03 5.28412755e-04 -3.52180260e-03
      -1.75909908e-03 -4.27218294e-03 -2.84202537e-03 3.16458335e-03
      -4.16717288e-04 2.68084952e-03 5.75242564e-04 2.27115699e-03
      2.63662473e-03 1.00499383e-04 2.14403542e-03 2.12607579e-03
      2.07018573e-03 1.65622961e-03 1.10045972e-03 -7.29079533e-04
      -2.67014315e-04 2.13096413e-04 -2.89442251e-04 2.14336999e-03
      -3.93554615e-03 2.95826374e-03 -3.90325696e-03 4.18316247e-03
      -4.22098720e-03 5.35617489e-03 -3.90455709e-03 3.95114301e-03
      -4.36395267e-03 4.07577353e-03 -3.72800836e-03 3.22567881e-03
      -1.83390826e-03 4.61539626e-03 -8.79870495e-04 4.43966920e-03
      -1.14753109e-03 4.96563548e-03 -2.88016233e-03 4.78486344e-03
      -1.59072096e-03 5.13940817e-03 -1.63108599e-03 5.04234899e-03
      -6.47325534e-03 -7.66457617e-03 -2.10690382e-03 -1.43962668e-03
      8.86623224e-04 -1.41549957e-04 1.95352570e-03 -8.49516946e-04
      3.46639263e-03 -1.29658659e-03 5.66954678e-03 -2.76585482e-03
      6.48145936e-03 -1.05347224e-02 4.75295680e-03 -9.02330503e-03
      3.60416505e-03 -7.44732888e-03 1.22044864e-03 -4.57802834e-03
      -1.02872238e-03 -4.35707206e-03 -2.19402765e-03 -4.14937548e-03
      -5.89066092e-03 -5.17034251e-03 -1.74340574e-04 2.75748665e-04
      2.09054095e-03 4.18707932e-04 3.68932122e-03 -4.76261805e-04
      6.85908785e-03 -8.61695129e-03 3.29532311e-03 -5.02770813e-03
      1.32780510e-03 -4.02598828e-03 -4.96839290e-04 -2.99790292e-03</_>
    <_>
      9.75910388e-03 4.63698618e-03 8.86662491e-03 2.77906563e-03
      8.19082838e-03 8.60490371e-04 7.68154906e-03 -8.02237482e-04
      7.09625985e-03 -2.36455584e-03 6.09171018e-03 -2.01323419e-03
      4.35386319e-03 7.67855890e-05 2.42382451e-03 8.02142429e-04
      -1.49086540e-04 2.25238944e-03 -9.64850304e-04 1.64424698e-03
      2.91992590e-04 -2.26607358e-06 2.18067900e-04 -2.36153719e-03
      1.00709265e-03 -1.40332547e-03 2.85244285e-04 -1.69902341e-03
      7.47641898e-04 6.36539597e-04 3.11624631e-03 6.18002610e-04
      6.68037077e-03 -7.76578439e-04 1.41869576e-04 -8.52344907e-04
      -3.19826719e-03 -1.56376173e-03 -4.50278120e-03 -2.77044484e-03
      -5.46432100e-03 -2.22826912e-03 -6.21431554e-03 -2.23054667e-03
      1.88703416e-04 -3.34704830e-03 -2.29564994e-05 -5.24799433e-03
      1.49162801e-03 -6.04609773e-03 1.56766630e-03 -5.06435707e-03
      1.59861881e-03 -2.08325777e-03 -1.32321939e-03 7.04929698e-04
      -1.46095327e-03 1.37465284e-03 -1.49280159e-03 2.19739135e-03
      -1.23693724e-03 2.77461531e-03 -7.50844018e-04 3.35111661e-04
      -2.74616294e-04 2.92886980e-04 -1.05208973e-03 9.87215899e-04
      -9.37015750e-04 -1.61167718e-05 -7.69790495e-04 -6.78611686e-04
      -2.05419445e-03 1.19597593e-03 -9.86126368e-04 -1.73748529e-03
      -6.89440858e-05 -8.31605925e-04 8.48236319e-04 3.25539662e-03
      -7.31439097e-04 2.89364136e-03 -2.86350329e-03 1.92214618e-03
      -1.56752882e-03 1.51327334e-03 -6.10674033e-04 -2.54189014e-03
      5.01699746e-04 -4.35559638e-03 9.41227539e-04 -1.62576954e-03
      2.00640364e-03 2.43693095e-04 -4.03249978e-05 1.74839702e-03
      -1.67419307e-03 -1.64225639e-03 -1.58291019e-03 -1.84024707e-03
      -5.70217730e-04 -2.56641721e-03 -9.46189743e-04 -1.84024707e-03
      4.09569970e-04 -2.53458112e-03 1.32480008e-03 -2.68245605e-03
      1.44584489e-03 -4.08057868e-03 1.17459300e-03 4.61901305e-03
      -4.96366520e-05 9.59339645e-03 -6.11384457e-04 1.11433249e-02
      -1.35705166e-03 1.04808342e-02 -2.64690560e-03 7.22479075e-03
      -1.16210329e-04 -1.06381823e-03 -1.21931627e-03 -1.76373971e-04
      -3.15530837e-04 -1.44538644e-04 4.09569970e-04 -1.05041906e-03
      -2.18043060e-04 -2.73187272e-03 -4.96366520e-05 8.72843340e-03
      -1.13614416e-03 8.67621507e-03 -2.29671109e-03 8.53847247e-03</_>
    <_>
      -2.48347060e-04 -8.24446382e-04 -9.54070129e-04 -9.42454208e-04
      -1.73022458e-03 -1.10652111e-03 -2.50643888e-03 -1.42134354e-03
      -2.97477772e-03 -1.38879125e-03 -3.11502581e-03 -1.49786018e-03
      -2.64469697e-03 -1.81336061e-03 -2.50619859e-03 -1.90760905e-03
      -1.08993740e-03 -1.56897272e-03 -5.31680307e-05 -8.57649662e-04
      1.13056693e-03 -8.48199066e-04 2.30819662e-03 -7.95483240e-04
      2.99202395e-03 -8.22836475e-04 2.57909764e-03 -5.18615765e-04
      2.06478825e-03 -3.80390469e-04 2.58943997e-03 2.21868322e-04
      3.10908468e-03 -1.79830502e-04 -2.20880471e-03 8.26644187e-04
      -1.28407951e-03 1.45722216e-03 -1.02439453e-03 1.88605883e-03
      -7.20122596e-04 2.33527482e-03 5.76018720e-05 2.16851011e-03
      -5.62756904e-04 1.21080515e-03 4.07258747e-04 8.07647535e-04
      1.41861092e-03 3.32333933e-04 2.44410126e-03 1.21629339e-04
      3.45503469e-03 6.42174098e-04 -4.74583736e-04 1.66277878e-03
      -7.62330776e-04 2.57248827e-03 -1.10518304e-03 3.64825409e-03
      -1.14063814e-03 4.48252726e-03 -1.80933415e-03 3.31835612e-03
      -1.60113082e-03 3.36930389e-03 -8.17746739e-04 3.91504867e-03
      2.92995421e-04 3.20324698e-03 8.74868885e-04 2.99093779e-03
      -1.91369432e-03 1.39999879e-03 -1.30716374e-03 2.09136168e-03
      -7.95976084e-04 2.61106784e-03 -2.90866767e-04 1.80434261e-03
      -8.22014583e-04 1.34500221e-03 -1.34261942e-03 1.02211093e-03
      3.02082946e-04 1.37576181e-03 1.11484318e-03 1.83957454e-03
      9.44961677e-04 1.55213824e-03 1.71893067e-03 8.76015227e-04
      1.24319736e-03 7.85564363e-04 9.18027130e-04 9.62419552e-04
      -3.39569850e-03 -2.33806064e-03 -1.99113204e-03 1.57681212e-03
      -1.28293503e-03 2.43895454e-03 -1.21439072e-04 2.85271415e-03
      4.85089811e-04 2.28231400e-03 2.36330344e-03 4.51670814e-04
      5.04376972e-03 -2.74086115e-03 2.34308769e-03 -3.31955659e-03
      9.69342189e-04 -3.81254917e-03 1.30543674e-04 -3.46969953e-03
      -8.64896399e-04 -3.50515475e-03 -1.71893567e-03 -3.02132103e-03
      -3.35976388e-03 -1.65091443e-03 -1.60113082e-03 1.73884945e-03
      -3.13533441e-04 1.65292260e-03 9.69342189e-04 1.25459710e-03
      4.85708099e-03 -2.27184780e-03 1.27673941e-03 -2.96216644e-03
      -3.55136435e-05 -2.67914240e-03 -1.14625506e-03 -2.79611070e-03</_>
    <_>
      -3.07035190e-03 7.27075152e-03 -1.98917580e-03 5.02683176e-03
      -2.71595619e-03 2.33500637e-03 -1.29873166e-03 5.82161127e-04
      -1.30386918e-03 -5.75724291e-04 -1.37490965e-03 -1.80042803e-03
      -1.40096317e-03 -1.28889654e-03 -2.24907277e-03 -1.12173671e-03
      -8.82584602e-04 -1.01281737e-03 1.24404160e-03 7.77998997e-04
      2.10514851e-03 3.72918812e-03 1.49270613e-03 4.36314521e-03
      1.91051688e-03 3.75708379e-03 9.12805030e-04 3.92743293e-03
      3.03500390e-04 4.29290254e-03 -2.39142892e-03 3.88268405e-03
      -4.65203123e-03 5.50395530e-03 3.70060164e-03 -2.70834239e-03
      3.00970511e-03 -6.01253530e-04 -7.60390423e-04 1.15651746e-04
      -4.13689064e-03 7.50124920e-04 -5.65154804e-03 -6.27590576e-04
      3.74440663e-03 -3.42771318e-03 3.05706519e-04 -4.51877853e-03
      -1.46037026e-03 -5.76366810e-03 -4.04639542e-03 -5.83605841e-03
      -5.43441391e-03 -6.65533729e-03 -3.38204554e-03 1.41346443e-03
      -1.43651990e-03 2.77430424e-03 2.98229483e-04 3.18676140e-03
      2.08143634e-03 3.24574672e-03 1.67366280e-03 4.02379083e-03
      1.50106172e-03 3.23736970e-03 1.16087170e-03 2.45720847e-03
      7.14901311e-04 9.41335165e-04 1.69312465e-03 1.47795456e-03
      7.61518837e-04 3.41404160e-03 -3.45452718e-05 6.69573899e-04
      6.52848103e-04 -1.91262239e-04 3.62919498e-04 3.64072458e-03
      6.13892276e-04 4.26990446e-03 3.56016390e-04 3.58769717e-03
      -2.15062522e-03 2.25940836e-03 -2.66142003e-03 -1.72507053e-03
      -1.17404049e-03 -3.40540800e-03 -1.98065490e-03 8.58317770e-04
      -3.32395721e-04 1.15095207e-03 -1.75667542e-03 2.29762355e-03
      -3.61860322e-04 -1.79759832e-03 -3.62146791e-04 -2.62669963e-03
      -3.73557450e-05 -3.06250458e-03 1.30139187e-03 -4.37139906e-03
      3.20614502e-03 -5.03626373e-03 3.93057475e-03 -4.43441980e-03
      2.74993200e-03 -3.04302364e-03 2.45544803e-03 -6.13676291e-03
      2.35994020e-03 -8.46043322e-03 8.38255975e-04 -7.36976275e-03
      -1.13828317e-03 -6.98815286e-03 -8.37608357e-04 -5.43698622e-03
      -4.44710604e-04 -1.29664037e-03 3.05724607e-05 -3.76724498e-03
      1.30139187e-03 -4.48582927e-03 3.35844746e-03 -4.17445321e-03
      4.37157508e-03 -3.63201671e-03 1.77811098e-03 -5.91972889e-03
      8.02422059e-04 -4.52603726e-03 -7.15892413e-04 -4.03430313e-03</_>
    <_>
      1.92716764e-03 5.34393452e-03 2.82881735e-03 3.87298525e-03
      3.21204728e-03 1.82196556e-03 4.07540612e-03 7.29496242e-04
      5.42612141e-03 -4.33114328e-04 5.46001690e-03 -9.74589959e-04
      3.79607384e-03 9.20534832e-04 1.65431562e-03 2.71734665e-03
      5.22789371e-04 3.18697374e-03 2.45646748e-04 4.17008158e-03
      -1.81411754e-03 4.10318701e-03 -3.88909713e-03 2.68875738e-03
      -3.52220028e-03 7.97371264e-04 -2.34752125e-03 1.02255109e-03
      -9.19250771e-04 1.27389817e-03 -9.14243807e-04 1.74251545e-04
      -1.95644214e-03 -7.95320433e-04 4.32763388e-03 -3.43602872e-03
      3.09991580e-03 -1.35773828e-03 2.01768526e-05 -7.26897793e-04
      -2.56892038e-03 -1.39243703e-03 -4.73845890e-03 -2.53273454e-03
      -1.33590610e-03 -3.79397767e-03 -3.42331990e-03 -6.31989772e-03
      -3.27777932e-03 -6.82767201e-03 -4.65158885e-03 -5.52617433e-03
      -4.73465724e-03 -5.49579319e-03 -2.41018576e-03 5.08734374e-04
      -1.04781671e-03 1.93500344e-03 1.58610274e-04 3.61084705e-03
      1.52754586e-03 4.72573331e-03 6.89315435e-04 2.43179896e-03
      7.45681173e-04 2.98642460e-03 1.10886421e-03 3.71799013e-03
      1.02996943e-03 2.56609498e-03 1.21321483e-03 2.08472673e-04
      5.19088353e-04 1.57630711e-03 -2.44204799e-04 -2.85292417e-03
      1.76009315e-03 -3.46591859e-03 1.30741519e-03 2.06567347e-03
      9.89946770e-04 2.68741604e-03 -1.17669486e-04 2.17395858e-03
      -2.77084275e-03 -1.25094375e-05 -3.49579589e-03 -5.39245177e-03
      -1.70448457e-03 -7.36587169e-03 -1.51673087e-03 -2.68927333e-03
      -2.33425541e-04 -9.61642538e-04 -1.78624911e-03 -1.75574969e-04
      4.08782344e-03 4.08449024e-03 7.44923716e-04 -1.29990862e-03
      1.98984824e-04 -3.27717396e-03 5.69761498e-04 -4.05003643e-03
      6.64858788e-04 -4.94756876e-03 2.81189394e-04 -3.54619045e-03
      -2.20240210e-03 7.96267472e-04 -1.95644025e-04 2.97990371e-03
      9.34473646e-04 4.42297757e-03 1.10565266e-03 5.27174957e-03
      6.88441622e-04 5.45557821e-03 4.37871582e-04 4.48419852e-03
      3.95270437e-03 3.52251460e-03 4.09179949e-04 -1.49953435e-03
      8.84771463e-04 -2.47316994e-03 8.15808889e-04 -2.50184513e-03
      -2.20509782e-03 9.91099281e-04 3.62616964e-04 3.35033820e-03
      7.43127544e-04 3.85226589e-03 1.58027178e-04 4.54252213e-03</_>
    <_>
      -1.04590587e-03 2.42534079e-04 -1.30640389e-03 1.27212450e-04
      -1.90100400e-03 -2.29707744e-04 -2.06090650e-03 -7.17301911e-04
      -2.09713564e-03 -5.37508691e-04 -1.97343621e-03 -7.20019219e-04
      -1.58923666e-03 -8.78720952e-04 -1.90543418e-03 -9.61604179e-04
      -9.26348963e-04 -8.38849286e-04 3.17692349e-04 7.01966172e-04
      1.04360410e-03 1.89573807e-03 1.09671522e-03 2.01340206e-03
      1.28247612e-03 7.87804602e-04 1.44906656e-03 8.59887805e-04
      1.63341290e-03 4.93775064e-04 1.25921983e-03 3.11978220e-04
      5.22145478e-04 4.01966390e-05 -1.08904869e-03 8.68290605e-04
      -3.95971947e-05 1.87416095e-03 -4.19448566e-04 2.27504759e-03
      -5.17807726e-04 2.55738408e-03 -1.11907990e-04 2.11710064e-03
      -5.19696681e-04 6.77791424e-04 -1.93109863e-05 -3.15339072e-04
      8.52181693e-04 -5.18680463e-05 1.19555544e-03 4.71402309e-04
      1.38921733e-03 1.16659445e-03 -9.81780002e-04 1.51447835e-03
      -2.69392709e-04 3.53292259e-03 -2.76554783e-04 5.25011355e-03
      1.66723155e-04 7.05274800e-03 -1.58606935e-03 4.86319000e-03
      -8.92830431e-04 5.10641653e-03 6.68689463e-05 5.80463232e-03
      1.55976531e-03 4.83149802e-03 2.49896431e-03 3.87505977e-03
      -1.66535901e-03 1.71088031e-03 -1.29041355e-03 7.56984460e-04
      -2.41309419e-04 8.42132722e-04 3.28831637e-04 1.92345271e-03
      -1.60864511e-04 1.57329836e-03 -1.09707029e-03 1.30539679e-03
      -6.27494417e-04 9.67700325e-04 2.62287766e-04 -2.09615668e-04
      1.02725171e-03 -7.70624261e-04 1.57198391e-03 1.14264352e-04
      1.31852040e-03 2.80330161e-04 5.20246394e-04 1.64313198e-04
      -1.61800440e-03 1.78304545e-04 -1.29653350e-03 1.22568826e-03
      -1.18103647e-03 1.56267406e-03 3.85752122e-04 1.48736930e-03
      1.37754355e-03 5.98220504e-04 2.26268615e-03 -8.39782180e-04
      4.15036315e-03 -1.49149657e-03 2.77951197e-03 -4.40909527e-03
      2.09639850e-03 -5.77669078e-03 1.23625644e-03 -5.08509157e-03
      -1.56715847e-04 -5.02672605e-03 -9.20692866e-04 -3.78456782e-03
      -1.72051659e-03 -8.97209757e-05 -1.08068704e-03 7.46308302e-04
      3.85752122e-04 3.56700330e-04 1.97376474e-03 -1.96938403e-04
      4.62496560e-03 -1.72281871e-03 2.24614609e-03 -4.16361773e-03
      6.82087324e-04 -4.05302132e-03 -9.29848698e-04 -3.58862034e-03</_>
    <_>
      5.59597835e-03 -2.47829105e-03 4.48174123e-03 -1.73692114e-03
      4.17234702e-03 -1.59244728e-03 3.57238553e-03 -1.21247629e-03
      3.52012413e-03 -6.95905532e-04 3.26217478e-03 -5.08165627e-04
      2.03083688e-03 5.59934240e-04 5.01203991e-04 1.82893244e-03
      -4.88496909e-04 3.08204186e-03 -1.47312658e-03 3.21167870e-03
      -2.19485001e-03 2.10201181e-03 -1.58673234e-03 1.20405469e-03
      1.93622818e-05 6.04386034e-04 1.71875348e-03 9.81481135e-05
      2.83715245e-03 -1.59600349e-05 3.82777746e-03 -5.01758885e-04
      4.40355809e-03 -1.71021186e-03 3.08525609e-03 -1.72093045e-03
      2.95519736e-03 -1.60721375e-03 2.05183006e-03 -1.55394210e-03
      1.67668180e-03 -1.90093310e-03 1.97150931e-03 -3.04420781e-03
      -6.36123354e-04 -2.26540258e-03 -6.69814472e-04 -1.50890776e-03
      9.26779874e-04 -8.53704871e-04 5.51587611e-04 -2.74259583e-05
      1.50903419e-03 1.02018157e-03 1.57779339e-03 -1.49141229e-03
      7.18951691e-04 -1.05226552e-03 3.24813183e-04 -7.44090823e-04
      9.05369088e-05 -4.01290396e-04 -5.63439331e-04 -1.79350062e-03
      -5.60369575e-04 -8.30541074e-04 -2.44008770e-04 -1.08293294e-04
      2.56509578e-04 -2.61722918e-04 1.05606210e-04 -1.19701470e-03
      3.16400337e-03 -1.88572763e-03 3.65423015e-03 -2.13550031e-03
      3.43981152e-03 -2.39866902e-03 2.50704191e-03 -2.14158325e-03
      3.31579777e-03 -2.69613252e-03 3.25048552e-03 -2.63261585e-03
      1.19647698e-03 -1.62073586e-03 1.22721412e-03 -6.84435887e-04
      9.38900805e-04 -1.27100106e-03 1.32833980e-03 -9.17110185e-04
      9.51027265e-04 -1.27964467e-03 1.32274674e-03 -1.80611515e-03
      2.17815745e-03 4.12850786e-04 4.73278596e-05 -4.06990497e-04
      -8.29295081e-04 -2.34456558e-04 -1.36737688e-03 -2.34869396e-04
      -1.77969795e-03 3.11905838e-04 -2.41642515e-03 9.71361354e-04
      -3.76889459e-03 2.48578400e-03 -2.52054469e-03 5.47117461e-03
      -2.14109640e-03 6.50589168e-03 -1.99715095e-03 6.24272320e-03
      -1.38343242e-03 6.19260408e-03 -6.80540630e-04 3.99472844e-03
      2.15141266e-03 4.12850786e-04 -3.31304735e-04 -3.79736448e-04
      -1.90853328e-03 -5.31827158e-04 -1.80215295e-03 2.50042067e-04
      -4.13108012e-03 2.45811767e-03 -2.20205146e-03 5.77375712e-03
      -1.29173917e-03 5.01178205e-03 -7.53657543e-04 4.94176289e-03</_>
    <_>
      9.75680538e-04 -2.59436225e-03 1.12048510e-04 -2.03553541e-03
      -8.16931948e-04 -1.31387683e-03 -1.60240347e-03 -1.33245683e-03
      -2.26301444e-03 -1.09521917e-03 -2.14420375e-03 -1.36590155e-03
      -2.11192784e-03 -1.79419329e-03 -2.59850034e-03 -1.20681839e-03
      -1.74262049e-03 -8.29052296e-04 -1.05841481e-03 -4.80336530e-05
      -8.02188079e-05 5.09198522e-04 1.38070923e-03 8.62653775e-04
      2.39510788e-03 4.47928323e-04 2.92501412e-03 4.60197101e-04
      3.31098586e-03 -2.80307053e-04 3.08825169e-03 -5.00970345e-04
      3.14735970e-03 -1.21254276e-03 -4.23085985e-05 2.22449354e-03
      8.37365165e-04 2.01598532e-03 1.82358769e-03 2.42405105e-03
      2.97232345e-03 2.13860185e-03 3.69622046e-03 2.20476440e-03
      -1.93295663e-03 2.14211200e-03 -4.57672926e-04 2.06478313e-03
      1.10962265e-03 2.89838505e-03 2.39532255e-03 3.40606971e-03
      3.30146146e-03 4.39814851e-03 7.22208642e-04 1.01126730e-03
      -1.36595936e-05 2.11739074e-03 -4.49093553e-04 3.29828705e-03
      -1.14762713e-03 4.61766776e-03 -2.17404682e-03 2.66906992e-03
      -1.69719721e-03 3.38875619e-03 -6.87280786e-04 3.97557160e-03
      6.02779386e-04 3.60806636e-03 1.08677626e-03 2.94591626e-03
      2.82792753e-04 -2.50655671e-06 1.12146558e-03 8.11729755e-04
      1.03163766e-03 5.22023765e-04 1.45806570e-03 1.50965439e-04
      1.08671386e-03 -2.94435886e-04 1.10209896e-03 -2.36865497e-04
      5.63306443e-04 6.55295036e-04 1.50522974e-03 1.43601233e-03
      1.42044970e-03 1.63811259e-03 2.41130521e-03 6.85061794e-04
      1.28843635e-03 2.29321377e-05 1.20120519e-03 5.72496283e-05
      -2.44099484e-03 -1.02922996e-03 -1.52896857e-03 1.31212245e-03
      -1.60335470e-03 2.48190109e-03 -9.58076736e-04 2.78927246e-03
      -1.05251951e-04 2.49263085e-03 3.00479325e-04 1.49987719e-03
      2.24103872e-03 -8.43132439e-04 3.06191359e-04 -2.79491697e-03
      -7.08402658e-05 -3.33406939e-03 -4.73216467e-04 -3.33406939e-03
      -1.06597319e-03 -3.61171598e-03 -1.37686310e-03 -2.91561335e-03
      -2.61598942e-03 -1.04644045e-03 -1.67779741e-03 1.28417811e-03
      -9.53398587e-04 1.52448926e-03 2.46038762e-05 1.21834036e-03
      1.92124234e-03 -7.96291628e-04 3.80612793e-04 -3.11647682e-03
      -8.05970107e-04 -3.00562615e-03 -1.22166879e-03 -3.12252785e-03</_>
    <_>
      -2.25698156e-03 -9.81799327e-04 -2.46468722e-03 -6.17491954e-04
      -2.86969543e-03 -1.51826505e-04 -3.01254587e-03 -5.43040769e-05
      -3.09628900e-03 2.67259544e-04 -2.62635504e-03 3.81331105e-04
      -1.55462197e-03 -1.03476195e-04 -7.12478242e-04 -6.37471618e-04
      1.97370187e-04 -1.17347739e-03 8.48687720e-04 -6.73601404e-04
      1.34132721e-03 -3.93422524e-04 2.04751594e-03 -6.80168960e-05
      1.91425439e-03 -3.92067159e-04 1.68619864e-03 -1.65764795e-04
      1.17957639e-03 -1.98632028e-04 9.70702851e-04 9.33250194e-05
      7.96101755e-04 3.27072310e-04 -1.58827286e-03 1.81673432e-03
      -6.31808769e-04 1.61364442e-03 1.26174797e-04 1.48191932e-03
      1.17755670e-03 1.59335241e-03 2.24258634e-03 1.95568940e-03
      -2.88862211e-04 1.56514870e-03 4.95735672e-04 1.29460078e-03
      1.29369460e-03 1.49815029e-03 2.02592276e-03 1.51057006e-03
      2.33138865e-03 2.13102857e-03 6.50219037e-04 4.39398922e-04
      5.99499850e-04 9.48340341e-04 3.35690187e-04 1.42165483e-03
      3.00062791e-04 1.97362481e-03 -4.85402008e-04 1.74838235e-03
      -1.39276934e-04 1.63040042e-03 3.00062791e-04 1.79297046e-03
      1.00486493e-03 1.64738810e-03 1.44420459e-03 1.63499499e-03
      -8.74514866e-04 5.36693726e-04 -3.95072246e-04 1.35217304e-03
      -2.03068077e-04 1.34167797e-03 2.87443079e-04 3.60442500e-04
      -1.68883416e-04 2.02256968e-04 -1.80783216e-04 2.31391808e-04
      5.86047827e-04 2.64043105e-04 1.17734354e-03 1.20450906e-03
      1.14116340e-03 1.33335032e-03 1.32128806e-03 6.62257196e-04
      9.49002511e-04 3.47538706e-04 1.00382243e-03 5.57905478e-05
      -1.42542727e-03 -9.25204193e-04 -8.72901146e-05 9.32051393e-04
      1.19938508e-04 1.46214059e-03 7.14083901e-04 1.64169667e-03
      9.50083777e-04 1.33176625e-03 1.66092161e-03 4.99681919e-04
      3.18788015e-03 -1.09496457e-03 1.79708737e-03 -3.27959610e-03
      1.35125639e-03 -4.58577694e-03 1.13550527e-03 -4.45126463e-03
      6.34498603e-04 -4.41117957e-03 1.88666221e-04 -3.31338705e-03
      -1.47557759e-03 -1.09580043e-03 -9.35801108e-06 6.05818757e-04
      7.24578975e-04 6.33301446e-04 1.20740163e-03 4.41715209e-04
      3.20430333e-03 -1.12939475e-03 1.47286407e-03 -3.22791259e-03
      7.40123854e-04 -3.49337491e-03 2.66599527e-04 -3.22510605e-03</_></support_vectors>
  <uncompressed_sv_total>109</uncompressed_sv_total>
  <uncompressed_support_vectors>
    <_>
      4.90454463e-43 4.90454463e-43 4.90454463e-43 4.90454463e-43
      4.90454463e-43 4.90454463e-43 4.90454463e-43 4.90454463e-43
      4.90454463e-43 4.90454463e-43 4.90454463e-43 4.90454463e-43
      4.90454463e-43 4.90454463e-43 4.90454463e-43 4.90454463e-43
      4.90454463e-43 4.90454463e-43 4.90454463e-43 4.90454463e-43
      4.90454463e-43 4.90454463e-43 4.90454463e-43 4.90454463e-43
      4.90454463e-43 4.90454463e-43 4.90454463e-43 4.90454463e-43
      4.90454463e-43 4.90454463e-43 4.90454463e-43 4.90454463e-43
      4.90454463e-43 4.90454463e-43 4.90454463e-43 4.90454463e-43
      4.90454463e-43 4.90454463e-43 4.90454463e-43 4.90454463e-43
      4.90454463e-43 4.90454463e-43 4.90454463e-43 4.90454463e-43
      4.90454463e-43 4.90454463e-43 4.90454463e-43 4.90454463e-43
      5.60519386e-43 5.60519386e-43 5.60519386e-43 5.60519386e-43
      5.60519386e-43 5.60519386e-43 5.60519386e-43 5.60519386e-43
      5.60519386e-43 5.60519386e-43 5.60519386e-43 5.60519386e-43
      5.60519386e-43 5.60519386e-43 5.60519386e-43 5.60519386e-43
      5.60519386e-43 5.60519386e-43 5.60519386e-43 5.60519386e-43
      5.60519386e-43 5.60519386e-43 5.60519386e-43 5.60519386e-43
      5.60519386e-43 5.60519386e-43 5.60519386e-43 5.60519386e-43
      5.60519386e-43 5.60519386e-43 5.60519386e-43 5.60519386e-43
      5.60519386e-43 5.60519386e-43 5.60519386e-43 5.60519386e-43
      5.60519386e-43 5.60519386e-43 5.60519386e-43 5.60519386e-43
      5.60519386e-43 5.60519386e-43 5.60519386e-43 5.60519386e-43
      5.60519386e-43 5.60519386e-43 5.60519386e-43 5.60519386e-43
      5.60519386e-43 5.60519386e-43 6.30584309e-43 6.30584309e-43
      6.30584309e-43 6.30584309e-43 6.30584309e-43 6.30584309e-43
      6.30584309e-43 6.30584309e-43 6.30584309e-43 6.30584309e-43
      6.30584309e-43 6.30584309e-43 6.30584309e-43 6.30584309e-43
      6.30584309e-43 6.30584309e-43 6.30584309e-43 6.30584309e-43
      6.30584309e-43 6.30584309e-43 6.30584309e-43 6.30584309e-43
      6.30584309e-43 6.30584309e-43 6.30584309e-43 6.30584309e-43
      6.30584309e-43 6.30584309e-43 6.30584309e-43 6.30584309e-43
      6.30584309e-43 6.30584309e-43 6.30584309e-43 6.30584309e-43
      6.30584309e-43 6.30584309e-43 6.30584309e-43 6.30584309e-43</_>
    <_>
      6.30584309e-43 6.30584309e-43 6.30584309e-43 6.30584309e-43
      6.30584309e-43 6.30584309e-43 6.30584309e-43 6.30584309e-43
      6.30584309e-43 6.30584309e-43 6.30584309e-43 6.30584309e-43
      1.17475731e+02 3.02912628e+02 1.55339813e+02 3.17475739e+02
      1.98058258e+02 3.18446625e+02 2.32038849e+02 3.09708740e+02
      2.51456314e+02 2.89320404e+02 2.59223297e+02 2.58252441e+02
      2.62135925e+02 2.22330109e+02 2.62135925e+02 1.88349518e+02
      2.64077667e+02 1.56310684e+02 2.64077667e+02 1.25242722e+02
      2.61165070e+02 9.41747589e+01 5.24271851e+01 6.21359253e+01
      7.08737869e+01 4.17475739e+01 9.90291290e+01 3.49514580e+01
      1.27184471e+02 3.59223328e+01 1.54368942e+02 4.56310692e+01
      1.89320389e+02 4.17475739e+01 2.09708740e+02 3.00970879e+01
      2.32038849e+02 2.42718449e+01 2.54368942e+02 2.81553402e+01
      2.65048553e+02 4.56310692e+01 1.77669907e+02 7.37864075e+01
      1.82524277e+02 9.41747589e+01 1.87378647e+02 1.13592239e+02
      1.93203888e+02 1.33980591e+02 1.52427185e+02 1.66990295e+02
      1.70873795e+02 1.68932037e+02 1.88349518e+02 1.70873795e+02
      2.01941757e+02 1.66990295e+02 2.14563110e+02 1.63106796e+02
      8.05825272e+01 9.02912674e+01 9.70873795e+01 7.96116562e+01
      1.14563110e+02 7.66990280e+01 1.32038834e+02 8.64077682e+01
      1.17475731e+02 9.02912674e+01 9.90291290e+01 9.32038879e+01
      2.03883499e+02 8.34951477e+01 2.22330109e+02 7.18446655e+01
      2.38834961e+02 7.08737869e+01 2.51456314e+02 7.96116562e+01
      2.40776703e+02 8.34951477e+01 2.23300980e+02 8.44660187e+01
      1.33009720e+02 2.29126221e+02 1.53398056e+02 2.08737869e+02
      1.73786407e+02 1.98058258e+02 1.88349518e+02 2.01941757e+02
      2.03883499e+02 1.97087387e+02 2.23300980e+02 2.07766998e+02
      2.36893204e+02 2.25242722e+02 2.24271851e+02 2.36893204e+02
      2.07766998e+02 2.42718460e+02 1.92233017e+02 2.44660202e+02
      1.75728165e+02 2.43689331e+02 1.55339813e+02 2.38834961e+02
      1.42718445e+02 2.28155350e+02 1.73786407e+02 2.20388351e+02
      1.89320389e+02 2.20388351e+02 2.03883499e+02 2.19417480e+02
      2.28155350e+02 2.24271851e+02 2.04854370e+02 2.19417480e+02
      1.90291275e+02 2.21359222e+02 1.75728165e+02 2.20388351e+02</_>
    <_>
      1.26213598e+01 1.08737869e+02 1.74757290e+01 1.42718445e+02
      2.42718449e+01 1.78640778e+02 3.30097084e+01 2.15533981e+02
      4.85436897e+01 2.48543701e+02 7.18446655e+01 2.75728149e+02
      1.02912621e+02 2.98058258e+02 1.40776703e+02 3.15533997e+02
      1.82524277e+02 3.18446625e+02 2.20388351e+02 3.12621368e+02
      2.45631073e+02 2.95145630e+02 2.58252441e+02 2.66019440e+02
      2.64077667e+02 2.31067963e+02 2.65048553e+02 1.96116516e+02
      2.66019440e+02 1.61165054e+02 2.66019440e+02 1.26213593e+02
      2.64077667e+02 9.12621384e+01 4.27184486e+01 6.21359253e+01
      6.01941757e+01 3.98058281e+01 8.83495178e+01 3.20388374e+01
      1.17475731e+02 3.39805832e+01 1.44660202e+02 4.36893234e+01
      1.82524277e+02 3.98058281e+01 2.03883499e+02 2.71844673e+01
      2.28155350e+02 2.13592243e+01 2.51456314e+02 2.52427197e+01
      2.64077667e+02 4.56310692e+01 1.68932037e+02 7.08737869e+01
      1.71844666e+02 9.12621384e+01 1.75728165e+02 1.10679611e+02
      1.79611649e+02 1.32038834e+02 1.40776703e+02 1.66990295e+02
      1.58252426e+02 1.67961166e+02 1.75728165e+02 1.69902924e+02
      1.90291275e+02 1.66990295e+02 2.04854370e+02 1.64077667e+02
      7.08737869e+01 8.64077682e+01 8.73786469e+01 7.57281570e+01
      1.05825249e+02 7.28155365e+01 1.22330101e+02 8.34951477e+01
      1.07766991e+02 8.64077682e+01 8.83495178e+01 8.83495178e+01 200.
      8.05825272e+01 2.16504868e+02 6.79611664e+01 2.33980591e+02
      6.69902954e+01 2.46601944e+02 7.66990280e+01 2.35922333e+02
      8.05825272e+01 2.18446609e+02 8.15533981e+01 1.24271851e+02
      2.27184479e+02 1.41747574e+02 2.07766998e+02 1.61165054e+02
      1.97087387e+02 1.75728165e+02 2.01941757e+02 1.91262146e+02
      1.96116516e+02 2.10679611e+02 2.06796127e+02 2.28155350e+02
      2.24271851e+02 2.12621368e+02 2.34951462e+02 1.96116516e+02
      2.38834961e+02 1.79611649e+02 2.40776703e+02 1.64077667e+02
      2.40776703e+02 1.44660202e+02 2.35922333e+02 1.32038834e+02
      2.26213593e+02 1.62135925e+02 2.19417480e+02 1.76699036e+02
      2.19417480e+02 1.91262146e+02 2.18446609e+02 2.19417480e+02
      2.23300980e+02 1.93203888e+02 2.17475739e+02 1.77669907e+02
      2.19417480e+02 1.63106796e+02 2.18446609e+02</_>
    <_>
      2.66129036e+01 1.07258064e+02 2.90322571e+01 1.33870972e+02
      3.38709679e+01 1.60483871e+02 3.95161285e+01 1.87903229e+02
      5.16129036e+01 2.16935486e+02 7.25806427e+01 2.40322586e+02
      9.91935501e+01 2.59677429e+02 1.32258057e+02 275. 1.67741928e+02
      2.78225800e+02 200. 2.72580658e+02 2.23387100e+02 2.57258057e+02
      2.42741928e+02 2.37903229e+02 2.53225800e+02 2.11290314e+02
      2.54838715e+02 1.80645157e+02 2.56451599e+02 1.51612900e+02
      2.58064514e+02 1.22580643e+02 2.58064514e+02 9.43548355e+01
      5.08064499e+01 6.53225784e+01 6.69354858e+01 4.83870964e+01
      9.11290283e+01 4.27419357e+01 1.15322578e+02 4.43548393e+01
      1.38709671e+02 5.32258072e+01 1.66935486e+02 50. 1.88709671e+02
      3.79032249e+01 2.13709671e+02 3.22580643e+01 2.37096771e+02
      3.95161285e+01 2.51612900e+02 5.88709679e+01 1.54838715e+02 75.
      1.57258057e+02 9.27419357e+01 1.59677414e+02 1.09677422e+02
      1.62096771e+02 1.28225800e+02 1.33870972e+02 1.55645157e+02
      1.46774185e+02 1.57258057e+02 1.60483871e+02 1.58064514e+02
      1.72580643e+02 1.56451614e+02 1.84677414e+02 1.54032257e+02
      7.58064499e+01 8.95161285e+01 8.87096786e+01 8.14516144e+01
      1.04032257e+02 7.90322571e+01 1.17741936e+02 8.62903214e+01
      1.04838707e+02 8.95161285e+01 8.95161285e+01 9.11290283e+01
      1.88709671e+02 8.30645142e+01 2.04032257e+02 75. 2.20161285e+02
      75. 2.31451614e+02 8.22580643e+01 2.20161285e+02 8.54838715e+01
      2.04838715e+02 8.54838715e+01 1.16129028e+02 2.04838715e+02
      1.32258057e+02 1.89516129e+02 1.48387100e+02 1.79838715e+02
      1.60483871e+02 1.83870972e+02 1.72580643e+02 1.79838715e+02
      1.89516129e+02 1.88709671e+02 2.05645157e+02 2.02419357e+02
      1.90322586e+02 2.12096771e+02 175. 2.15322586e+02 1.61290314e+02
      2.16129028e+02 1.48387100e+02 2.15322586e+02 1.32258057e+02
      2.12903229e+02 1.22580643e+02 2.03225800e+02 1.48387100e+02
      1.97580643e+02 1.60483871e+02 1.98387100e+02 1.73387100e+02
      1.97580643e+02 1.99193542e+02 2.01612900e+02 1.73387100e+02
      1.97580643e+02 1.60483871e+02 1.98387100e+02 1.48387100e+02
      1.97580643e+02</_>
    <_>
      5.80645180e+00 1.22903229e+02 9.67741966e+00 1.56774200e+02
      1.54838715e+01 1.91612915e+02 2.22580643e+01 2.25483871e+02
      3.48387108e+01 2.60322601e+02 5.90322609e+01 2.86451630e+02
      9.09677429e+01 3.07741943e+02 1.26774200e+02 3.24193573e+02
      1.66451614e+02 3.28064514e+02 2.04193558e+02 3.21290344e+02
      2.33225815e+02 3.02903229e+02 2.56451630e+02 2.78709686e+02
      2.71935486e+02 2.45806458e+02 2.79677429e+02 2.10967743e+02
      2.84516144e+02 1.76129044e+02 2.87419373e+02 1.42258072e+02
      2.85483887e+02 1.07419357e+02 3.87096786e+01 7.06451645e+01
      5.80645180e+01 5.22580643e+01 8.51612930e+01 4.74193573e+01
      1.13225807e+02 5.03225822e+01 1.39354843e+02 5.90322609e+01
      1.79032257e+02 5.70967751e+01 2.03225815e+02 4.54838715e+01
      2.30322586e+02 3.96774216e+01 2.56451630e+02 4.74193573e+01 270.
      6.87096786e+01 1.59677429e+02 8.90322571e+01 1.62580643e+02
      1.09354843e+02 1.64516129e+02 1.29677429e+02 1.67419357e+02
      1.50967743e+02 1.33548386e+02 1.83870972e+02 1.48064514e+02
      1.85806458e+02 1.64516129e+02 1.87741943e+02 1.79032257e+02
      1.84838715e+02 1.92580658e+02 1.82903229e+02 6.67741928e+01
      1.03548393e+02 8.32258072e+01 9.38709717e+01 1.01612907e+02
      9.19354858e+01 1.18064522e+02 1.01612907e+02 1.01612907e+02
      1.06451614e+02 8.32258072e+01 1.07419357e+02 1.98387100e+02
      9.96774216e+01 2.14838715e+02 8.90322571e+01 2.33225815e+02
      8.90322571e+01 2.47741943e+02 9.77419357e+01 2.34193558e+02
      1.02580650e+02 2.16774200e+02 1.02580650e+02 1.13225807e+02
      2.41935486e+02 1.32580643e+02 2.24516129e+02 1.51935486e+02
      2.13870972e+02 1.65483871e+02 2.18709686e+02 1.79032257e+02
      2.13870972e+02 1.96451614e+02 2.23548401e+02 2.11935486e+02
      2.39032272e+02 1.96451614e+02 2.49677429e+02 180. 2.54516144e+02
      1.65483871e+02 2.56451630e+02 1.50967743e+02 2.55483871e+02
      1.31612900e+02 2.51612915e+02 1.20967743e+02 240. 1.51935486e+02
      2.33225815e+02 1.65483871e+02 2.33225815e+02 1.79032257e+02
      2.32258072e+02 2.03225815e+02 2.38064529e+02 1.78064514e+02
      2.33225815e+02 1.64516129e+02 2.35161301e+02 1.50967743e+02
      2.35161301e+02</_>
    <_>
      1.25806456e+01 1.11290329e+02 1.45161285e+01 1.45161301e+02
      1.83870964e+01 1.80967743e+02 2.51612911e+01 2.14838715e+02
      3.96774216e+01 2.50645172e+02 6.38709679e+01 2.78709686e+02
      9.48387146e+01 3.00967743e+02 1.29677429e+02 3.19354858e+02
      1.69354843e+02 3.23225830e+02 2.07096786e+02 3.16451630e+02
      2.34193558e+02 2.97096771e+02 2.57419373e+02 2.72903229e+02
      2.71935486e+02 2.41935486e+02 2.79677429e+02 2.07096786e+02
      2.85483887e+02 1.73225815e+02 2.88387115e+02 1.39354843e+02
      2.88387115e+02 1.06451614e+02 4.83870964e+01 6.48387146e+01
      6.87096786e+01 4.74193573e+01 9.58064575e+01 4.35483894e+01
      1.22903229e+02 4.83870964e+01 1.48064514e+02 5.80645180e+01
      1.83870972e+02 5.61290321e+01 2.08064529e+02 4.54838715e+01
      2.34193558e+02 4.06451607e+01 2.59354858e+02 4.83870964e+01
      2.71935486e+02 6.96774216e+01 1.68387100e+02 8.80645218e+01
      1.70322586e+02 1.08387100e+02 1.71290329e+02 1.26774200e+02
      1.73225815e+02 1.48064514e+02 1.39354843e+02 180. 1.53870972e+02
      1.81935486e+02 1.69354843e+02 1.84838715e+02 1.83870972e+02
      1.82903229e+02 1.97419357e+02 180. 7.45161285e+01 9.67741928e+01
      9.09677429e+01 8.80645218e+01 1.09354843e+02 8.70967789e+01
      1.24838715e+02 9.87096786e+01 1.09354843e+02 1.02580650e+02
      9.09677429e+01 1.02580650e+02 2.04193558e+02 9.77419357e+01
      2.20645172e+02 8.70967789e+01 2.38064529e+02 8.70967789e+01
      2.50645172e+02 9.67741928e+01 2.39032272e+02 1.02580650e+02
      2.21612915e+02 1.02580650e+02 1.19032265e+02 2.36129044e+02
      1.38387100e+02 2.20645172e+02 1.57741943e+02 2.09032257e+02
      1.70322586e+02 2.13870972e+02 1.83870972e+02 210. 2.01290329e+02
      2.20645172e+02 2.14838715e+02 2.36129044e+02 2.00322586e+02
      2.44838715e+02 1.85806458e+02 2.49677429e+02 1.69354843e+02
      2.50645172e+02 1.55806458e+02 2.50645172e+02 1.37419357e+02
      2.46774200e+02 1.26774200e+02 2.35161301e+02 1.56774200e+02
      2.28387100e+02 1.70322586e+02 2.29354843e+02 1.84838715e+02
      2.28387100e+02 2.07096786e+02 2.34193558e+02 1.83870972e+02
      2.30322586e+02 1.69354843e+02 2.31290329e+02 1.55806458e+02
      2.30322586e+02</_>
    <_>
      1.06451616e+01 1.09354843e+02 1.25806456e+01 1.44193558e+02
      1.74193554e+01 1.80967743e+02 2.61290321e+01 2.16774200e+02
      4.16129036e+01 2.51612915e+02 6.58064499e+01 2.79677429e+02
      9.77419357e+01 3.00967743e+02 1.33548386e+02 3.17419373e+02
      1.73225815e+02 3.20322601e+02 210. 3.14516144e+02 2.36129044e+02
      2.93225830e+02 2.57419373e+02 2.67096771e+02 270. 2.34193558e+02
      2.76774200e+02 1.99354843e+02 2.82580658e+02 1.66451614e+02
      2.84516144e+02 1.33548386e+02 2.83548401e+02 1.02580650e+02
      4.54838715e+01 6.67741928e+01 6.58064499e+01 4.64516144e+01
      9.38709717e+01 4.16129036e+01 1.22903229e+02 4.64516144e+01
      1.48064514e+02 5.80645180e+01 180. 5.90322609e+01 2.03225815e+02
      4.64516144e+01 2.31290329e+02 4.16129036e+01 2.56451630e+02
      5.03225822e+01 2.69032257e+02 7.25806503e+01 1.66451614e+02
      8.90322571e+01 1.69354843e+02 1.08387100e+02 1.71290329e+02
      1.27741936e+02 1.74193558e+02 1.49032257e+02 1.39354843e+02 180.
      1.54838715e+02 1.82903229e+02 1.69354843e+02 1.84838715e+02
      1.83870972e+02 1.82903229e+02 1.97419357e+02 1.80967743e+02
      7.25806503e+01 9.58064575e+01 8.90322571e+01 8.80645218e+01
      1.07419357e+02 8.70967789e+01 1.23870972e+02 9.77419357e+01
      1.07419357e+02 1.01612907e+02 8.90322571e+01 1.01612907e+02
      2.01290329e+02 9.77419357e+01 2.17741943e+02 8.80645218e+01
      2.35161301e+02 8.80645218e+01 2.47741943e+02 9.77419357e+01
      2.36129044e+02 1.02580650e+02 2.19677429e+02 1.02580650e+02
      1.18064522e+02 2.35161301e+02 1.37419357e+02 2.18709686e+02
      1.55806458e+02 2.09032257e+02 1.69354843e+02 2.12903229e+02
      1.81935486e+02 2.09032257e+02 1.99354843e+02 2.20645172e+02
      2.13870972e+02 2.35161301e+02 1.99354843e+02 2.46774200e+02
      1.83870972e+02 2.50645172e+02 1.69354843e+02 2.50645172e+02
      1.54838715e+02 2.49677429e+02 1.37419357e+02 2.45806458e+02
      1.25806458e+02 2.34193558e+02 1.55806458e+02 2.28387100e+02
      1.68387100e+02 2.29354843e+02 1.81935486e+02 2.28387100e+02
      2.05161301e+02 2.34193558e+02 1.81935486e+02 2.29354843e+02
      1.68387100e+02 2.30322586e+02 1.55806458e+02 2.30322586e+02</_>
    <_>
      -1.06451616e+01 1.03548393e+02 -8.70967770e+00 1.38387100e+02
      -3.87096810e+00 1.75161301e+02 4.83870983e+00 2.10967743e+02
      2.12903233e+01 2.45806458e+02 4.64516144e+01 2.74838715e+02
      7.74193573e+01 2.98064514e+02 1.13225807e+02 3.15483887e+02
      1.53870972e+02 3.19354858e+02 1.89677429e+02 3.12580658e+02
      2.12903229e+02 2.89354858e+02 2.32258072e+02 2.63225800e+02
      2.45806458e+02 2.33225815e+02 2.53548401e+02 2.00322586e+02
      2.57419373e+02 1.67419357e+02 2.57419373e+02 1.34516129e+02
      2.55483871e+02 1.03548393e+02 2.90322590e+01 5.90322609e+01
      4.93548393e+01 4.35483894e+01 7.54838715e+01 3.96774216e+01
      1.01612907e+02 4.45161285e+01 1.25806458e+02 5.32258072e+01
      1.67419357e+02 5.41935501e+01 1.88709686e+02 4.45161285e+01
      2.12903229e+02 4.16129036e+01 2.35161301e+02 4.83870964e+01
      2.46774200e+02 6.77419357e+01 1.48064514e+02 8.70967789e+01 150.
      1.07419357e+02 1.52903229e+02 1.25806458e+02 1.55806458e+02
      1.46129044e+02 1.21935486e+02 1.78064514e+02 1.36451614e+02 180.
      1.51935486e+02 1.82903229e+02 1.65483871e+02 180. 1.78064514e+02
      1.77096786e+02 5.61290321e+01 9.29032288e+01 7.16129074e+01
      8.41935501e+01 90. 8.32258072e+01 1.04516129e+02 9.48387146e+01
      8.90322571e+01 9.87096786e+01 7.06451645e+01 9.87096786e+01
      1.81935486e+02 9.67741928e+01 1.97419357e+02 8.70967789e+01
      2.15806458e+02 8.70967789e+01 2.26451614e+02 9.67741928e+01
      2.15806458e+02 1.02580650e+02 1.98387100e+02 1.01612907e+02
      1.02580650e+02 2.33225815e+02 1.21935486e+02 2.17741943e+02
      1.41290329e+02 2.07096786e+02 1.52903229e+02 2.11935486e+02
      1.65483871e+02 2.08064529e+02 1.81935486e+02 2.17741943e+02
      1.94516129e+02 2.33225815e+02 1.82903229e+02 2.42903229e+02
      1.67419357e+02 2.48709686e+02 1.53870972e+02 2.49677429e+02
      1.40322586e+02 2.47741943e+02 1.20967743e+02 2.42903229e+02
      1.11290329e+02 2.32258072e+02 1.40322586e+02 2.26451614e+02
      1.52903229e+02 2.27419357e+02 1.65483871e+02 2.26451614e+02
      1.85806458e+02 2.31290329e+02 1.66451614e+02 2.28387100e+02
      1.53870972e+02 2.28387100e+02 1.40322586e+02 2.27419357e+02</_>
    <_>
      1.06451616e+01 1.07419357e+02 1.35483875e+01 1.42258072e+02
      1.83870964e+01 1.79032257e+02 2.61290321e+01 2.13870972e+02
      4.06451607e+01 2.48709686e+02 6.67741928e+01 2.76774200e+02
      9.96774216e+01 300. 1.35483871e+02 3.18387115e+02 1.74193558e+02
      3.22258087e+02 2.08064529e+02 3.14516144e+02 2.30322586e+02
      2.94193542e+02 2.49677429e+02 270. 2.62258087e+02 240. 270.
      2.09032257e+02 2.74838715e+02 1.78064514e+02 2.77741943e+02
      1.46129044e+02 2.78709686e+02 1.17096779e+02 5.32258072e+01
      6.58064499e+01 7.35483856e+01 4.74193573e+01 1.01612907e+02
      4.35483894e+01 1.29677429e+02 4.93548393e+01 1.53870972e+02
      6.09677429e+01 1.92580658e+02 6.19354858e+01 2.13870972e+02
      5.12903252e+01 2.38064529e+02 4.74193573e+01 2.60322601e+02
      5.61290321e+01 2.68064514e+02 7.74193573e+01 1.74193558e+02
      9.19354858e+01 1.77096786e+02 1.12258064e+02 180. 1.30645172e+02
      1.82903229e+02 1.50967743e+02 1.46129044e+02 1.80967743e+02
      1.61612915e+02 1.83870972e+02 1.76129044e+02 1.85806458e+02
      1.89677429e+02 1.84838715e+02 2.02258072e+02 1.81935486e+02
      7.93548431e+01 9.48387146e+01 9.58064575e+01 8.61290359e+01
      1.14193550e+02 8.61290359e+01 1.29677429e+02 9.87096786e+01
      1.14193550e+02 1.01612907e+02 9.58064575e+01 1.00645164e+02
      2.05161301e+02 1.01612907e+02 2.21612915e+02 9.19354858e+01
      2.39032272e+02 9.29032288e+01 2.49677429e+02 1.03548393e+02
      2.39032272e+02 1.08387100e+02 2.22580658e+02 1.06451614e+02
      1.23870972e+02 2.34193558e+02 1.45161301e+02 2.18709686e+02
      1.64516129e+02 210. 1.76129044e+02 2.14838715e+02 1.88709686e+02
      2.11935486e+02 2.05161301e+02 2.21612915e+02 2.18709686e+02
      2.37096786e+02 2.05161301e+02 2.46774200e+02 1.90645172e+02
      2.50645172e+02 1.77096786e+02 2.51612915e+02 1.64516129e+02
      2.49677429e+02 1.45161301e+02 2.44838715e+02 1.33548386e+02
      2.33225815e+02 1.64516129e+02 2.28387100e+02 1.75161301e+02
      2.29354843e+02 1.88709686e+02 2.29354843e+02 2.10967743e+02
      2.35161301e+02 1.89677429e+02 2.32258072e+02 1.77096786e+02
      2.31290329e+02 1.65483871e+02 2.30322586e+02</_>
    <_>
      -1.06451616e+01 1.01612907e+02 -8.70967770e+00 1.38387100e+02
      -5.80645180e+00 1.76129044e+02 9.67742026e-01 2.12903229e+02
      1.83870964e+01 2.47741943e+02 4.45161285e+01 2.76774200e+02
      7.74193573e+01 300. 1.12258064e+02 3.18387115e+02 1.50967743e+02
      3.22258087e+02 1.85806458e+02 3.16451630e+02 2.08064529e+02
      2.95161285e+02 2.24516129e+02 2.69032257e+02 2.37096786e+02
      2.38064529e+02 2.44838715e+02 2.05161301e+02 2.51612915e+02
      1.71290329e+02 2.52580658e+02 1.38387100e+02 2.50645172e+02
      1.06451614e+02 3.96774216e+01 5.41935501e+01 6.09677429e+01
      4.25806465e+01 8.61290359e+01 4.35483894e+01 1.09354843e+02
      4.83870964e+01 1.31612900e+02 5.70967751e+01 1.73225815e+02
      5.90322609e+01 1.92580658e+02 5.12903252e+01 2.13870972e+02
      4.83870964e+01 2.33225815e+02 5.32258072e+01 2.41935486e+02
      6.96774216e+01 1.52903229e+02 9.19354858e+01 1.54838715e+02
      1.12258064e+02 1.57741943e+02 1.31612900e+02 1.60645172e+02
      1.51935486e+02 1.26774200e+02 180. 1.40322586e+02 1.83870972e+02
      1.54838715e+02 1.86774200e+02 1.67419357e+02 1.84838715e+02
      1.79032257e+02 1.81935486e+02 6.19354858e+01 9.29032288e+01
      7.74193573e+01 8.51612930e+01 9.48387146e+01 8.51612930e+01
      1.09354843e+02 9.58064575e+01 9.38709717e+01 9.96774216e+01
      7.64516144e+01 9.96774216e+01 1.81935486e+02 9.87096786e+01
      1.97419357e+02 90. 2.13870972e+02 90. 2.24516129e+02
      9.96774216e+01 2.13870972e+02 1.04516129e+02 1.98387100e+02
      1.03548393e+02 1.05483871e+02 2.34193558e+02 1.24838715e+02
      2.19677429e+02 1.44193558e+02 210. 1.56774200e+02 2.14838715e+02
      1.67419357e+02 2.10967743e+02 1.82903229e+02 2.20645172e+02
      1.95483871e+02 2.37096786e+02 1.82903229e+02 2.46774200e+02
      1.69354843e+02 2.50645172e+02 1.56774200e+02 2.51612915e+02
      1.43225815e+02 2.49677429e+02 1.23870972e+02 2.45806458e+02
      1.14193550e+02 2.33225815e+02 1.44193558e+02 2.29354843e+02
      1.55806458e+02 2.30322586e+02 1.67419357e+02 2.30322586e+02
      1.87741943e+02 2.35161301e+02 1.67419357e+02 2.30322586e+02
      1.56774200e+02 2.30322586e+02 1.43225815e+02 2.30322586e+02</_>
    <_>
      2.90322590e+00 1.04516129e+02 3.87096810e+00 1.41290329e+02
      5.80645180e+00 1.78064514e+02 1.25806456e+01 2.13870972e+02
      2.90322590e+01 2.49677429e+02 5.41935501e+01 2.79677429e+02
      8.61290359e+01 3.04838715e+02 1.22903229e+02 3.24193573e+02
      1.63548386e+02 3.29032257e+02 1.98387100e+02 3.22258087e+02
      2.21612915e+02 3.00967743e+02 240. 2.74838715e+02 2.52580658e+02
      2.43870972e+02 2.59354858e+02 2.11935486e+02 2.65161285e+02 180.
      2.67096771e+02 1.49032257e+02 2.65161285e+02 120. 5.22580643e+01
      6.67741928e+01 7.54838715e+01 5.03225822e+01 1.04516129e+02
      4.93548393e+01 1.31612900e+02 5.70967751e+01 1.56774200e+02
      6.96774216e+01 1.88709686e+02 7.35483856e+01 2.09032257e+02
      6.29032288e+01 2.33225815e+02 5.80645180e+01 2.54516144e+02
      6.58064499e+01 2.62258087e+02 8.61290359e+01 1.72258072e+02
      1.00645164e+02 1.75161301e+02 1.20967743e+02 1.78064514e+02
      1.39354843e+02 1.81935486e+02 1.59677429e+02 1.42258072e+02
      1.86774200e+02 1.57741943e+02 1.90645172e+02 1.73225815e+02
      1.94516129e+02 1.86774200e+02 1.92580658e+02 1.99354843e+02
      1.88709686e+02 8.03225861e+01 1.01612907e+02 9.67741928e+01
      9.58064575e+01 1.14193550e+02 9.67741928e+01 1.27741936e+02
      1.05483871e+02 1.13225807e+02 1.07419357e+02 9.58064575e+01
      1.07419357e+02 1.99354843e+02 1.10322586e+02 2.15806458e+02
      1.04516129e+02 2.31290329e+02 1.06451614e+02 2.40967743e+02
      1.15161293e+02 2.31290329e+02 1.17096779e+02 2.15806458e+02
      1.15161293e+02 1.19032265e+02 2.41935486e+02 1.43225815e+02
      2.26451614e+02 1.63548386e+02 2.17741943e+02 1.74193558e+02
      2.23548401e+02 1.85806458e+02 2.19677429e+02 2.00322586e+02
      2.29354843e+02 210. 2.44838715e+02 1.98387100e+02 2.54516144e+02
      1.85806458e+02 2.58387115e+02 1.73225815e+02 2.59354858e+02
      1.60645172e+02 2.58387115e+02 1.40322586e+02 2.53548401e+02
      1.28709686e+02 2.40967743e+02 1.62580643e+02 2.37096786e+02
      1.73225815e+02 2.37096786e+02 1.84838715e+02 2.37096786e+02
      2.01290329e+02 2.42903229e+02 1.85806458e+02 2.38064529e+02
      1.73225815e+02 2.39032272e+02 1.61612915e+02 2.38064529e+02</_>
    <_>
      2.91262102e+00 7.28155365e+01 3.88349509e+00 1.09708740e+02
      6.79611683e+00 1.46601944e+02 1.45631065e+01 1.83495148e+02
      2.91262150e+01 2.17475739e+02 5.24271851e+01 2.46601944e+02
      8.25242767e+01 2.69902924e+02 1.16504860e+02 2.89320404e+02
      1.55339813e+02 2.95145630e+02 1.89320389e+02 2.88349518e+02
      2.13592239e+02 2.68932037e+02 2.33980591e+02 2.44660202e+02
      2.49514572e+02 2.13592239e+02 2.57281555e+02 1.81553406e+02
      2.64077667e+02 1.48543686e+02 2.66990295e+02 1.15533981e+02
      2.66019440e+02 8.44660187e+01 4.36893234e+01 3.39805832e+01
      6.40776749e+01 1.74757290e+01 9.22330093e+01 1.45631065e+01
      1.18446602e+02 2.03883495e+01 1.42718445e+02 3.30097084e+01
      1.80582535e+02 3.59223328e+01 2.01941757e+02 2.52427197e+01
      2.26213593e+02 2.23300972e+01 2.48543701e+02 2.91262150e+01
      2.58252441e+02 5.04854393e+01 1.61165054e+02 6.50485458e+01
      1.64077667e+02 8.54368973e+01 1.66019424e+02 1.04854370e+02
      1.67961166e+02 1.26213593e+02 1.32038834e+02 1.54368942e+02
      1.47572815e+02 1.57281555e+02 1.62135925e+02 1.60194183e+02
      1.74757294e+02 1.58252426e+02 1.87378647e+02 1.56310684e+02
      6.89320374e+01 6.60194168e+01 8.54368973e+01 5.82524300e+01
      1.03883499e+02 5.82524300e+01 1.19417480e+02 6.99029160e+01
      1.02912621e+02 7.28155365e+01 8.44660187e+01 7.18446655e+01
      1.92233017e+02 7.57281570e+01 2.09708740e+02 6.69902954e+01
      2.27184479e+02 6.79611664e+01 2.38834961e+02 7.86407776e+01
      2.27184479e+02 8.25242767e+01 2.09708740e+02 8.05825272e+01
      1.08737869e+02 2.04854370e+02 1.30097092e+02 1.92233017e+02
      1.48543686e+02 1.83495148e+02 1.61165054e+02 1.88349518e+02
      1.71844666e+02 1.85436905e+02 1.86407776e+02 1.95145630e+02
      1.99029129e+02 2.09708740e+02 1.86407776e+02 2.20388351e+02
      1.72815536e+02 2.24271851e+02 1.60194183e+02 2.25242722e+02
      1.46601944e+02 2.23300980e+02 1.28155350e+02 2.17475739e+02
      1.17475731e+02 2.04854370e+02 1.47572815e+02 2.02912628e+02
      1.60194183e+02 2.03883499e+02 1.72815536e+02 2.03883499e+02
      1.91262146e+02 2.08737869e+02 1.71844666e+02 2.04854370e+02
      1.60194183e+02 2.04854370e+02 1.47572815e+02 2.03883499e+02</_>
    <_>
      1.74757290e+01 7.86407776e+01 2.03883495e+01 1.12621361e+02
      2.62135925e+01 1.46601944e+02 3.30097084e+01 1.80582535e+02
      4.46601944e+01 2.13592239e+02 6.50485458e+01 2.41747574e+02
      9.12621384e+01 2.66019440e+02 1.21359230e+02 2.87378662e+02
      1.59223312e+02 2.92233032e+02 1.96116516e+02 2.87378662e+02
      2.24271851e+02 2.66990295e+02 2.48543701e+02 2.43689331e+02
      2.66019440e+02 2.14563110e+02 2.75728149e+02 1.81553406e+02
      2.83495148e+02 1.47572815e+02 2.87378662e+02 1.13592239e+02
      2.89320404e+02 7.76699066e+01 4.27184486e+01 3.49514580e+01
      6.01941757e+01 1.84466019e+01 8.44660187e+01 1.45631065e+01
      1.09708740e+02 2.03883495e+01 1.33009720e+02 2.81553402e+01
      1.77669907e+02 2.91262150e+01 2.01941757e+02 1.84466019e+01
      2.30097092e+02 1.35922337e+01 2.56310699e+02 2.33009720e+01
      2.70873779e+02 4.56310692e+01 1.55339813e+02 6.01941757e+01
      1.55339813e+02 8.15533981e+01 1.56310684e+02 1.01941750e+02
      1.56310684e+02 1.23300972e+02 1.26213593e+02 1.52427185e+02
      1.39805832e+02 1.54368942e+02 1.53398056e+02 1.57281555e+02
      1.67961166e+02 1.55339813e+02 1.81553406e+02 1.53398056e+02
      6.69902954e+01 6.69902954e+01 8.25242767e+01 5.82524300e+01
      1.00970879e+02 5.82524300e+01 1.15533981e+02 6.99029160e+01 100.
      7.37864075e+01 8.05825272e+01 7.37864075e+01 1.96116516e+02
      7.18446655e+01 2.12621368e+02 6.11650505e+01 2.31067963e+02
      6.11650505e+01 2.44660202e+02 7.08737869e+01 2.32038849e+02
      7.66990280e+01 2.13592239e+02 7.57281570e+01 1.07766991e+02
      2.05825241e+02 1.24271851e+02 1.91262146e+02 1.40776703e+02
      1.81553406e+02 1.53398056e+02 1.86407776e+02 1.66019424e+02
      1.82524277e+02 1.84466019e+02 1.92233017e+02 200. 2.06796127e+02
      1.84466019e+02 2.18446609e+02 1.67961166e+02 2.22330109e+02
      1.53398056e+02 2.24271851e+02 1.39805832e+02 2.22330109e+02
      1.23300972e+02 2.17475739e+02 1.16504860e+02 2.04854370e+02
      1.40776703e+02 2.00970886e+02 1.53398056e+02 2.01941757e+02
      1.66990295e+02 2.00970886e+02 1.91262146e+02 2.05825241e+02
      1.66990295e+02 2.01941757e+02 1.53398056e+02 2.02912628e+02
      1.40776703e+02 2.00970886e+02</_>
    <_>
      1.55339813e+01 8.44660187e+01 1.65048542e+01 1.14563110e+02
      2.03883495e+01 1.46601944e+02 2.52427197e+01 1.79611649e+02
      3.59223328e+01 2.13592239e+02 5.33980598e+01 2.41747574e+02
      7.57281570e+01 2.66990295e+02 1.03883499e+02 2.87378662e+02
      1.39805832e+02 2.93203888e+02 1.77669907e+02 2.89320404e+02
      2.06796127e+02 2.70873779e+02 2.33980591e+02 2.47572815e+02
      2.55339813e+02 2.17475739e+02 2.68932037e+02 1.85436905e+02
      2.75728149e+02 1.50485443e+02 2.80582520e+02 1.16504860e+02
      2.81553406e+02 8.25242767e+01 2.91262150e+01 3.98058281e+01
      4.46601944e+01 2.13592243e+01 6.99029160e+01 1.65048542e+01
      9.41747589e+01 2.13592243e+01 1.17475731e+02 3.10679626e+01
      1.58252426e+02 2.91262150e+01 1.84466019e+02 1.74757290e+01
      2.12621368e+02 1.35922337e+01 2.39805832e+02 2.33009720e+01
      2.55339813e+02 4.75728188e+01 1.37864075e+02 6.01941757e+01
      1.37864075e+02 8.15533981e+01 1.36893204e+02 1.00970879e+02
      1.35922333e+02 1.22330101e+02 1.08737869e+02 1.52427185e+02
      1.21359230e+02 1.54368942e+02 1.34951462e+02 1.57281555e+02
      1.49514572e+02 1.54368942e+02 1.64077667e+02 1.53398056e+02
      5.24271851e+01 6.89320374e+01 6.69902954e+01 5.82524300e+01
      8.64077682e+01 5.72815552e+01 1.02912621e+02 6.99029160e+01
      8.54368973e+01 7.47572861e+01 6.60194168e+01 7.47572861e+01
      1.79611649e+02 6.99029160e+01 1.97087387e+02 6.01941757e+01
      2.16504868e+02 5.92233009e+01 2.30097092e+02 6.99029160e+01
      2.17475739e+02 7.57281570e+01 1.98058258e+02 7.47572861e+01
      9.22330093e+01 2.05825241e+02 1.06796120e+02 1.91262146e+02
      1.23300972e+02 1.81553406e+02 1.35922333e+02 1.86407776e+02
      1.47572815e+02 1.81553406e+02 1.66019424e+02 1.91262146e+02
      1.86407776e+02 2.07766998e+02 1.66990295e+02 2.18446609e+02
      1.49514572e+02 2.23300980e+02 1.35922333e+02 2.23300980e+02
      1.22330101e+02 2.22330109e+02 1.05825249e+02 2.17475739e+02 100.
      2.04854370e+02 1.23300972e+02 2.00970886e+02 1.35922333e+02
      2.01941757e+02 1.47572815e+02 2.00970886e+02 1.76699036e+02
      2.05825241e+02 1.47572815e+02 2.00970886e+02 1.35922333e+02
      2.00970886e+02 1.23300972e+02 200.</_>
    <_>
      3.95161285e+01 9.67741928e+01 4.11290321e+01 1.20967743e+02
      4.35483856e+01 1.45967743e+02 4.75806465e+01 1.73387100e+02
      5.64516106e+01 2.00806458e+02 7.09677429e+01 2.23387100e+02
      9.19354858e+01 2.43548386e+02 1.14516129e+02 2.62096771e+02
      1.45161285e+02 2.67741943e+02 1.76612900e+02 2.62903229e+02
      2.03225800e+02 2.46774185e+02 2.25806442e+02 2.27419357e+02
      2.44354843e+02 2.02419357e+02 2.54032257e+02 1.74193542e+02
      2.60483856e+02 1.45161285e+02 2.62903229e+02 1.15322578e+02
      2.62903229e+02 8.54838715e+01 5.16129036e+01 5.32258072e+01
      6.37096786e+01 4.11290321e+01 8.22580643e+01 3.79032249e+01
      1.01612900e+02 4.11290321e+01 1.20161293e+02 4.83870964e+01
      1.57258057e+02 4.59677429e+01 1.76612900e+02 3.62903214e+01
      2.00806458e+02 3.22580643e+01 2.23387100e+02 3.95161285e+01
      2.38709671e+02 5.64516106e+01 1.38709671e+02 7.25806427e+01
      1.37903229e+02 8.95161285e+01 1.37096771e+02 1.05645157e+02
      1.36290329e+02 1.23387093e+02 1.16129028e+02 1.49193542e+02
      1.25806450e+02 1.51612900e+02 1.37096771e+02 1.52419357e+02
      1.48387100e+02 1.50806458e+02 1.60483871e+02 150. 7.01612930e+01
      8.14516144e+01 8.14516144e+01 7.17741928e+01 9.75806427e+01
      7.09677429e+01 1.08870964e+02 8.14516144e+01 9.67741928e+01
      8.54838715e+01 8.14516144e+01 8.62903214e+01 1.76612900e+02
      8.06451569e+01 1.90322586e+02 7.17741928e+01 2.06451614e+02
      7.09677429e+01 2.17741928e+02 8.06451569e+01 2.06451614e+02
      8.62903214e+01 1.90322586e+02 8.54838715e+01 1.03225807e+02
      1.94354843e+02 1.13709679e+02 1.82258057e+02 1.26612900e+02
      1.73387100e+02 1.37096771e+02 1.77419357e+02 1.48387100e+02
      1.73387100e+02 1.63709671e+02 1.81451614e+02 1.80645157e+02
      1.94354843e+02 1.65322586e+02 2.04838715e+02 150. 2.08064514e+02
      1.37903229e+02 2.08870972e+02 1.26612900e+02 2.07258057e+02
      1.12903221e+02 2.03225800e+02 1.08870964e+02 1.92741928e+02
      1.26612900e+02 1.89516129e+02 1.37096771e+02 1.90322586e+02
      1.49193542e+02 1.90322586e+02 1.72580643e+02 1.93548386e+02
      1.49193542e+02 1.90322586e+02 1.37096771e+02 1.91129028e+02
      1.26612900e+02 1.90322586e+02</_>
    <_>
      5.70967751e+01 1.26774200e+02 5.41935501e+01 1.48064514e+02
      5.61290321e+01 1.73225815e+02 60. 2.00322586e+02 6.29032288e+01
      2.30322586e+02 6.96774216e+01 2.62258087e+02 8.22580643e+01
      2.94193542e+02 1.01612907e+02 3.18387115e+02 1.33548386e+02
      3.25161285e+02 1.73225815e+02 3.23225830e+02 2.08064529e+02
      3.06774200e+02 2.40967743e+02 2.84516144e+02 2.68064514e+02
      2.55483871e+02 2.84516144e+02 2.23548401e+02 2.95161285e+02
      1.86774200e+02 3.01935486e+02 1.50967743e+02 3.03870972e+02
      1.14193550e+02 4.25806465e+01 7.06451645e+01 5.12903252e+01
      5.32258072e+01 7.06451645e+01 4.93548393e+01 90. 5.32258072e+01
      1.09354843e+02 6.29032288e+01 1.46129044e+02 6.09677429e+01
      1.73225815e+02 4.74193573e+01 2.05161301e+02 4.35483894e+01
      2.36129044e+02 5.51612930e+01 2.56451630e+02 8.03225861e+01
      1.26774200e+02 9.29032288e+01 1.23870972e+02 1.13225807e+02
      1.19032265e+02 1.32580643e+02 1.14193550e+02 1.52903229e+02
      9.77419357e+01 1.80967743e+02 1.08387100e+02 1.83870972e+02 120.
      1.86774200e+02 1.34516129e+02 1.83870972e+02 1.50967743e+02
      1.82903229e+02 60. 9.96774216e+01 6.96774216e+01 8.90322571e+01
      8.70967789e+01 8.90322571e+01 1.03548393e+02 1.00645164e+02
      8.70967789e+01 1.04516129e+02 6.96774216e+01 1.05483871e+02
      1.75161301e+02 1.01612907e+02 1.91612915e+02 90. 2.11935486e+02
      90. 2.27419357e+02 9.96774216e+01 2.11935486e+02 1.06451614e+02
      1.92580658e+02 1.05483871e+02 8.32258072e+01 2.37096786e+02
      9.19354858e+01 2.20645172e+02 1.05483871e+02 210. 1.18064522e+02
      2.14838715e+02 1.31612900e+02 210. 1.51935486e+02 2.21612915e+02
      1.74193558e+02 2.39032272e+02 1.52903229e+02 2.48709686e+02
      1.34516129e+02 2.52580658e+02 120. 2.53548401e+02 1.05483871e+02
      2.52580658e+02 9.19354858e+01 2.46774200e+02 9.09677429e+01
      2.36129044e+02 1.06451614e+02 2.30322586e+02 1.19032265e+02
      2.31290329e+02 1.32580643e+02 2.30322586e+02 1.64516129e+02
      2.38064529e+02 1.32580643e+02 2.31290329e+02 1.18064522e+02
      2.32258072e+02 1.06451614e+02 2.31290329e+02</_>
    <_>
      4.74193573e+01 1.21935486e+02 4.35483894e+01 1.44193558e+02
      4.35483894e+01 1.69354843e+02 4.54838715e+01 1.97419357e+02
      4.74193573e+01 2.29354843e+02 5.22580643e+01 2.61290344e+02
      6.58064499e+01 2.91290344e+02 8.80645218e+01 3.14516144e+02
      1.20967743e+02 3.22258087e+02 1.61612915e+02 3.21290344e+02
      2.01290329e+02 3.05806458e+02 2.36129044e+02 2.84516144e+02
      2.64193542e+02 2.55483871e+02 2.78709686e+02 2.22580658e+02
      2.89354858e+02 1.87741943e+02 2.95161285e+02 1.52903229e+02
      2.97096771e+02 1.17096779e+02 3.77419357e+01 6.96774216e+01
      4.74193573e+01 5.41935501e+01 6.48387146e+01 5.12903252e+01
      8.41935501e+01 5.61290321e+01 1.02580650e+02 6.48387146e+01
      1.39354843e+02 6.09677429e+01 1.66451614e+02 4.83870964e+01
      1.96451614e+02 4.45161285e+01 2.26451614e+02 5.41935501e+01
      2.46774200e+02 7.64516144e+01 1.17096779e+02 9.38709717e+01
      1.12258064e+02 1.13225807e+02 1.06451614e+02 1.31612900e+02
      9.96774216e+01 1.51935486e+02 8.70967789e+01 1.80967743e+02
      9.58064575e+01 1.83870972e+02 1.07419357e+02 1.86774200e+02
      1.21935486e+02 1.84838715e+02 1.38387100e+02 1.82903229e+02
      5.32258072e+01 1.01612907e+02 6.38709679e+01 9.09677429e+01
      8.22580643e+01 90. 9.87096786e+01 1.02580650e+02 8.12903214e+01
      1.06451614e+02 6.38709679e+01 1.07419357e+02 1.66451614e+02
      1.01612907e+02 1.83870972e+02 90. 2.03225815e+02 9.09677429e+01
      2.19677429e+02 1.00645164e+02 2.04193558e+02 1.06451614e+02
      1.83870972e+02 1.05483871e+02 7.45161285e+01 2.35161301e+02
      8.12903214e+01 2.19677429e+02 9.29032288e+01 210. 1.05483871e+02
      2.13870972e+02 1.18064522e+02 210. 1.38387100e+02 2.20645172e+02
      1.62580643e+02 2.38064529e+02 1.39354843e+02 2.46774200e+02
      1.21935486e+02 2.51612915e+02 1.07419357e+02 2.52580658e+02
      9.29032288e+01 2.50645172e+02 8.22580643e+01 2.44838715e+02
      8.12903214e+01 2.33225815e+02 9.38709717e+01 2.29354843e+02
      1.06451614e+02 2.30322586e+02 120. 2.29354843e+02 1.51935486e+02
      2.37096786e+02 1.19032265e+02 2.30322586e+02 1.05483871e+02
      2.30322586e+02 9.29032288e+01 2.30322586e+02</_>
    <_>
      7.16129074e+01 1.15161293e+02 6.77419357e+01 1.40322586e+02
      6.67741928e+01 1.68387100e+02 6.87096786e+01 1.99354843e+02
      7.16129074e+01 2.31290329e+02 8.03225861e+01 2.62258087e+02
      9.19354858e+01 2.92258087e+02 1.10322586e+02 3.16451630e+02
      1.41290329e+02 3.24193573e+02 1.82903229e+02 3.22258087e+02
      2.21612915e+02 3.10645172e+02 2.59354858e+02 2.89354858e+02
      2.91290344e+02 2.61290344e+02 3.09677429e+02 2.27419357e+02
      3.21290344e+02 1.89677429e+02 3.26129028e+02 1.50967743e+02
      3.29032257e+02 1.11290329e+02 6.77419357e+01 6.87096786e+01
      7.64516144e+01 5.51612930e+01 9.19354858e+01 5.32258072e+01
      1.08387100e+02 5.80645180e+01 1.26774200e+02 6.38709679e+01
      1.64516129e+02 60. 1.91612915e+02 4.83870964e+01 2.20645172e+02
      4.45161285e+01 2.49677429e+02 5.32258072e+01 270. 7.45161285e+01
      1.41290329e+02 9.19354858e+01 1.36451614e+02 1.11290329e+02
      1.30645172e+02 1.29677429e+02 1.23870972e+02 150. 1.11290329e+02
      180. 120. 1.81935486e+02 1.30645172e+02 1.84838715e+02
      1.46129044e+02 1.82903229e+02 1.62580643e+02 1.82903229e+02
      8.22580643e+01 1.02580650e+02 9.19354858e+01 9.19354858e+01
      1.08387100e+02 9.19354858e+01 1.23870972e+02 1.03548393e+02
      1.07419357e+02 1.06451614e+02 9.19354858e+01 1.07419357e+02
      1.91612915e+02 1.02580650e+02 2.08064529e+02 9.19354858e+01
      2.27419357e+02 9.19354858e+01 2.43870972e+02 1.00645164e+02
      2.28387100e+02 1.07419357e+02 2.09032257e+02 1.06451614e+02
      1.00645164e+02 2.36129044e+02 1.07419357e+02 2.20645172e+02
      1.18064522e+02 2.10967743e+02 1.28709686e+02 2.14838715e+02
      1.42258072e+02 2.11935486e+02 1.62580643e+02 2.23548401e+02
      1.86774200e+02 2.40967743e+02 1.62580643e+02 2.49677429e+02
      1.43225815e+02 2.53548401e+02 1.28709686e+02 2.53548401e+02
      1.17096779e+02 2.51612915e+02 1.06451614e+02 2.45806458e+02
      1.06451614e+02 2.35161301e+02 1.19032265e+02 2.31290329e+02
      1.29677429e+02 2.31290329e+02 1.43225815e+02 2.31290329e+02
      1.76129044e+02 240. 1.42258072e+02 2.32258072e+02 1.28709686e+02
      2.33225815e+02 1.17096779e+02 2.31290329e+02</_>
    <_>
      7.35483856e+01 1.21935486e+02 6.87096786e+01 1.44193558e+02
      6.77419357e+01 1.68387100e+02 6.96774216e+01 1.95483871e+02
      7.06451645e+01 2.27419357e+02 7.45161285e+01 2.59354858e+02
      8.41935501e+01 2.92258087e+02 9.96774216e+01 3.19354858e+02
      1.31612900e+02 3.28064514e+02 1.74193558e+02 3.27096771e+02
      2.14838715e+02 3.14516144e+02 2.51612915e+02 2.94193542e+02
      2.82580658e+02 2.66129028e+02 3.01935486e+02 2.33225815e+02
      3.16451630e+02 1.97419357e+02 3.25161285e+02 1.59677429e+02 330.
      1.20967743e+02 6.19354858e+01 6.87096786e+01 7.06451645e+01
      5.61290321e+01 8.61290359e+01 5.51612930e+01 1.02580650e+02 60.
      1.19032265e+02 6.87096786e+01 1.55806458e+02 6.38709679e+01
      1.83870972e+02 5.22580643e+01 2.14838715e+02 4.93548393e+01
      2.45806458e+02 60. 2.69032257e+02 7.93548431e+01 1.32580643e+02
      9.67741928e+01 1.26774200e+02 1.18064522e+02 120. 1.38387100e+02
      1.12258064e+02 1.59677429e+02 1.01612907e+02 1.85806458e+02
      1.10322586e+02 1.88709686e+02 1.20967743e+02 1.91612915e+02
      1.36451614e+02 1.89677429e+02 1.51935486e+02 1.89677429e+02
      7.54838715e+01 1.01612907e+02 8.51612930e+01 9.19354858e+01
      1.02580650e+02 9.19354858e+01 1.18064522e+02 1.05483871e+02
      1.00645164e+02 1.08387100e+02 8.41935501e+01 1.09354843e+02
      1.83870972e+02 1.07419357e+02 2.02258072e+02 9.48387146e+01
      2.21612915e+02 9.48387146e+01 2.37096786e+02 1.05483871e+02
      2.21612915e+02 1.12258064e+02 2.01290329e+02 1.11290329e+02 90.
      2.39032272e+02 9.48387146e+01 2.23548401e+02 1.06451614e+02
      2.15806458e+02 1.18064522e+02 2.19677429e+02 1.32580643e+02
      2.15806458e+02 1.52903229e+02 2.27419357e+02 1.78064514e+02
      2.45806458e+02 1.52903229e+02 2.54516144e+02 1.32580643e+02
      2.57419373e+02 1.18064522e+02 2.58387115e+02 1.04516129e+02
      2.57419373e+02 9.38709717e+01 2.50645172e+02 9.67741928e+01
      2.38064529e+02 1.06451614e+02 2.35161301e+02 1.18064522e+02
      2.36129044e+02 1.32580643e+02 2.36129044e+02 1.68387100e+02
      2.43870972e+02 1.31612900e+02 2.38064529e+02 1.17096779e+02
      2.37096786e+02 1.04516129e+02 2.37096786e+02</_>
    <_>
      6.45161285e+01 9.35483856e+01 6.29032249e+01 1.16935486e+02
      6.29032249e+01 1.41129028e+02 6.45161285e+01 1.66129028e+02
      6.93548355e+01 1.91935486e+02 7.82258072e+01 2.15322586e+02
      9.03225784e+01 2.39516129e+02 1.07258064e+02 2.58870972e+02
      1.31451614e+02 2.65322571e+02 1.63709671e+02 2.64516113e+02
      1.95967743e+02 2.54032257e+02 2.27419357e+02 2.38709671e+02
      2.53225800e+02 2.16935486e+02 2.69354828e+02 1.90322586e+02
      2.79838715e+02 1.60483871e+02 2.86290314e+02 1.29032257e+02
      2.90322571e+02 9.67741928e+01 6.93548355e+01 50. 7.74193573e+01
      3.95161285e+01 9.19354858e+01 3.87096786e+01 1.07258064e+02
      4.27419357e+01 1.21774193e+02 4.91935463e+01 1.54032257e+02
      4.83870964e+01 1.76612900e+02 3.87096786e+01 2.02419357e+02
      3.54838715e+01 2.27419357e+02 4.67741928e+01 2.45161285e+02
      6.61290283e+01 1.33870972e+02 7.41935501e+01 1.30645157e+02
      9.11290283e+01 1.25806450e+02 1.07258064e+02 1.20967743e+02
      1.24193550e+02 1.09677422e+02 1.49193542e+02 1.16935486e+02
      1.50806458e+02 1.25806450e+02 1.52419357e+02 1.37903229e+02
      1.51612900e+02 1.52419357e+02 1.51612900e+02 8.14516144e+01
      7.74193573e+01 9.19354858e+01 6.93548355e+01 1.06451614e+02
      7.01612930e+01 1.19354836e+02 8.06451569e+01 1.04838707e+02
      8.30645142e+01 9.03225784e+01 8.22580643e+01 1.75806458e+02
      8.30645142e+01 1.91129028e+02 7.41935501e+01 2.07258057e+02
      7.41935501e+01 2.20967743e+02 8.38709641e+01 2.06451614e+02
      8.87096786e+01 1.90322586e+02 8.70967712e+01 9.83870926e+01
      1.92741928e+02 1.04032257e+02 1.80645157e+02 1.12903221e+02
      1.73387100e+02 1.23387093e+02 1.76612900e+02 1.34677414e+02
      1.73387100e+02 1.51612900e+02 1.83870972e+02 1.69354843e+02
      1.98387100e+02 1.50806458e+02 2.04032257e+02 1.34677414e+02
      2.07258057e+02 1.23387093e+02 2.07258057e+02 1.11290321e+02
      2.04838715e+02 1.03225807e+02 200. 1.04032257e+02 1.91935486e+02
      1.12903221e+02 1.87903229e+02 1.23387093e+02 1.88709671e+02
      1.35483871e+02 1.89516129e+02 1.62096771e+02 1.96774185e+02
      1.34677414e+02 1.90322586e+02 1.23387093e+02 1.90322586e+02
      1.12903221e+02 1.89516129e+02</_>
    <_>
      2.22580643e+01 1.11290329e+02 2.03225803e+01 1.41290329e+02
      2.12903233e+01 1.72258072e+02 2.41935482e+01 2.05161301e+02
      3.19354839e+01 2.39032272e+02 4.54838715e+01 2.68064514e+02
      6.58064499e+01 2.95161285e+02 9.19354858e+01 3.15483887e+02
      1.26774200e+02 3.24193573e+02 1.65483871e+02 3.22258087e+02
      1.98387100e+02 3.07741943e+02 2.27419357e+02 2.87419373e+02
      2.51612915e+02 2.61290344e+02 2.68064514e+02 2.31290329e+02
      2.77741943e+02 1.97419357e+02 2.84516144e+02 1.62580643e+02
      2.88387115e+02 1.27741936e+02 3.58064537e+01 6.09677429e+01
      5.03225822e+01 4.54838715e+01 7.35483856e+01 4.25806465e+01
      9.58064575e+01 4.83870964e+01 1.18064522e+02 5.80645180e+01
      1.60645172e+02 6.09677429e+01 1.86774200e+02 5.03225822e+01
      2.16774200e+02 4.83870964e+01 2.44838715e+02 6.09677429e+01
      2.60322601e+02 8.70967789e+01 1.36451614e+02 90. 1.33548386e+02
      1.09354843e+02 1.30645172e+02 1.27741936e+02 1.27741936e+02
      1.48064514e+02 1.02580650e+02 180. 1.14193550e+02 1.81935486e+02
      1.26774200e+02 1.83870972e+02 1.41290329e+02 1.83870972e+02
      1.56774200e+02 1.83870972e+02 5.51612930e+01 9.38709717e+01
      6.96774216e+01 8.41935501e+01 8.70967789e+01 8.41935501e+01
      1.01612907e+02 9.77419357e+01 8.51612930e+01 9.96774216e+01
      6.77419357e+01 9.96774216e+01 1.80967743e+02 1.04516129e+02
      1.98387100e+02 9.38709717e+01 2.17741943e+02 9.48387146e+01
      2.31290329e+02 1.06451614e+02 2.16774200e+02 1.11290329e+02
      1.98387100e+02 1.09354843e+02 8.03225861e+01 2.32258072e+02
      9.48387146e+01 2.16774200e+02 1.11290329e+02 2.07096786e+02
      1.24838715e+02 2.12903229e+02 1.38387100e+02 2.09032257e+02
      1.57741943e+02 2.21612915e+02 1.76129044e+02 2.41935486e+02
      1.55806458e+02 2.49677429e+02 1.37419357e+02 2.52580658e+02
      1.22903229e+02 2.52580658e+02 1.07419357e+02 2.50645172e+02
      9.29032288e+01 2.43870972e+02 8.80645218e+01 2.31290329e+02
      1.10322586e+02 2.27419357e+02 1.23870972e+02 2.29354843e+02
      1.38387100e+02 2.30322586e+02 1.66451614e+02 2.38064529e+02
      1.37419357e+02 2.31290329e+02 1.23870972e+02 2.30322586e+02
      1.09354843e+02 2.28387100e+02</_>
    <_>
      3.87096810e+00 1.04516129e+02 9.67742026e-01 1.36451614e+02
      2.90322590e+00 1.70322586e+02 5.80645180e+00 2.05161301e+02
      1.64516125e+01 2.41935486e+02 3.48387108e+01 2.71935486e+02
      5.90322609e+01 2.97096771e+02 8.80645218e+01 3.18387115e+02
      1.25806458e+02 3.27096771e+02 1.64516129e+02 3.25161285e+02
      1.94516129e+02 3.06774200e+02 2.19677429e+02 2.85483887e+02
      2.39032272e+02 2.57419373e+02 2.51612915e+02 2.24516129e+02
      2.61290344e+02 1.91612915e+02 2.69032257e+02 1.58709686e+02
      2.71935486e+02 1.25806458e+02 3.38709679e+01 5.80645180e+01
      5.22580643e+01 4.35483894e+01 7.74193573e+01 4.16129036e+01
      1.02580650e+02 4.83870964e+01 1.24838715e+02 60. 1.67419357e+02
      6.48387146e+01 1.91612915e+02 5.61290321e+01 2.18709686e+02
      5.41935501e+01 2.42903229e+02 6.58064499e+01 2.53548401e+02 90.
      1.45161301e+02 9.29032288e+01 1.44193558e+02 1.12258064e+02
      1.43225815e+02 1.31612900e+02 1.42258072e+02 1.51935486e+02
      1.09354843e+02 180. 1.22903229e+02 1.83870972e+02 1.36451614e+02
      1.87741943e+02 1.50967743e+02 1.86774200e+02 1.66451614e+02
      1.85806458e+02 5.51612930e+01 9.19354858e+01 7.06451645e+01
      8.41935501e+01 8.90322571e+01 8.51612930e+01 1.03548393e+02
      9.87096786e+01 8.61290359e+01 9.96774216e+01 6.87096786e+01
      9.87096786e+01 1.83870972e+02 1.07419357e+02 2.00322586e+02
      9.87096786e+01 2.18709686e+02 9.96774216e+01 2.30322586e+02
      1.11290329e+02 2.17741943e+02 1.15161293e+02 2.00322586e+02
      1.12258064e+02 8.51612930e+01 2.32258072e+02 1.02580650e+02
      2.18709686e+02 1.21935486e+02 210. 1.34516129e+02 2.16774200e+02
      1.48064514e+02 2.12903229e+02 1.64516129e+02 2.25483871e+02
      1.79032257e+02 2.43870972e+02 1.62580643e+02 2.51612915e+02
      1.45161301e+02 2.54516144e+02 1.30645172e+02 2.54516144e+02
      1.16129036e+02 2.51612915e+02 9.87096786e+01 2.45806458e+02
      9.29032288e+01 2.32258072e+02 120. 2.30322586e+02 1.33548386e+02
      2.33225815e+02 1.47096771e+02 2.33225815e+02 1.70322586e+02
      2.41935486e+02 1.46129044e+02 2.33225815e+02 1.32580643e+02
      2.32258072e+02 1.19032265e+02 2.29354843e+02</_>
    <_>
      9.67741966e+00 9.96774216e+01 6.77419376e+00 1.34516129e+02
      6.77419376e+00 1.70322586e+02 1.06451616e+01 2.06129044e+02
      2.12903233e+01 2.42903229e+02 4.16129036e+01 2.71935486e+02
      6.87096786e+01 2.97096771e+02 9.87096786e+01 3.18387115e+02
      1.37419357e+02 3.26129028e+02 1.75161301e+02 3.25161285e+02
      2.04193558e+02 3.08709686e+02 2.27419357e+02 2.84516144e+02
      2.44838715e+02 2.54516144e+02 2.55483871e+02 2.20645172e+02
      2.64193542e+02 1.88709686e+02 2.70967743e+02 1.56774200e+02
      2.72903229e+02 1.23870972e+02 4.74193573e+01 5.41935501e+01
      6.77419357e+01 4.06451607e+01 9.38709717e+01 4.16129036e+01
      1.19032265e+02 4.93548393e+01 1.41290329e+02 6.19354858e+01 180.
      6.67741928e+01 2.04193558e+02 5.70967751e+01 2.31290329e+02
      5.61290321e+01 2.55483871e+02 6.87096786e+01 2.64193542e+02
      9.19354858e+01 1.59677429e+02 9.48387146e+01 1.59677429e+02
      1.14193550e+02 1.58709686e+02 1.32580643e+02 1.58709686e+02
      1.51935486e+02 1.22903229e+02 180. 1.37419357e+02 1.83870972e+02
      1.51935486e+02 1.87741943e+02 1.65483871e+02 1.86774200e+02
      1.79032257e+02 1.86774200e+02 6.87096786e+01 9.09677429e+01
      8.51612930e+01 8.22580643e+01 1.03548393e+02 8.41935501e+01
      1.17096779e+02 9.77419357e+01 1.00645164e+02 9.87096786e+01
      8.22580643e+01 9.67741928e+01 1.94516129e+02 1.07419357e+02
      2.10967743e+02 9.87096786e+01 2.29354843e+02 1.00645164e+02 240.
      1.12258064e+02 2.27419357e+02 1.15161293e+02 2.10967743e+02
      1.12258064e+02 9.77419357e+01 2.33225815e+02 1.17096779e+02
      2.18709686e+02 1.36451614e+02 2.10967743e+02 150. 2.16774200e+02
      1.63548386e+02 2.12903229e+02 180. 2.25483871e+02 1.92580658e+02
      2.43870972e+02 1.77096786e+02 2.52580658e+02 1.60645172e+02
      2.55483871e+02 1.47096771e+02 2.54516144e+02 1.31612900e+02
      2.52580658e+02 1.13225807e+02 2.45806458e+02 1.05483871e+02
      2.33225815e+02 1.35483871e+02 2.31290329e+02 1.49032257e+02
      2.33225815e+02 1.62580643e+02 2.34193558e+02 1.83870972e+02
      2.41935486e+02 1.61612915e+02 2.34193558e+02 1.48064514e+02
      2.33225815e+02 1.33548386e+02 2.31290329e+02</_>
    <_>
      1.16129036e+01 1.00645164e+02 9.67741966e+00 1.35483871e+02
      1.06451616e+01 1.72258072e+02 1.45161285e+01 210. 2.80645161e+01
      2.45806458e+02 5.22580643e+01 2.74838715e+02 8.32258072e+01
      2.99032257e+02 1.16129036e+02 3.18387115e+02 1.54838715e+02
      3.26129028e+02 1.91612915e+02 3.23225830e+02 2.17741943e+02
      3.04838715e+02 2.38064529e+02 2.80645172e+02 2.54516144e+02
      2.50645172e+02 2.65161285e+02 2.18709686e+02 2.72903229e+02
      1.85806458e+02 2.77741943e+02 1.53870972e+02 2.78709686e+02
      1.23870972e+02 5.61290321e+01 5.90322609e+01 7.64516144e+01
      4.16129036e+01 1.05483871e+02 3.96774216e+01 1.32580643e+02
      4.74193573e+01 1.56774200e+02 6.09677429e+01 1.95483871e+02
      6.58064499e+01 2.16774200e+02 5.70967751e+01 2.41935486e+02
      5.61290321e+01 2.63225800e+02 6.77419357e+01 2.70967743e+02 90.
      1.75161301e+02 9.29032288e+01 1.76129044e+02 1.12258064e+02
      1.77096786e+02 1.30645172e+02 1.78064514e+02 150. 1.42258072e+02
      1.78064514e+02 1.55806458e+02 1.81935486e+02 1.70322586e+02
      1.86774200e+02 1.82903229e+02 1.85806458e+02 1.95483871e+02
      1.84838715e+02 8.32258072e+01 8.70967789e+01 9.87096786e+01
      7.74193573e+01 1.18064522e+02 7.93548431e+01 1.30645172e+02
      9.48387146e+01 1.16129036e+02 9.58064575e+01 9.67741928e+01
      9.38709717e+01 2.07096786e+02 1.05483871e+02 2.22580658e+02
      9.38709717e+01 240. 9.58064575e+01 2.49677429e+02 1.09354843e+02
      240. 1.12258064e+02 2.23548401e+02 1.10322586e+02 1.13225807e+02
      2.31290329e+02 1.35483871e+02 2.17741943e+02 1.56774200e+02 210.
      1.67419357e+02 2.15806458e+02 180. 2.12903229e+02 1.95483871e+02
      2.25483871e+02 2.07096786e+02 2.43870972e+02 1.92580658e+02
      2.50645172e+02 1.78064514e+02 2.54516144e+02 1.64516129e+02
      2.53548401e+02 1.50967743e+02 2.50645172e+02 1.32580643e+02
      2.43870972e+02 1.21935486e+02 2.31290329e+02 1.54838715e+02
      2.30322586e+02 1.66451614e+02 2.32258072e+02 1.79032257e+02
      2.33225815e+02 2.00322586e+02 2.40967743e+02 1.78064514e+02
      2.33225815e+02 1.65483871e+02 2.32258072e+02 1.53870972e+02
      2.30322586e+02</_>
    <_>
      -1.74193554e+01 1.02580650e+02 -1.93548393e+01 1.39354843e+02
      -1.93548393e+01 1.78064514e+02 -1.45161285e+01 2.15806458e+02 0.
      2.51612915e+02 2.41935482e+01 2.80645172e+02 5.70967751e+01
      3.03870972e+02 9.19354858e+01 3.21290344e+02 1.32580643e+02
      3.28064514e+02 1.68387100e+02 3.25161285e+02 1.93548386e+02
      3.08709686e+02 2.11935486e+02 2.83548401e+02 2.25483871e+02
      2.51612915e+02 2.35161301e+02 2.20645172e+02 2.43870972e+02
      1.90645172e+02 2.47741943e+02 1.59677429e+02 2.47741943e+02
      1.30645172e+02 3.96774216e+01 5.41935501e+01 6.19354858e+01
      3.96774216e+01 90. 3.96774216e+01 1.15161293e+02 4.74193573e+01
      1.39354843e+02 6.09677429e+01 1.79032257e+02 6.67741928e+01
      1.98387100e+02 60. 2.20645172e+02 5.80645180e+01 240.
      6.77419357e+01 2.47741943e+02 8.80645218e+01 1.57741943e+02
      9.58064575e+01 1.59677429e+02 1.14193550e+02 1.61612915e+02
      1.32580643e+02 1.64516129e+02 1.51935486e+02 1.25806458e+02
      1.81935486e+02 1.39354843e+02 1.83870972e+02 1.53870972e+02
      1.87741943e+02 1.65483871e+02 1.86774200e+02 1.78064514e+02
      1.85806458e+02 6.38709679e+01 8.80645218e+01 8.03225861e+01
      8.03225861e+01 9.87096786e+01 8.22580643e+01 1.11290329e+02
      9.67741928e+01 9.58064575e+01 9.58064575e+01 7.74193573e+01
      9.38709717e+01 1.85806458e+02 1.07419357e+02 2.02258072e+02
      9.87096786e+01 2.18709686e+02 1.00645164e+02 2.27419357e+02
      1.13225807e+02 2.16774200e+02 1.14193550e+02 2.01290329e+02
      1.11290329e+02 9.58064575e+01 2.33225815e+02 1.20967743e+02
      2.19677429e+02 1.41290329e+02 2.11935486e+02 1.53870972e+02
      2.17741943e+02 1.65483871e+02 2.14838715e+02 1.79032257e+02
      2.24516129e+02 1.86774200e+02 2.43870972e+02 1.75161301e+02
      2.51612915e+02 1.61612915e+02 2.54516144e+02 1.49032257e+02
      2.54516144e+02 1.34516129e+02 2.51612915e+02 1.16129036e+02
      2.46774200e+02 1.05483871e+02 2.33225815e+02 1.39354843e+02
      2.30322586e+02 1.52903229e+02 2.32258072e+02 1.64516129e+02
      2.33225815e+02 1.79032257e+02 2.40967743e+02 1.62580643e+02
      2.34193558e+02 1.50967743e+02 2.33225815e+02 1.37419357e+02
      2.32258072e+02</_>
    <_>
      -6.77419376e+00 1.01612907e+02 -9.67741966e+00 1.38387100e+02
      -1.06451616e+01 1.78064514e+02 -5.80645180e+00 2.16774200e+02
      9.67741966e+00 2.51612915e+02 3.48387108e+01 2.80645172e+02
      6.87096786e+01 3.03870972e+02 1.06451614e+02 3.23225830e+02
      1.47096771e+02 3.29032257e+02 1.81935486e+02 3.26129028e+02
      2.05161301e+02 3.09677429e+02 2.21612915e+02 2.82580658e+02
      2.32258072e+02 2.50645172e+02 240. 2.20645172e+02 2.47741943e+02
      1.89677429e+02 2.49677429e+02 1.60645172e+02 2.48709686e+02
      1.32580643e+02 5.80645180e+01 5.03225822e+01 8.12903214e+01
      3.96774216e+01 1.08387100e+02 4.06451607e+01 1.32580643e+02
      4.93548393e+01 1.54838715e+02 6.19354858e+01 1.94516129e+02
      6.87096786e+01 2.12903229e+02 6.19354858e+01 2.32258072e+02
      6.09677429e+01 2.48709686e+02 6.96774216e+01 2.51612915e+02
      8.90322571e+01 1.73225815e+02 1.00645164e+02 1.75161301e+02
      1.19032265e+02 1.79032257e+02 1.35483871e+02 1.81935486e+02
      1.54838715e+02 1.41290329e+02 1.83870972e+02 1.55806458e+02
      1.87741943e+02 1.70322586e+02 1.91612915e+02 1.81935486e+02
      1.90645172e+02 1.92580658e+02 1.88709686e+02 7.93548431e+01
      8.90322571e+01 9.58064575e+01 8.12903214e+01 1.13225807e+02
      8.22580643e+01 1.25806458e+02 9.77419357e+01 1.11290329e+02
      9.67741928e+01 9.29032288e+01 9.48387146e+01 1.93548386e+02
      1.07419357e+02 210. 9.77419357e+01 2.25483871e+02 9.96774216e+01
      2.34193558e+02 1.13225807e+02 2.23548401e+02 1.13225807e+02
      2.09032257e+02 1.10322586e+02 1.13225807e+02 2.37096786e+02
      1.37419357e+02 2.22580658e+02 1.57741943e+02 2.13870972e+02
      1.71290329e+02 2.19677429e+02 1.82903229e+02 2.16774200e+02
      1.96451614e+02 2.28387100e+02 2.03225815e+02 2.47741943e+02
      1.92580658e+02 2.54516144e+02 180. 2.56451630e+02 1.66451614e+02
      2.56451630e+02 1.51935486e+02 2.53548401e+02 1.32580643e+02
      2.47741943e+02 1.22903229e+02 2.37096786e+02 1.56774200e+02
      2.33225815e+02 1.69354843e+02 2.35161301e+02 1.80967743e+02
      2.36129044e+02 1.96451614e+02 2.44838715e+02 180. 2.36129044e+02
      1.68387100e+02 2.35161301e+02 1.54838715e+02 2.33225815e+02</_>
    <_>
      -1.06451616e+01 9.77419357e+01 -1.16129036e+01 1.34516129e+02
      -1.06451616e+01 1.73225815e+02 -5.80645180e+00 2.11935486e+02
      8.70967770e+00 2.49677429e+02 3.48387108e+01 2.78709686e+02
      7.16129074e+01 3.02903229e+02 1.09354843e+02 3.23225830e+02
      1.50967743e+02 3.30967743e+02 1.85806458e+02 3.26129028e+02
      2.07096786e+02 3.05806458e+02 2.22580658e+02 2.77741943e+02
      2.34193558e+02 2.46774200e+02 2.40967743e+02 2.14838715e+02
      2.46774200e+02 1.83870972e+02 2.48709686e+02 1.55806458e+02
      2.46774200e+02 1.27741936e+02 5.70967751e+01 6.19354858e+01
      7.93548431e+01 4.64516144e+01 1.09354843e+02 4.35483894e+01
      1.36451614e+02 5.12903252e+01 1.61612915e+02 6.58064499e+01
      1.94516129e+02 7.16129074e+01 2.13870972e+02 6.58064499e+01
      2.34193558e+02 6.48387146e+01 2.51612915e+02 7.45161285e+01
      2.54516144e+02 9.48387146e+01 1.78064514e+02 1.00645164e+02
      1.80967743e+02 1.19032265e+02 1.84838715e+02 1.37419357e+02
      1.88709686e+02 1.56774200e+02 1.46129044e+02 1.85806458e+02
      1.61612915e+02 1.88709686e+02 1.76129044e+02 1.92580658e+02
      1.87741943e+02 1.91612915e+02 1.98387100e+02 1.89677429e+02
      8.51612930e+01 90. 1.01612907e+02 8.32258072e+01 1.19032265e+02
      8.41935501e+01 1.31612900e+02 9.87096786e+01 1.17096779e+02
      9.87096786e+01 9.96774216e+01 9.58064575e+01 1.93548386e+02
      1.08387100e+02 210. 9.96774216e+01 2.25483871e+02 1.02580650e+02
      2.33225815e+02 1.15161293e+02 2.23548401e+02 1.15161293e+02
      2.09032257e+02 1.13225807e+02 1.17096779e+02 2.37096786e+02
      1.41290329e+02 2.23548401e+02 1.62580643e+02 2.14838715e+02
      1.74193558e+02 2.21612915e+02 1.84838715e+02 2.18709686e+02
      1.98387100e+02 2.30322586e+02 2.04193558e+02 2.48709686e+02
      1.94516129e+02 2.54516144e+02 1.81935486e+02 2.57419373e+02
      1.69354843e+02 2.56451630e+02 1.56774200e+02 2.53548401e+02
      1.38387100e+02 2.47741943e+02 1.26774200e+02 2.37096786e+02
      1.60645172e+02 2.34193558e+02 1.72258072e+02 2.36129044e+02
      1.82903229e+02 2.38064529e+02 1.97419357e+02 2.45806458e+02
      1.82903229e+02 2.38064529e+02 1.71290329e+02 2.37096786e+02
      1.59677429e+02 2.34193558e+02</_>
    <_>
      -2.20930233e+01 1.02325577e+02 -2.32558136e+01 1.41860458e+02
      -2.20930233e+01 1.82558136e+02 -1.86046505e+01 2.23255814e+02
      -4.65116310e+00 2.61627899e+02 2.20930233e+01 2.91860474e+02
      5.81395340e+01 3.15116272e+02 9.76744156e+01 3.31395355e+02
      1.40697678e+02 3.36046509e+02 1.79069763e+02 3.31395355e+02
      2.05813950e+02 3.12790680e+02 2.24418594e+02 2.87209290e+02
      2.36046509e+02 2.54651154e+02 2.41860458e+02 2.20930222e+02 250.
      1.90697678e+02 2.54651154e+02 1.59302322e+02 2.54651154e+02
      1.30232559e+02 4.06976738e+01 5.58139534e+01 6.27906952e+01
      4.18604660e+01 9.06976700e+01 4.06976738e+01 1.17441856e+02
      4.76744194e+01 1.41860458e+02 6.04651146e+01 1.80232559e+02
      6.62790680e+01 2.02325577e+02 5.81395340e+01 2.25581390e+02
      5.81395340e+01 2.46511627e+02 6.86046524e+01 2.53488373e+02
      9.18604660e+01 1.59302322e+02 9.53488388e+01 1.60465118e+02
      1.13953484e+02 1.62790695e+02 1.31395340e+02 1.65116272e+02
      1.51162781e+02 1.26744186e+02 1.82558136e+02 1.40697678e+02
      1.86046509e+02 1.55813950e+02 1.88372086e+02 1.68604645e+02
      1.88372086e+02 1.81395340e+02 1.87209305e+02 6.51162796e+01
      9.06976700e+01 8.13953476e+01 8.13953476e+01 9.88372040e+01
      8.25581360e+01 1.12790695e+02 9.76744156e+01 9.76744156e+01
      9.88372040e+01 7.90697632e+01 9.65116272e+01 1.88372086e+02
      1.09302322e+02 2.04651154e+02 9.88372040e+01 2.20930222e+02
      1.01162788e+02 2.30232559e+02 1.15116280e+02 2.19767441e+02
      1.16279068e+02 2.03488373e+02 1.13953484e+02 9.88372040e+01
      2.38372086e+02 1.23255814e+02 2.22093018e+02 1.43023254e+02
      2.12790695e+02 1.55813950e+02 2.18604645e+02 1.68604645e+02
      2.16279068e+02 1.82558136e+02 2.27906967e+02 1.91860458e+02
      2.47674408e+02 1.80232559e+02 2.54651154e+02 1.66279068e+02
      2.56976746e+02 1.53488373e+02 2.56976746e+02 1.38372086e+02
      2.53488373e+02 1.19767441e+02 250. 1.08139534e+02 2.37209305e+02
      1.41860458e+02 2.32558136e+02 1.54651154e+02 2.34883713e+02
      1.67441864e+02 2.34883713e+02 1.86046509e+02 2.44186035e+02
      1.67441864e+02 2.37209305e+02 1.54651154e+02 2.36046509e+02
      1.40697678e+02 2.33720932e+02</_>
    <_>
      0. 1.16279068e+02 -1.16279101e+00 1.51162781e+02 -1.16279101e+00
      1.88372086e+02 4.65116310e+00 2.24418594e+02 1.74418602e+01
      2.60465118e+02 4.18604660e+01 2.90697662e+02 7.44186020e+01
      3.13953491e+02 1.12790695e+02 3.33720917e+02 1.53488373e+02
      3.39534882e+02 1.90697678e+02 3.34883728e+02 2.17441864e+02
      3.17441864e+02 2.36046509e+02 2.91860474e+02 2.48837204e+02
      2.60465118e+02 2.58139526e+02 2.29069763e+02 2.65116272e+02
      1.97674408e+02 2.67441864e+02 1.67441864e+02 2.66279053e+02
      1.38372086e+02 5.34883728e+01 6.86046524e+01 7.67441864e+01
      5.34883728e+01 1.04651161e+02 5.23255806e+01 1.31395340e+02
      5.93023262e+01 1.55813950e+02 7.32558136e+01 1.89534882e+02
      7.79069748e+01 2.11627899e+02 6.86046524e+01 2.34883713e+02
      6.74418564e+01 2.55813950e+02 7.67441864e+01 2.62790680e+02
      9.76744156e+01 1.72093018e+02 1.04651161e+02 1.74418594e+02
